{"learner":{"attributes":{"scikit_learn":"{\"_estimator_type\": \"classifier\"}"},"feature_names":["api_temp","api_humidity","api_pressure","api_wind_speed","api_dew_spread","pressure_trend","wind_sin","wind_cos","sensor_temp","sensor_humidity","sensor_pressure","sensor_wind_speed","sensor_dew_spread","month","hour","pressure_diff","temp_diff"],"feature_types":["float","float","float","float","float","float","float","float","float","float","float","float","float","int","int","float","float"],"gradient_booster":{"model":{"gbtree_model_param":{"num_parallel_tree":"1","num_trees":"300"},"iteration_indptr":[0,1,2,3,4,5,6,7,8,9,10,11,12,13,14,15,16,17,18,19,20,21,22,23,24,25,26,27,28,29,30,31,32,33,34,35,36,37,38,39,40,41,42,43,44,45,46,47,48,49,50,51,52,53,54,55,56,57,58,59,60,61,62,63,64,65,66,67,68,69,70,71,72,73,74,75,76,77,78,79,80,81,82,83,84,85,86,87,88,89,90,91,92,93,94,95,96,97,98,99,100,101,102,103,104,105,106,107,108,109,110,111,112,113,114,115,116,117,118,119,120,121,122,123,124,125,126,127,128,129,130,131,132,133,134,135,136,137,138,139,140,141,142,143,144,145,146,147,148,149,150,151,152,153,154,155,156,157,158,159,160,161,162,163,164,165,166,167,168,169,170,171,172,173,174,175,176,177,178,179,180,181,182,183,184,185,186,187,188,189,190,191,192,193,194,195,196,197,198,199,200,201,202,203,204,205,206,207,208,209,210,211,212,213,214,215,216,217,218,219,220,221,222,223,224,225,226,227,228,229,230,231,232,233,234,235,236,237,238,239,240,241,242,243,244,245,246,247,248,249,250,251,252,253,254,255,256,257,258,259,260,261,262,263,264,265,266,267,268,269,270,271,272,273,274,275,276,277,278,279,280,281,282,283,284,285,286,287,288,289,290,291,292,293,294,295,296,297,298,299,300],"tree_info":[0,0,0,0,0,0,0,0,0,0,0,0,0,0,0,0,0,0,0,0,0,0,0,0,0,0,0,0,0,0,0,0,0,0,0,0,0,0,0,0,0,0,0,0,0,0,0,0,0,0,0,0,0,0,0,0,0,0,0,0,0,0,0,0,0,0,0,0,0,0,0,0,0,0,0,0,0,0,0,0,0,0,0,0,0,0,0,0,0,0,0,0,0,0,0,0,0,0,0,0,0,0,0,0,0,0,0,0,0,0,0,0,0,0,0,0,0,0,0,0,0,0,0,0,0,0,0,0,0,0,0,0,0,0,0,0,0,0,0,0,0,0,0,0,0,0,0,0,0,0,0,0,0,0,0,0,0,0,0,0,0,0,0,0,0,0,0,0,0,0,0,0,0,0,0,0,0,0,0,0,0,0,0,0,0,0,0,0,0,0,0,0,0,0,0,0,0,0,0,0,0,0,0,0,0,0,0,0,0,0,0,0,0,0,0,0,0,0,0,0,0,0,0,0,0,0,0,0,0,0,0,0,0,0,0,0,0,0,0,0,0,0,0,0,0,0,0,0,0,0,0,0,0,0,0,0,0,0,0,0,0,0,0,0,0,0,0,0,0,0,0,0,0,0,0,0,0,0,0,0,0,0,0,0,0,0,0,0,0,0,0,0,0,0,0,0,0,0,0,0],"trees":[{"base_weights":[-3.7609607E-1,1.0993692E0,-1.0444391E0,-3.7628046E-1,3.4218502E0,-3.66066E-2,-5.223407E-1,5.572019E-1,-3.6640335E-2,4.0232015E0,-3.5921868E-2,1.6448596E0,-1.2055695E0,1.4394937E0,-8.388795E-1,-2.5626853E-1,4.5386705E0,4.052593E0,-3.614595E-2,1.1193289E-2,-3.666782E-2,-8.1668496E-1,2.0298486E0,-9.532575E-1,1.5868554E0,2.4382298E0,-9.542669E-1,2.5468836E0,4.770432E0,-2.898003E-1,4.585924E0,-2.9692208E-2,6.729226E-2,-3.5584927E-2,3.5367314E-2,7.3187836E-2,1.6960636E-2,-3.044393E-2,5.043034E-2,-2.4301633E-2,9.665318E-2,1.0259245E-1,-2.289116E-2,-3.546048E-2,6.0990836E-2,2.3430206E-2,1.1081865E-1,1.2305796E-1,1.5200453E-1,-3.1826552E-2,7.44621E-2,8.179857E-2,1.507707E-1],"categories":[],"categories_nodes":[],"categories_segments":[],"categories_sizes":[],"default_left":[0,0,0,0,0,0,0,0,0,0,0,0,0,0,0,0,0,0,0,0,0,0,0,0,0,0,0,0,0,0,0,0,0,0,0,0,0,0,0,0,0,0,0,0,0,0,0,0,0,0,0,0,0],"id":0,"left_children":[1,3,5,7,9,-1,11,13,-1,15,-1,17,19,21,23,25,27,29,-1,31,-1,33,35,37,39,41,43,45,47,49,51,-1,-1,-1,-1,-1,-1,-1,-1,-1,-1,-1,-1,-1,-1,-1,-1,-1,-1,-1,-1,-1,-1],"loss_changes":[3.0484143E3,3.3046064E3,1.945957E2,4.6632712E2,1.0453188E3,0E0,7.9796106E2,3.4752158E2,0E0,7.3278564E2,0E0,8.9188837E2,8.326172E0,2.3161484E2,3.1895874E1,7.116428E1,1.2451709E2,1.6414099E2,0E0,1.6806843E1,0E0,2.8325125E1,8.090747E1,1.8760536E1,2.3403881E1,2.7155102E1,2.267023E1,6.396733E1,3.1535156E1,2.1079378E1,3.7539795E1,0E0,0E0,0E0,0E0,0E0,0E0,0E0,0E0,0E0,0E0,0E0,0E0,0E0,0E0,0E0,0E0,0E0,0E0,0E0,0E0,0E0,0E0],"parents":[2147483647,0,0,1,1,2,2,3,3,4,4,6,6,7,7,9,9,11,11,12,12,13,13,14,14,15,15,16,16,17,17,19,19,21,21,22,22,23,23,24,24,25,25,26,26,27,27,28,28,29,29,30,30],"right_children":[2,4,6,8,10,-1,12,14,-1,16,-1,18,20,22,24,26,28,30,-1,32,-1,34,36,38,40,42,44,46,48,50,52,-1,-1,-1,-1,-1,-1,-1,-1,-1,-1,-1,-1,-1,-1,-1,-1,-1,-1,-1,-1,-1,-1],"split_conditions":[-1.2E0,7.3E1,1E-1,1.1E1,1.1E1,-3.66066E-2,-2E-1,9.682E2,-3.6640335E-2,1.14E1,-3.5921868E-2,1.1E1,2.394E2,1.6E1,2.446E2,7.3E0,4.4E1,3.8E1,-3.614595E-2,2.393E2,-3.666782E-2,4.4E1,8E0,1.9E1,2.08E1,8.7155744E-2,9.945219E-1,1.58E1,8.4E1,6.156615E-1,7.8E1,-2.9692208E-2,6.729226E-2,-3.5584927E-2,3.5367314E-2,7.3187836E-2,1.6960636E-2,-3.044393E-2,5.043034E-2,-2.4301633E-2,9.665318E-2,1.0259245E-1,-2.289116E-2,-3.546048E-2,6.0990836E-2,2.3430206E-2,1.1081865E-1,1.2305796E-1,1.5200453E-1,-3.1826552E-2,7.44621E-2,8.179857E-2,1.507707E-1],"split_indices":[5,9,16,14,14,0,5,2,0,12,0,14,15,1,15,16,1,1,0,15,0,9,13,12,8,7,7,12,9,6,9,0,0,0,0,0,0,0,0,0,0,0,0,0,0,0,0,0,0,0,0,0,0],"split_type":[0,0,0,0,0,0,0,0,0,0,0,0,0,0,0,0,0,0,0,0,0,0,0,0,0,0,0,0,0,0,0,0,0,0,0,0,0,0,0,0,0,0,0,0,0,0,0,0,0,0,0,0,0],"sum_hessian":[3.0891672E3,9.628624E2,2.126305E3,5.892835E2,3.735789E2,1.5897339E3,5.3657104E2,2.8015585E2,3.091277E2,3.3066116E2,4.2917725E1,1.2827513E2,4.082959E2,1.7164746E2,1.0850839E2,3.5601013E1,2.9506015E2,6.930078E1,5.8974358E1,5.529546E0,4.0276636E2,3.5519196E1,1.3612827E2,1.0420209E2,4.306303E0,6.811862E0,2.8789152E1,3.2003937E1,2.630562E2,7.6304135E0,6.1670364E1,4.2017355E0,1.3278105E0,3.031252E1,5.2066746E0,1.0584766E2,3.0280603E1,1.0242409E2,1.7779965E0,1.9508058E0,2.3554971E0,5.16118E0,1.6506817E0,2.7311281E1,1.4778725E0,1.3264527E1,1.873941E1,8.536182E1,1.7769438E2,6.4526653E0,1.1777486E0,1.3173538E1,4.8496826E1],"tree_param":{"num_deleted":"0","num_feature":"17","num_nodes":"53","size_leaf_vector":"1"}},{"base_weights":[-3.6829963E-1,1.043128E0,-1.0340548E0,-3.6801556E-1,3.1141567E0,-3.6360215E-2,-5.124527E-1,5.347995E-1,-3.6395177E-2,3.6232913E0,-3.5669997E-2,1.5471711E0,-1.1971161E0,1.3588206E0,-8.2677346E-1,-2.481559E-1,4.049876E0,3.6552463E0,-3.5896055E-2,1.6199218E-2,-3.642294E-2,-8.049939E-1,1.8957312E0,-9.41865E-1,1.5186049E0,2.2815812E0,-9.427132E-1,2.3634763E0,4.2379823E0,4.0973406E0,-2.8069985E-1,-2.9424531E-2,6.454245E-2,-3.5330296E-2,3.383099E-2,6.783692E-2,1.6296053E-2,-3.0120859E-2,4.845415E-2,-2.4067337E-2,9.064228E-2,9.474782E-2,-2.2670541E-2,-3.520489E-2,5.8526568E-2,2.2461759E-2,1.0079946E-1,1.1068933E-1,1.3430363E-1,-2.0075379E-2,1.2565435E-1,-3.158083E-2,7.139831E-2],"categories":[],"categories_nodes":[],"categories_segments":[],"categories_sizes":[],"default_left":[0,0,0,0,0,0,0,0,0,0,0,0,0,0,0,0,0,0,0,0,0,0,0,0,0,0,0,0,0,0,0,0,0,0,0,0,0,0,0,0,0,0,0,0,0,0,0,0,0,0,0,0,0],"id":1,"left_children":[1,3,5,7,9,-1,11,13,-1,15,-1,17,19,21,23,25,27,29,-1,31,-1,33,35,37,39,41,43,45,47,49,51,-1,-1,-1,-1,-1,-1,-1,-1,-1,-1,-1,-1,-1,-1,-1,-1,-1,-1,-1,-1,-1,-1],"loss_changes":[2.8840288E3,2.8764316E3,1.9292993E2,4.478048E2,8.7804224E2,0E0,7.522925E2,3.1981268E2,0E0,5.903574E2,0E0,7.74828E2,8.260681E0,2.075459E2,3.0505836E1,6.603868E1,9.196924E1,1.3265533E2,0E0,1.5963864E1,0E0,2.7226463E1,6.915512E1,1.8040245E1,2.133203E1,2.4021194E1,2.1812893E1,5.303557E1,2.1191406E1,3.234619E1,2.0102936E1,0E0,0E0,0E0,0E0,0E0,0E0,0E0,0E0,0E0,0E0,0E0,0E0,0E0,0E0,0E0,0E0,0E0,0E0,0E0,0E0,0E0,0E0],"parents":[2147483647,0,0,1,1,2,2,3,3,4,4,6,6,7,7,9,9,11,11,12,12,13,13,14,14,15,15,16,16,17,17,19,19,21,21,22,22,23,23,24,24,25,25,26,26,27,27,28,28,29,29,30,30],"right_children":[2,4,6,8,10,-1,12,14,-1,16,-1,18,20,22,24,26,28,30,-1,32,-1,34,36,38,40,42,44,46,48,50,52,-1,-1,-1,-1,-1,-1,-1,-1,-1,-1,-1,-1,-1,-1,-1,-1,-1,-1,-1,-1,-1,-1],"split_conditions":[-1.2E0,7.3E1,1E-1,1.1E1,1.1E1,-3.6360215E-2,-2E-1,9.682E2,-3.6395177E-2,1.14E1,-3.5669997E-2,1.1E1,2.394E2,1.6E1,2.446E2,7.3E0,4.4E1,1.6E1,-3.5896055E-2,2.393E2,-3.642294E-2,4.4E1,8E0,1.9E1,2.08E1,8.7155744E-2,9.945219E-1,1.58E1,8.4E1,8E0,6.946584E-1,-2.9424531E-2,6.454245E-2,-3.5330296E-2,3.383099E-2,6.783692E-2,1.6296053E-2,-3.0120859E-2,4.845415E-2,-2.4067337E-2,9.064228E-2,9.474782E-2,-2.2670541E-2,-3.520489E-2,5.8526568E-2,2.2461759E-2,1.0079946E-1,1.1068933E-1,1.3430363E-1,-2.0075379E-2,1.2565435E-1,-3.158083E-2,7.139831E-2],"split_indices":[5,9,16,14,14,0,5,2,0,12,0,14,15,1,15,16,1,4,0,15,0,9,13,12,8,7,7,12,9,14,6,0,0,0,0,0,0,0,0,0,0,0,0,0,0,0,0,0,0,0,0,0,0],"split_type":[0,0,0,0,0,0,0,0,0,0,0,0,0,0,0,0,0,0,0,0,0,0,0,0,0,0,0,0,0,0,0,0,0,0,0,0,0,0,0,0,0,0,0,0,0,0,0,0,0,0,0,0,0],"sum_hessian":[3.0670613E3,9.8283813E2,2.0842231E3,5.85034E2,3.9780417E2,1.5530522E3,5.3117084E2,2.8304565E2,3.019883E2,3.5585825E2,4.1945908E1,1.3220581E2,3.9896503E2,1.7633195E2,1.067137E2,3.536089E1,3.2049734E2,7.4575165E1,5.763065E1,5.507618E0,3.9345743E2,3.4955956E1,1.41376E2,1.0229246E2,4.421243E0,7.1250134E0,2.8235876E1,3.3523003E1,2.8697437E2,6.7007706E1,7.5674586E0,4.1230497E0,1.3845683E0,2.9632547E1,5.3234086E0,1.1077026E2,3.0605743E1,1.00457565E2,1.8348937E0,1.9208915E0,2.5003514E0,5.498177E0,1.6268361E0,2.670077E1,1.5351073E0,1.3461375E1,2.0061628E1,9.205369E1,1.9492067E2,1.1381855E0,6.586952E1,6.333979E0,1.2334793E0],"tree_param":{"num_deleted":"0","num_feature":"17","num_nodes":"53","size_leaf_vector":"1"}},{"base_weights":[-3.609404E-1,8.712094E-1,-1.0922984E0,2.1653821E0,-3.620084E-2,-1.1127185E0,1.3964224E0,6.635777E-1,3.6294913E0,-3.611636E-2,-8.1652987E-1,-3.1005578E-2,2.909028E0,-4.0509826E-1,1.5787675E0,9.1513586E-1,3.777566E0,1.2154319E0,-1.188408E0,1.1005254E-1,-2.2192134E-2,-8.5009116E-1,2.5868762E-1,4.7042757E-1,2.643909E0,2.010611E0,-4.0876767E-1,-2.8734172E-2,3.832805E0,3.1224866E0,-3.514801E-2,1.142467E-1,-3.618575E-2,7.6262048E-3,-3.3360627E-2,6.731082E-2,-5.7018357E-3,3.5334192E-2,-1.1992007E-2,-1.1348145E-2,8.810191E-2,-2.6215374E-2,8.8313244E-2,6.9723725E-2,-3.277897E-2,1.0079154E-1,1.21161304E-1,1.04521684E-1,-2.766444E-2,-2.8724361E-2,6.909411E-2],"categories":[],"categories_nodes":[],"categories_segments":[],"categories_sizes":[],"default_left":[0,0,0,0,0,0,0,0,0,0,0,0,0,0,0,0,0,0,0,0,0,0,0,0,0,0,0,0,0,0,0,0,0,0,0,0,0,0,0,0,0,0,0,0,0,0,0,0,0,0,0],"id":2,"left_children":[1,3,5,7,-1,9,11,13,15,-1,17,-1,19,21,23,25,27,29,31,-1,-1,33,35,37,39,41,43,-1,45,47,-1,49,-1,-1,-1,-1,-1,-1,-1,-1,-1,-1,-1,-1,-1,-1,-1,-1,-1,-1,-1],"loss_changes":[2.7432898E3,3.0523032E3,9.862573E1,1.53495E3,0E0,5.0186523E1,6.17731E1,3.3940387E2,1.3874854E2,0E0,3.4081442E2,0E0,3.0744804E1,4.7652626E1,2.1926682E2,2.9280294E1,9.1348145E1,3.2219043E2,8.944153E0,0E0,0E0,2.8156975E1,5.85171E1,5.7564167E1,8.5211914E1,3.192907E1,2.0697742E1,0E0,1.8725098E1,6.049582E1,0E0,1.6358479E1,0E0,0E0,0E0,0E0,0E0,0E0,0E0,0E0,0E0,0E0,0E0,0E0,0E0,0E0,0E0,0E0,0E0,0E0,0E0],"parents":[2147483647,0,0,1,1,2,2,3,3,5,5,6,6,7,7,8,8,10,10,12,12,13,13,14,14,15,15,16,16,17,17,18,18,21,21,22,22,23,23,24,24,25,25,26,26,28,28,29,29,31,31],"right_children":[2,4,6,8,-1,10,12,14,16,-1,18,-1,20,22,24,26,28,30,32,-1,-1,34,36,38,40,42,44,-1,46,48,-1,50,-1,-1,-1,-1,-1,-1,-1,-1,-1,-1,-1,-1,-1,-1,-1,-1,-1,-1,-1],"split_conditions":[-1E0,1.1E1,1E2,4.8E1,-3.620084E-2,2E-1,1.27E1,1.56E1,7.2E1,-3.611636E-2,-2E-1,-3.1005578E-2,-2E-1,1.2E1,5.7E1,5.2E1,1.04E1,1.1E1,2.394E2,1.1005254E-1,-2.2192134E-2,6.9E0,2.54E1,3.18E1,4.9E0,5E1,7.1E0,-2.8734172E-2,8.4E1,3.08E1,-3.514801E-2,2.393E2,-3.618575E-2,7.6262048E-3,-3.3360627E-2,6.731082E-2,-5.7018357E-3,3.5334192E-2,-1.1992007E-2,-1.1348145E-2,8.810191E-2,-2.6215374E-2,8.8313244E-2,6.9723725E-2,-3.277897E-2,1.0079154E-1,1.21161304E-1,1.04521684E-1,-2.766444E-2,-2.8724361E-2,6.909411E-2],"split_indices":[5,14,9,1,0,16,3,12,9,0,5,0,5,12,9,1,12,14,15,0,0,16,0,8,16,1,4,0,9,8,0,15,0,0,0,0,0,0,0,0,0,0,0,0,0,0,0,0,0,0,0],"split_type":[0,0,0,0,0,0,0,0,0,0,0,0,0,0,0,0,0,0,0,0,0,0,0,0,0,0,0,0,0,0,0,0,0,0,0,0,0,0,0,0,0,0,0,0,0,0,0,0,0,0,0],"sum_hessian":[3.0421792E3,1.1330651E3,1.9091141E3,6.9817896E2,4.3488614E2,1.8941256E3,1.4988539E1,3.4537012E2,3.5280887E2,1.4460107E3,4.4811484E2,5.87205E0,9.116488E0,1.5958202E2,1.8578809E2,1.8622389E1,3.3418646E2,6.8973206E1,3.7914166E2,7.5415387E0,1.57495E0,9.536797E1,6.421404E1,9.175426E1,9.403384E1,9.906485E0,8.715903E0,3.6649976E0,3.3052148E2,3.8170116E1,3.0803085E1,5.0332246E0,3.7410843E2,1.8289366E1,7.707861E1,1.1102609E1,5.3111435E1,5.0416058E1,4.13382E1,8.2804365E0,8.57534E1,2.4370394E0,7.4694457E0,1.264427E0,7.4514766E0,1.0548244E2,2.2503905E2,3.5165134E1,3.0049837E0,3.7565258E0,1.2766986E0],"tree_param":{"num_deleted":"0","num_feature":"17","num_nodes":"51","size_leaf_vector":"1"}},{"base_weights":[-3.539479E-1,8.3348864E-1,-1.0833712E0,2.0278819E0,-3.597594E-2,-1.104012E0,1.3307188E0,6.362725E-1,3.32388E0,-3.5889614E-2,-8.061202E-1,-3.074938E-2,2.7133927E0,-4.4452086E-1,1.4545792E0,8.797905E-1,3.4512124E0,1.1567587E0,-1.1805986E0,1.01693325E-1,-2.198244E-2,-7.316098E-1,4.6289608E-1,4.8945737E-1,2.3900707E0,1.8918304E0,-3.971163E-1,-2.8474072E-2,3.4988844E0,2.8822815E0,-3.491193E-2,1.1739002E-1,-3.5960756E-2,2.8890735E-2,-2.6478037E-2,3.96793E-2,-3.363525E-2,-2.170768E-2,3.0162852E-2,8.192823E-2,6.265176E-3,-2.5962494E-2,8.203953E-2,6.697794E-2,-3.2496385E-2,9.2570044E-2,1.1032147E-1,9.598867E-2,-2.7403666E-2,-2.8468428E-2,6.638677E-2],"categories":[],"categories_nodes":[],"categories_segments":[],"categories_sizes":[],"default_left":[0,0,0,0,0,0,0,0,0,0,0,0,0,0,0,0,0,0,0,0,0,0,0,0,0,0,0,0,0,0,0,0,0,0,0,0,0,0,0,0,0,0,0,0,0,0,0,0,0,0,0],"id":3,"left_children":[1,3,5,7,-1,9,11,13,15,-1,17,-1,19,21,23,25,27,29,31,-1,-1,33,35,37,39,41,43,-1,45,47,-1,49,-1,-1,-1,-1,-1,-1,-1,-1,-1,-1,-1,-1,-1,-1,-1,-1,-1,-1,-1],"loss_changes":[2.6133523E3,2.7903416E3,9.459277E1,1.303053E3,0E0,5.000537E1,5.5863533E1,3.1037317E2,1.13504395E2,0E0,3.259369E2,0E0,2.7060226E1,3.9848946E1,1.7898508E2,2.6448845E1,7.791406E1,2.8864093E2,8.86084E0,0E0,0E0,3.042955E1,5.1960327E1,6.2986008E1,7.45744E1,2.8548992E1,1.9772802E1,0E0,1.4615234E1,5.2490753E1,0E0,1.5541644E1,0E0,0E0,0E0,0E0,0E0,0E0,0E0,0E0,0E0,0E0,0E0,0E0,0E0,0E0,0E0,0E0,0E0,0E0,0E0],"parents":[2147483647,0,0,1,1,2,2,3,3,5,5,6,6,7,7,8,8,10,10,12,12,13,13,14,14,15,15,16,16,17,17,18,18,21,21,22,22,23,23,24,24,25,25,26,26,28,28,29,29,31,31],"right_children":[2,4,6,8,-1,10,12,14,16,-1,18,-1,20,22,24,26,28,30,32,-1,-1,34,36,38,40,42,44,-1,46,48,-1,50,-1,-1,-1,-1,-1,-1,-1,-1,-1,-1,-1,-1,-1,-1,-1,-1,-1,-1,-1],"split_conditions":[-1E0,1.1E1,1E2,4.8E1,-3.597594E-2,2E-1,1.27E1,1.52E1,7.2E1,-3.5889614E-2,-2E-1,-3.074938E-2,-2E-1,3.8E1,5.7E1,5.2E1,1.04E1,1.1E1,2.394E2,1.01693325E-1,-2.198244E-2,-9.9254614E-1,8.3E0,1.6E1,6.946584E-1,5E1,7.1E0,-2.8474072E-2,8.4E1,3.08E1,-3.491193E-2,2.393E2,-3.5960756E-2,2.8890735E-2,-2.6478037E-2,3.96793E-2,-3.363525E-2,-2.170768E-2,3.0162852E-2,8.192823E-2,6.265176E-3,-2.5962494E-2,8.203953E-2,6.697794E-2,-3.2496385E-2,9.2570044E-2,1.1032147E-1,9.598867E-2,-2.7403666E-2,-2.8468428E-2,6.638677E-2],"split_indices":[5,14,9,1,0,16,3,12,9,0,5,0,5,1,9,1,12,14,15,0,0,6,16,1,7,1,4,0,9,8,0,15,0,0,0,0,0,0,0,0,0,0,0,0,0,0,0,0,0,0,0],"split_type":[0,0,0,0,0,0,0,0,0,0,0,0,0,0,0,0,0,0,0,0,0,0,0,0,0,0,0,0,0,0,0,0,0,0,0,0,0,0,0,0,0,0,0,0,0,0,0,0,0,0,0],"sum_hessian":[3.015184E3,1.1473147E3,1.8678695E3,7.226769E2,4.246378E2,1.8525724E3,1.5297118E1,3.4920285E2,3.7347403E2,1.4120123E3,4.4056E2,5.7534723E0,9.543646E0,1.5066548E2,1.9853737E2,1.888544E1,3.545886E2,7.024939E1,3.703106E2,7.9914865E0,1.5521591E0,1.1460154E2,3.6063942E1,9.8470825E1,1.0006654E2,1.0266741E1,8.618699E0,3.5976763E0,3.5099094E2,4.0150936E1,3.0098455E1,5.015506E0,3.652951E2,8.935624E0,1.0566592E2,2.3483446E1,1.2580496E1,2.9265448E1,6.9205376E1,8.6324265E1,1.3742278E1,2.3972955E0,7.8694453E0,1.3169503E0,7.3017488E0,1.1139724E2,2.3959369E2,3.719806E1,2.9528775E0,3.6866376E0,1.3288679E0],"tree_param":{"num_deleted":"0","num_feature":"17","num_nodes":"51","size_leaf_vector":"1"}},{"base_weights":[-3.473079E-1,7.9939175E-1,-1.0748034E0,1.9083093E0,-3.576023E-2,-1.139547E0,-2.8156242E-1,6.107873E-1,3.0716019E0,-3.582025E-2,-9.2877585E-1,1.5173335E0,-9.8350406E-1,-4.3528038E-1,1.3772461E0,8.469438E-1,3.1831548E0,6.6685253E-1,-3.5727445E-2,1.0617442E-1,-3.3881567E-2,-8.427452E-2,-3.5424575E-2,-8.32188E-1,2.2013624E-1,4.707038E-1,2.229641E0,1.7859684E0,-3.8595036E-1,-2.821886E-2,3.225034E0,2.1857376E0,-3.434171E-2,1.2179722E0,-3.2813385E-2,7.3441314E-3,-3.2931097E-2,6.1808802E-2,-8.83106E-3,-2.137087E-2,2.8755998E-2,7.249296E-2,-3.2082666E-2,-2.5714088E-2,7.6595455E-2,6.441263E-2,-3.222117E-2,8.567705E-2,1.01513855E-1,7.7530615E-2,-2.7147688E-2,9.1647565E-2,-2.8441133E-2],"categories":[],"categories_nodes":[],"categories_segments":[],"categories_sizes":[],"default_left":[0,0,0,0,0,0,0,0,0,0,0,0,0,0,0,0,0,0,0,0,0,0,0,0,0,0,0,0,0,0,0,0,0,0,0,0,0,0,0,0,0,0,0,0,0,0,0,0,0,0,0,0,0],"id":4,"left_children":[1,3,5,7,-1,9,11,13,15,-1,17,19,21,23,25,27,29,31,-1,-1,-1,33,-1,35,37,39,41,43,45,-1,47,49,-1,51,-1,-1,-1,-1,-1,-1,-1,-1,-1,-1,-1,-1,-1,-1,-1,-1,-1,-1,-1],"loss_changes":[2.4927417E3,2.5640173E3,9.356177E1,1.1233967E3,0E0,1.8287598E1,1.7735338E2,2.8416162E2,9.479419E1,0E0,1.4780463E2,2.1528497E2,1.7783325E1,3.9286358E1,1.5686234E2,2.3983084E1,6.757495E1,1.4072641E2,0E0,0E0,0E0,2.6589785E1,0E0,2.710019E1,5.5032337E1,5.8569283E1,6.732294E1,2.5709393E1,1.89013E1,0E0,1.2030518E1,3.6425797E1,0E0,3.816089E1,0E0,0E0,0E0,0E0,0E0,0E0,0E0,0E0,0E0,0E0,0E0,0E0,0E0,0E0,0E0,0E0,0E0,0E0,0E0],"parents":[2147483647,0,0,1,1,2,2,3,3,5,5,6,6,7,7,8,8,10,10,11,11,12,12,13,13,14,14,15,15,16,16,17,17,21,21,23,23,24,24,25,25,26,26,27,27,28,28,30,30,31,31,33,33],"right_children":[2,4,6,8,-1,10,12,14,16,-1,18,20,22,24,26,28,30,32,-1,-1,-1,34,-1,36,38,40,42,44,46,-1,48,50,-1,52,-1,-1,-1,-1,-1,-1,-1,-1,-1,-1,-1,-1,-1,-1,-1,-1,-1,-1,-1],"split_conditions":[-1E0,1.1E1,9.1E1,4.8E1,-3.576023E-2,5E-1,-4E-1,1.52E1,7.2E1,-3.582025E-2,-2E-1,1.1E1,9.574E2,1.2E1,5.7E1,5.2E1,1.04E1,1.1E1,-3.5727445E-2,1.0617442E-1,-3.3881567E-2,-8.1915206E-1,-3.5424575E-2,6.9E0,2.54E1,1.6E1,8.480481E-1,5E1,7.1E0,-2.821886E-2,8.4E1,3.08E1,-3.434171E-2,5E-1,-3.2813385E-2,7.3441314E-3,-3.2931097E-2,6.1808802E-2,-8.83106E-3,-2.137087E-2,2.8755998E-2,7.249296E-2,-3.2082666E-2,-2.5714088E-2,7.6595455E-2,6.441263E-2,-3.222117E-2,8.567705E-2,1.01513855E-1,7.7530615E-2,-2.7147688E-2,9.1647565E-2,-2.8441133E-2],"split_indices":[5,14,9,1,0,16,5,12,9,0,5,14,2,12,9,1,12,14,0,0,0,6,0,16,0,1,7,1,4,0,9,8,0,5,0,0,0,0,0,0,0,0,0,0,0,0,0,0,0,0,0,0,0],"split_type":[0,0,0,0,0,0,0,0,0,0,0,0,0,0,0,0,0,0,0,0,0,0,0,0,0,0,0,0,0,0,0,0,0,0,0,0,0,0,0,0,0,0,0,0,0,0,0,0,0,0,0,0,0],"sum_hessian":[2.986085E3,1.159053E3,1.827032E3,7.4451117E2,4.1454184E2,1.6887604E3,1.3827165E2,3.5267117E2,3.9184E2,1.338293E3,3.5046738E2,3.84844E1,9.978725E1,1.4931595E2,2.0335521E2,1.9120436E1,3.7271954E2,4.9234608E1,3.012328E2,2.1626701E1,1.6857698E1,1.8212778E1,8.157446E1,9.283012E1,5.6485832E1,9.929977E1,1.0405544E2,1.0599107E1,8.521329E0,3.531356E0,3.691882E2,2.6668404E1,2.2566204E1,7.863052E0,1.0349727E1,1.8374956E1,7.4455154E1,1.1685945E1,4.479989E1,2.8856873E1,7.0442894E1,9.8732796E1,5.3226476E0,2.358095E0,8.241012E0,1.367357E0,7.153972E0,1.1674224E2,2.5244595E2,2.3766897E1,2.9015062E0,4.032654E0,3.830398E0],"tree_param":{"num_deleted":"0","num_feature":"17","num_nodes":"53","size_leaf_vector":"1"}},{"base_weights":[-3.4100944E-1,7.6838255E-1,-1.066591E0,1.8032736E0,-3.5553247E-2,-1.1319839E0,-2.7613005E-1,5.8695745E-1,2.85958E0,-3.5614014E-2,-9.1948766E-1,1.4476699E0,-9.741196E-1,-4.2621315E-1,1.3067333E0,-3.228758E-1,2.9214163E0,6.421113E-1,-3.5520066E-2,9.849705E-2,-3.36527E-2,-8.129208E-2,-3.5212807E-2,-6.2199485E-1,8.652001E-1,-3.7683704E-1,1.7126683E0,-3.2156367E-2,6.7597136E-2,3.9453378E-1,2.971611E0,2.057833E0,-3.411808E-2,1.1695237E0,-3.2573663E-2,3.0081872E-2,-2.2430126E-2,7.2990976E-2,-3.251221E-2,1.76108E-2,-3.4550693E-2,1.0489664E-2,6.654288E-2,-3.0007666E-2,6.0374707E-2,5.2835003E-2,9.0681195E-2,8.715222E-3,8.297958E-2,8.583546E-2,-2.8197251E-2],"categories":[],"categories_nodes":[],"categories_segments":[],"categories_sizes":[],"default_left":[0,0,0,0,0,0,0,0,0,0,0,0,0,0,0,0,0,0,0,0,0,0,0,0,0,0,0,0,0,0,0,0,0,0,0,0,0,0,0,0,0,0,0,0,0,0,0,0,0,0,0],"id":5,"left_children":[1,3,5,7,-1,9,11,13,15,-1,17,19,21,23,25,27,29,31,-1,-1,-1,33,-1,35,37,39,41,-1,-1,43,45,47,-1,49,-1,-1,-1,-1,-1,-1,-1,-1,-1,-1,-1,-1,-1,-1,-1,-1,-1],"loss_changes":[2.380368E3,2.3664316E3,9.209143E1,9.8104785E2,0E0,1.8253418E1,1.67343E2,2.6073633E2,8.145239E1,0E0,1.4309332E2,1.9304285E2,1.7508118E1,3.819525E1,1.4336719E2,1.9198372E1,4.974121E1,1.2970839E2,0E0,0E0,0E0,2.529574E1,0E0,2.7276707E1,6.382647E1,3.1588768E1,1.15266205E2,0E0,0E0,2.2259218E1,1.9010498E1,3.48824E1,0E0,3.4799103E1,0E0,0E0,0E0,0E0,0E0,0E0,0E0,0E0,0E0,0E0,0E0,0E0,0E0,0E0,0E0,0E0,0E0],"parents":[2147483647,0,0,1,1,2,2,3,3,5,5,6,6,7,7,8,8,10,10,11,11,12,12,13,13,14,14,15,15,16,16,17,17,21,21,23,23,24,24,25,25,26,26,29,29,30,30,31,31,33,33],"right_children":[2,4,6,8,-1,10,12,14,16,-1,18,20,22,24,26,28,30,32,-1,-1,-1,34,-1,36,38,40,42,-1,-1,44,46,48,-1,50,-1,-1,-1,-1,-1,-1,-1,-1,-1,-1,-1,-1,-1,-1,-1,-1,-1],"split_conditions":[-1E0,1.1E1,9.1E1,4.8E1,-3.5553247E-2,5E-1,-4E-1,1.52E1,6.7E1,-3.5614014E-2,-2E-1,1.1E1,9.574E2,8.4E1,4E1,2.1E1,1.14E1,1.1E1,-3.5520066E-2,9.849705E-2,-3.36527E-2,-8.1915206E-1,-3.5212807E-2,-9.961947E-1,8.3E0,3.1E1,6.1E0,-3.2156367E-2,6.7597136E-2,-2.4E0,7.3E1,6.123234E-17,-3.411808E-2,5E-1,-3.2573663E-2,3.0081872E-2,-2.2430126E-2,7.2990976E-2,-3.251221E-2,1.76108E-2,-3.4550693E-2,1.0489664E-2,6.654288E-2,-3.0007666E-2,6.0374707E-2,5.2835003E-2,9.0681195E-2,8.715222E-3,8.297958E-2,8.583546E-2,-2.8197251E-2],"split_indices":[5,14,9,1,0,16,5,12,9,0,5,14,2,9,9,3,12,14,0,0,0,6,0,7,16,4,16,0,0,5,9,7,0,5,0,0,0,0,0,0,0,0,0,0,0,0,0,0,0,0,0],"split_type":[0,0,0,0,0,0,0,0,0,0,0,0,0,0,0,0,0,0,0,0,0,0,0,0,0,0,0,0,0,0,0,0,0,0,0,0,0,0,0,0,0,0,0,0,0,0,0,0,0,0,0],"sum_hessian":[2.9551282E3,1.1684875E3,1.7866406E3,7.638849E2,4.0460257E2,1.6497305E3,1.3691023E2,3.5577393E2,4.08111E2,1.3061531E3,3.4357742E2,3.914966E1,9.776057E1,1.4793939E2,2.0783455E2,7.6981215E0,4.0041287E2,4.956079E1,2.9401663E2,2.2673904E1,1.6475754E1,1.8122189E1,7.963838E1,1.2891403E2,1.9025349E1,4.0390633E1,1.6744391E2,6.4164577E0,1.2816638E0,7.9715676E0,3.924413E2,2.7513689E1,2.20471E1,7.9982934E0,1.0123895E1,8.754772E0,1.2015926E2,1.0405898E1,8.619451E0,1.8107965E1,2.2282667E1,4.5752525E1,1.2169138E2,4.486057E0,3.4855103E0,1.733144E1,3.7510986E2,8.274185E0,1.9239504E1,4.2409167E0,3.757377E0],"tree_param":{"num_deleted":"0","num_feature":"17","num_nodes":"51","size_leaf_vector":"1"}},{"base_weights":[-3.349713E-1,7.399397E-1,-1.058674E0,1.709825E0,-3.5354536E-2,-1.1246755E0,-2.7103812E-1,4.2030048E-1,2.5721898E0,-3.5416123E-2,-9.1037613E-1,1.3857995E0,-9.6506804E-1,-5.2464825E-1,1.1839364E0,8.0759996E-1,2.7155573E0,6.1994255E-1,-3.532092E-2,9.203559E-2,-3.343046E-2,-7.8634135E-2,-3.500897E-2,4.234886E-1,-8.1452453E-1,1.6039826E0,-4.591667E-1,1.9275975E0,-4.3463075E-1,-3.0982018E-2,2.7729912E0,1.9452627E0,-3.3901412E-2,1.1246402E0,-3.2339938E-2,4.0185414E-2,-3.355534E-2,-3.2733917E-2,-4.3792743E-3,-1.7035179E-2,5.9300866E-2,3.068933E-2,-3.56479E-2,7.132923E-2,-2.723603E-2,2.71864E-2,-3.4091268E-2,7.255884E-2,8.828498E-2,6.891003E-2,-2.728084E-2,8.072876E-2,-2.7957546E-2],"categories":[],"categories_nodes":[],"categories_segments":[],"categories_sizes":[],"default_left":[0,0,0,0,0,0,0,0,0,0,0,0,0,0,0,0,0,0,0,0,0,0,0,0,0,0,0,0,0,0,0,0,0,0,0,0,0,0,0,0,0,0,0,0,0,0,0,0,0,0,0,0,0],"id":6,"left_children":[1,3,5,7,-1,9,11,13,15,-1,17,19,21,23,25,27,29,31,-1,-1,-1,33,-1,35,37,39,41,43,45,-1,47,49,-1,51,-1,-1,-1,-1,-1,-1,-1,-1,-1,-1,-1,-1,-1,-1,-1,-1,-1,-1,-1],"loss_changes":[2.2751914E3,2.1919956E3,9.055115E1,8.6872656E2,0E0,1.8225952E1,1.582384E2,2.2767108E2,1.16336426E2,0E0,1.3872403E2,1.7454886E2,1.722438E1,3.9186348E1,1.2105328E2,5.1799576E1,9.605713E1,1.20079956E2,0E0,0E0,0E0,2.408574E1,0E0,4.916779E1,1.9918808E1,1.1368466E2,4.040931E1,2.697351E1,1.8138584E1,0E0,1.8559326E1,3.1498367E1,0E0,3.1884192E1,0E0,0E0,0E0,0E0,0E0,0E0,0E0,0E0,0E0,0E0,0E0,0E0,0E0,0E0,0E0,0E0,0E0,0E0,0E0],"parents":[2147483647,0,0,1,1,2,2,3,3,5,5,6,6,7,7,8,8,10,10,11,11,12,12,13,13,14,14,15,15,16,16,17,17,21,21,23,23,24,24,25,25,26,26,27,27,28,28,30,30,31,31,33,33],"right_children":[2,4,6,8,-1,10,12,14,16,-1,18,20,22,24,26,28,30,32,-1,-1,-1,34,-1,36,38,40,42,44,46,-1,48,50,-1,52,-1,-1,-1,-1,-1,-1,-1,-1,-1,-1,-1,-1,-1,-1,-1,-1,-1,-1,-1],"split_conditions":[-1E0,1.1E1,9.1E1,4.3E1,-3.5354536E-2,5E-1,-4E-1,1.58E1,7.2E1,-3.5416123E-2,-2E-1,1.1E1,9.574E2,7.261E2,3.24E1,-7.880108E-1,1.2E1,1.1E1,-3.532092E-2,9.203559E-2,-3.343046E-2,-8.1915206E-1,-3.500897E-2,3.36E1,1.24E1,5.9E0,5.3E0,2.34E1,2.402E2,-3.0982018E-2,8.4E1,3.08E1,-3.3901412E-2,5E-1,-3.2339938E-2,4.0185414E-2,-3.355534E-2,-3.2733917E-2,-4.3792743E-3,-1.7035179E-2,5.9300866E-2,3.068933E-2,-3.56479E-2,7.132923E-2,-2.723603E-2,2.71864E-2,-3.4091268E-2,7.255884E-2,8.828498E-2,6.891003E-2,-2.728084E-2,8.072876E-2,-2.7957546E-2],"split_indices":[5,14,9,1,0,16,5,12,9,0,5,14,2,10,8,6,8,14,0,0,0,6,0,0,12,16,16,12,15,0,9,8,0,5,0,0,0,0,0,0,0,0,0,0,0,0,0,0,0,0,0,0,0],"split_type":[0,0,0,0,0,0,0,0,0,0,0,0,0,0,0,0,0,0,0,0,0,0,0,0,0,0,0,0,0,0,0,0,0,0,0,0,0,0,0,0,0,0,0,0,0,0,0,0,0,0,0,0,0],"sum_hessian":[2.9227195E3,1.1759966E3,1.7467229E3,7.8117285E2,3.9482376E2,1.6112748E3,1.3544812E2,3.1364932E2,4.6752356E2,1.2745312E3,3.367435E2,3.9693127E1,9.5755E1,1.403225E2,1.7332683E2,3.5629017E1,4.3189453E2,4.98265E1,2.86917E2,2.3593075E1,1.6100054E1,1.8021383E1,7.773361E1,3.2748077E1,1.07574425E2,1.3805736E2,3.526946E1,1.8446182E1,1.7182837E1,6.261651E0,4.2563287E2,2.8290022E1,2.1536476E1,8.119646E0,9.901738E0,2.0626322E1,1.2121756E1,7.564492E1,3.1929504E1,2.0145388E1,1.1791198E2,1.1496242E1,2.3773216E1,1.6058804E1,2.3873804E0,5.803174E0,1.1379662E1,1.4284232E2,2.827906E2,2.5360514E1,2.9295087E0,4.43408E0,3.6855662E0],"tree_param":{"num_deleted":"0","num_feature":"17","num_nodes":"53","size_leaf_vector":"1"}},{"base_weights":[-3.2927462E-1,7.1364176E-1,-1.0510945E0,1.6260352E0,-3.516369E-2,-1.1176729E0,-2.6625764E-1,4.051459E-1,2.423345E0,-3.522615E-2,-9.017296E-1,1.3304778E0,-9.563309E-1,-5.149367E-1,1.1278496E0,6.508034E-1,2.545447E0,5.9848815E-1,-3.5129603E-2,8.6522594E-2,-3.3214472E-2,-7.626197E-2,-3.481266E-2,4.07744E-1,-8.036092E-1,3.8799575E-1,1.9709102E0,1.7965792E0,-1.673758E-1,-3.0737529E-2,2.5969841E0,1.8434453E0,-3.3691313E-2,1.0829647E0,-3.2111853E-2,3.814527E-2,-3.330672E-2,-3.2477695E-2,-4.2635864E-3,2.6485918E-2,-1.7373523E-2,6.402915E-2,-3.0803274E-2,-2.690909E-2,7.408969E-2,4.491698E-2,-3.4245316E-2,6.772118E-2,8.296065E-2,6.935934E-3,7.4106604E-2,7.6208465E-2,-2.7721802E-2],"categories":[],"categories_nodes":[],"categories_segments":[],"categories_sizes":[],"default_left":[0,0,0,0,0,0,0,0,0,0,0,0,0,0,0,0,0,0,0,0,0,0,0,0,0,0,0,0,0,0,0,0,0,0,0,0,0,0,0,0,0,0,0,0,0,0,0,0,0,0,0,0,0],"id":7,"left_children":[1,3,5,7,-1,9,11,13,15,-1,17,19,21,23,25,27,29,31,-1,-1,-1,33,-1,35,37,39,41,43,45,-1,47,49,-1,51,-1,-1,-1,-1,-1,-1,-1,-1,-1,-1,-1,-1,-1,-1,-1,-1,-1,-1,-1],"loss_changes":[2.1762966E3,2.0367332E3,8.8966064E1,7.752737E2,0E0,1.816101E1,1.4991016E2,2.108635E2,1.0270801E2,0E0,1.3438995E2,1.5893811E2,1.6933853E1,3.7566013E1,1.099066E2,3.0692554E1,8.56001E1,1.1142474E2,0E0,0E0,0E0,2.2952642E1,0E0,4.5965904E1,1.9560478E1,4.633426E1,4.269168E1,2.685561E1,3.3862083E1,0E0,1.9183105E1,2.9732895E1,0E0,2.9336973E1,0E0,0E0,0E0,0E0,0E0,0E0,0E0,0E0,0E0,0E0,0E0,0E0,0E0,0E0,0E0,0E0,0E0,0E0,0E0],"parents":[2147483647,0,0,1,1,2,2,3,3,5,5,6,6,7,7,8,8,10,10,11,11,12,12,13,13,14,14,15,15,16,16,17,17,21,21,23,23,24,24,25,25,26,26,27,27,28,28,30,30,31,31,33,33],"right_children":[2,4,6,8,-1,10,12,14,16,-1,18,20,22,24,26,28,30,32,-1,-1,-1,34,-1,36,38,40,42,44,46,-1,48,50,-1,52,-1,-1,-1,-1,-1,-1,-1,-1,-1,-1,-1,-1,-1,-1,-1,-1,-1,-1,-1],"split_conditions":[-1E0,1.1E1,9.1E1,4.3E1,-3.516369E-2,5E-1,-4E-1,1.58E1,7.1E1,-3.522615E-2,-2E-1,1.1E1,9.574E2,7.261E2,5.7E1,-8.8294756E-1,1.2E1,1.1E1,-3.5129603E-2,8.6522594E-2,-3.3214472E-2,-8.1915206E-1,-3.481266E-2,3.36E1,1.24E1,3.24E1,8.480481E-1,6.123234E-17,2.402E2,-3.0737529E-2,8.4E1,6.123234E-17,-3.3691313E-2,5E-1,-3.2111853E-2,3.814527E-2,-3.330672E-2,-3.2477695E-2,-4.2635864E-3,2.6485918E-2,-1.7373523E-2,6.402915E-2,-3.0803274E-2,-2.690909E-2,7.408969E-2,4.491698E-2,-3.4245316E-2,6.772118E-2,8.296065E-2,6.935934E-3,7.4106604E-2,7.6208465E-2,-2.7721802E-2],"split_indices":[5,14,9,1,0,16,5,12,9,0,5,14,2,10,9,6,8,14,0,0,0,6,0,0,12,8,7,7,15,0,9,7,0,5,0,0,0,0,0,0,0,0,0,0,0,0,0,0,0,0,0,0,0],"split_type":[0,0,0,0,0,0,0,0,0,0,0,0,0,0,0,0,0,0,0,0,0,0,0,0,0,0,0,0,0,0,0,0,0,0,0,0,0,0,0,0,0,0,0,0,0,0,0,0,0,0,0,0,0],"sum_hessian":[2.888948E3,1.1816544E3,1.7072936E3,7.96446E2,3.8520837E2,1.573397E3,1.3389662E2,3.152398E2,4.8120618E2,1.2434377E3,3.299593E2,4.012494E1,9.3771675E1,1.3880852E2,1.764313E2,3.141971E1,4.4978647E2,5.002313E1,2.7993616E2,2.4394245E1,1.5730696E1,1.791093E1,7.586074E1,3.2980576E1,1.0582794E2,9.474507E1,8.1686226E1,1.2591201E1,1.8828508E1,6.1320295E0,4.4365445E2,2.8988646E1,2.1034483E1,8.227616E0,9.683313E0,2.112324E1,1.1857336E1,7.3987434E1,3.184051E1,6.27323E1,3.201277E1,7.773703E1,3.9491951E0,2.4508092E0,1.0140391E1,6.752611E0,1.2075897E1,1.5182477E2,2.9182968E2,8.498051E0,2.0490595E1,4.6126423E0,3.614974E0],"tree_param":{"num_deleted":"0","num_feature":"17","num_nodes":"53","size_leaf_vector":"1"}},{"base_weights":[-3.2380742E-1,6.894567E-1,-1.0437753E0,1.5508655E0,-3.498031E-2,-1.1108954E0,-2.6176298E-1,3.9098346E-1,2.293063E0,-3.5043713E-2,-8.93222E-1,1.280713E0,-9.4789064E-1,-5.054397E-1,1.0766257E0,7.424913E-1,2.4148307E0,5.7919526E-1,-3.494572E-2,8.176381E-2,-3.3004373E-2,-7.414322E-2,-3.4623478E-2,3.9281172E-1,-7.9282767E-1,7.651524E-3,1.6022393E0,1.7347629E0,-4.260753E-1,-3.0498024E-2,2.4626913E0,1.752734E0,-3.3487417E-2,1.0441755E0,-3.1889077E-2,3.6266264E-2,-3.306493E-2,-3.22271E-2,-4.1506845E-3,1.8294403E-2,-2.6451847E-2,5.839447E-3,6.0370736E-2,6.406289E-2,-2.7300673E-2,-3.398653E-2,2.5354281E-2,3.8322013E-2,7.500089E-2,6.2088996E-2,-2.7381467E-2,7.218005E-2,-2.748982E-2],"categories":[],"categories_nodes":[],"categories_segments":[],"categories_sizes":[],"default_left":[0,0,0,0,0,0,0,0,0,0,0,0,0,0,0,0,0,0,0,0,0,0,0,0,0,0,0,0,0,0,0,0,0,0,0,0,0,0,0,0,0,0,0,0,0,0,0,0,0,0,0,0,0],"id":8,"left_children":[1,3,5,7,-1,9,11,13,15,-1,17,19,21,23,25,27,29,31,-1,-1,-1,33,-1,35,37,39,41,43,45,-1,47,49,-1,51,-1,-1,-1,-1,-1,-1,-1,-1,-1,-1,-1,-1,-1,-1,-1,-1,-1,-1,-1],"loss_changes":[2.0834092E3,1.8982002E3,8.7333374E1,6.970342E2,0E0,1.8104614E1,1.4225421E2,1.9572282E2,9.151294E1,0E0,1.3035977E2,1.4559082E2,1.6638062E1,3.6014324E1,1.01265564E2,4.4136543E1,7.767993E1,1.037655E2,0E0,0E0,0E0,2.1889929E1,0E0,4.304706E1,1.9210335E1,3.2895756E1,6.936215E1,2.360014E1,1.7121025E1,0E0,1.6799316E1,2.7759514E1,0E0,2.7095224E1,0E0,0E0,0E0,0E0,0E0,0E0,0E0,0E0,0E0,0E0,0E0,0E0,0E0,0E0,0E0,0E0,0E0,0E0,0E0],"parents":[2147483647,0,0,1,1,2,2,3,3,5,5,6,6,7,7,8,8,10,10,11,11,12,12,13,13,14,14,15,15,16,16,17,17,21,21,23,23,24,24,25,25,26,26,27,27,28,28,30,30,31,31,33,33],"right_children":[2,4,6,8,-1,10,12,14,16,-1,18,20,22,24,26,28,30,32,-1,-1,-1,34,-1,36,38,40,42,44,46,-1,48,50,-1,52,-1,-1,-1,-1,-1,-1,-1,-1,-1,-1,-1,-1,-1,-1,-1,-1,-1,-1,-1],"split_conditions":[-1E0,1.1E1,9.1E1,4.3E1,-3.498031E-2,5E-1,-4E-1,1.58E1,7.2E1,-3.5043713E-2,-2E-1,1.1E1,9.574E2,7.261E2,4.9E1,-7.880108E-1,1.2E1,1.1E1,-3.494572E-2,8.176381E-2,-3.3004373E-2,-8.1915206E-1,-3.4623478E-2,3.36E1,1.24E1,3.1E1,6.1E0,2.34E1,6.4278764E-1,-3.0498024E-2,1.28E1,3.08E1,-3.3487417E-2,5E-1,-3.1889077E-2,3.6266264E-2,-3.306493E-2,-3.22271E-2,-4.1506845E-3,1.8294403E-2,-2.6451847E-2,5.839447E-3,6.0370736E-2,6.406289E-2,-2.7300673E-2,-3.398653E-2,2.5354281E-2,3.8322013E-2,7.500089E-2,6.2088996E-2,-2.7381467E-2,7.218005E-2,-2.748982E-2],"split_indices":[5,14,9,1,0,16,5,12,9,0,5,14,2,10,9,6,8,14,0,0,0,6,0,0,12,4,16,12,6,0,12,8,0,5,0,0,0,0,0,0,0,0,0,0,0,0,0,0,0,0,0,0,0],"split_type":[0,0,0,0,0,0,0,0,0,0,0,0,0,0,0,0,0,0,0,0,0,0,0,0,0,0,0,0,0,0,0,0,0,0,0,0,0,0,0,0,0,0,0,0,0,0,0,0,0,0,0,0,0],"sum_hessian":[2.8538857E3,1.1854941E3,1.6683915E3,8.097352E2,3.75759E2,1.5361254E3,1.3226611E2,3.1655698E2,4.9317822E2,1.2128807E3,3.232447E2,4.0454414E1,9.18117E1,1.3730472E2,1.7925226E2,3.642654E1,4.5675168E2,5.016886E1,2.7307584E2,2.5086649E1,1.5367765E1,1.779144E1,7.402026E1,3.319247E1,1.0411225E2,5.9420174E1,1.19832085E2,1.94372E1,1.6989342E1,6.0045624E0,4.5074713E2,2.9627634E1,2.0541225E1,8.322773E0,9.468666E0,2.1595493E1,1.1596975E1,7.2358315E1,3.1753931E1,3.561863E1,2.3801548E1,2.7369684E1,9.24624E1,1.7047247E1,2.3899536E0,1.0988469E1,6.000872E0,1.4840956E1,4.3590616E2,2.6679234E1,2.948402E0,4.777168E0,3.5456057E0],"tree_param":{"num_deleted":"0","num_feature":"17","num_nodes":"53","size_leaf_vector":"1"}},{"base_weights":[-3.1860724E-1,6.670009E-1,-1.0367604E0,1.4827427E0,-3.4804028E-2,-1.1043954E0,-2.5753087E-1,3.776782E-1,2.1774983E0,-3.4868445E-2,-8.851402E-1,1.235705E0,-9.3973064E-1,-4.9614602E-1,1.0295832E0,8.7487626E-1,2.3063014E0,5.60348E-1,-3.47689E-2,7.76148E-2,-3.279982E-2,-7.2250426E-2,-3.444107E-2,3.7862554E-1,-7.8217196E-1,1.377699E0,-4.4447103E-1,2.0356278E0,2.4158019E-1,-3.0263217E-2,2.3515775E0,1.6695294E0,-3.328938E-2,1.007986E0,-3.1671293E-2,3.4529664E-2,-3.2829575E-2,-3.1981736E-2,-4.040516E-3,-1.7582787E-2,5.0908353E-2,2.9306859E-2,-3.535301E-2,7.7530645E-2,-2.6026307E-2,-3.5689246E-2,3.925138E-2,3.736358E-2,7.159393E-2,5.3986707E-3,6.708862E-2,6.856767E-2,-2.7261412E-2],"categories":[],"categories_nodes":[],"categories_segments":[],"categories_sizes":[],"default_left":[0,0,0,0,0,0,0,0,0,0,0,0,0,0,0,0,0,0,0,0,0,0,0,0,0,0,0,0,0,0,0,0,0,0,0,0,0,0,0,0,0,0,0,0,0,0,0,0,0,0,0,0,0],"id":9,"left_children":[1,3,5,7,-1,9,11,13,15,-1,17,19,21,23,25,27,29,31,-1,-1,-1,33,-1,35,37,39,41,43,45,-1,47,49,-1,51,-1,-1,-1,-1,-1,-1,-1,-1,-1,-1,-1,-1,-1,-1,-1,-1,-1,-1,-1],"loss_changes":[1.9958723E3,1.7735212E3,8.567578E1,6.304794E2,0E0,1.801477E1,1.3518579E2,1.8201254E2,8.265405E1,0E0,1.2635518E2,1.3405168E2,1.633841E1,3.4527714E1,9.441809E1,3.4073574E1,7.121045E1,9.679343E1,0E0,0E0,0E0,2.0891718E1,0E0,4.0377735E1,1.8867744E1,9.3859924E1,3.837399E1,2.8469673E1,4.9739357E1,0E0,1.4499512E1,2.5935883E1,0E0,2.5109518E1,0E0,0E0,0E0,0E0,0E0,0E0,0E0,0E0,0E0,0E0,0E0,0E0,0E0,0E0,0E0,0E0,0E0,0E0,0E0],"parents":[2147483647,0,0,1,1,2,2,3,3,5,5,6,6,7,7,8,8,10,10,11,11,12,12,13,13,14,14,15,15,16,16,17,17,21,21,23,23,24,24,25,25,26,26,27,27,28,28,30,30,31,31,33,33],"right_children":[2,4,6,8,-1,10,12,14,16,-1,18,20,22,24,26,28,30,32,-1,-1,-1,34,-1,36,38,40,42,44,46,-1,48,50,-1,52,-1,-1,-1,-1,-1,-1,-1,-1,-1,-1,-1,-1,-1,-1,-1,-1,-1,-1,-1],"split_conditions":[-1E0,1.1E1,9.1E1,4.3E1,-3.4804028E-2,5E-1,-4E-1,1.58E1,7.3E1,-3.4868445E-2,-2E-1,1.1E1,9.574E2,7.261E2,3.24E1,7E0,1.2E1,1.1E1,-3.47689E-2,7.76148E-2,-3.279982E-2,-8.1915206E-1,-3.444107E-2,3.36E1,1.24E1,5.9E0,5.3E0,2.412E2,2.2495106E-1,-3.0263217E-2,1.28E1,6.123234E-17,-3.328938E-2,5E-1,-3.1671293E-2,3.4529664E-2,-3.2829575E-2,-3.1981736E-2,-4.040516E-3,-1.7582787E-2,5.0908353E-2,2.9306859E-2,-3.535301E-2,7.7530645E-2,-2.6026307E-2,-3.5689246E-2,3.925138E-2,3.736358E-2,7.159393E-2,5.3986707E-3,6.708862E-2,6.856767E-2,-2.7261412E-2],"split_indices":[5,14,9,1,0,16,5,12,9,0,5,14,2,10,8,13,8,14,0,0,0,6,0,0,12,16,16,15,7,0,12,7,0,5,0,0,0,0,0,0,0,0,0,0,0,0,0,0,0,0,0,0,0],"split_type":[0,0,0,0,0,0,0,0,0,0,0,0,0,0,0,0,0,0,0,0,0,0,0,0,0,0,0,0,0,0,0,0,0,0,0,0,0,0,0,0,0,0,0,0,0,0,0,0,0,0,0,0,0],"sum_hessian":[2.817778E3,1.1877528E3,1.6300251E3,8.2127527E2,3.664776E2,1.4994589E3,1.3056622E2,3.1761954E2,5.036557E2,1.1828665E3,3.165924E2,4.0690117E1,8.98761E1,1.3581277E2,1.8180676E2,4.6021324E1,4.576344E2,5.0254917E1,2.663375E2,2.5678795E1,1.5011324E1,1.7663557E1,7.221254E1,3.3385128E1,1.0242765E2,1.4712643E2,3.4680332E1,1.54637985E1,3.0557526E1,5.879272E0,4.5175513E2,3.019812E1,2.0056797E1,8.405727E0,9.257829E0,2.2044373E1,1.1340756E1,7.0757935E1,3.166971E1,2.0456377E1,1.2667005E2,1.1697116E1,2.2983215E1,1.3097974E1,2.3658252E0,1.3000651E1,1.7556873E1,1.4934828E1,4.3682028E2,8.686213E0,2.1511908E1,4.9282637E0,3.4774637E0],"tree_param":{"num_deleted":"0","num_feature":"17","num_nodes":"53","size_leaf_vector":"1"}},{"base_weights":[-3.136088E-1,6.4607906E-1,-1.0299748E0,1.4206351E0,-3.463451E-2,-1.0980943E0,-2.5354064E-1,3.6484003E-1,2.0747237E0,-3.47E-2,-8.7716365E-1,1.1948011E0,-9.318354E-1,9.661129E-1,-5.259472E-1,5.7390267E-1,2.173956E0,5.4335624E-1,-3.4598812E-2,7.396579E-2,-3.2600496E-2,-7.056008E-2,-3.4265082E-2,-7.7654743E-1,1.343442E0,-8.549631E-1,5.855601E-1,1.0362794E0,-3.2068804E-2,-4.2205232E-1,2.2250814E0,1.5946939E0,-3.309686E-2,9.741407E-1,-3.145821E-2,-3.4371257E-2,2.4249086E-2,2.8658393E-3,4.8958514E-2,-2.934561E-2,3.98692E-2,-1.3930279E-2,7.4911065E-2,5.7284284E-2,-2.5311157E-3,-3.178497E-2,6.5558895E-2,5.7905186E-2,7.1088135E-2,5.654544E-2,-2.745515E-2,6.530993E-2,-2.7036402E-2],"categories":[],"categories_nodes":[],"categories_segments":[],"categories_sizes":[],"default_left":[0,0,0,0,0,0,0,0,0,0,0,0,0,0,0,0,0,0,0,0,0,0,0,0,0,0,0,0,0,0,0,0,0,0,0,0,0,0,0,0,0,0,0,0,0,0,0,0,0,0,0,0,0],"id":10,"left_children":[1,3,5,7,-1,9,11,13,15,-1,17,19,21,23,25,27,29,31,-1,-1,-1,33,-1,35,37,39,41,43,-1,45,47,49,-1,51,-1,-1,-1,-1,-1,-1,-1,-1,-1,-1,-1,-1,-1,-1,-1,-1,-1,-1,-1],"loss_changes":[1.9131389E3,1.6607034E3,8.398779E1,5.739718E2,0E0,1.7935669E1,1.2863489E2,1.7167297E2,7.525244E1,0E0,1.2262398E2,1.2397919E2,1.6036057E1,1.2673053E2,4.7833374E1,2.63387E1,6.483838E1,9.0562874E1,0E0,0E0,0E0,1.9952711E1,0E0,2.1201239E1,5.6545288E1,2.8285065E1,6.167681E1,2.6022003E1,0E0,1.9166912E1,1.5556641E1,2.4822899E1,0E0,2.3340233E1,0E0,0E0,0E0,0E0,0E0,0E0,0E0,0E0,0E0,0E0,0E0,0E0,0E0,0E0,0E0,0E0,0E0,0E0,0E0],"parents":[2147483647,0,0,1,1,2,2,3,3,5,5,6,6,7,7,8,8,10,10,11,11,12,12,13,13,14,14,15,15,16,16,17,17,21,21,23,23,24,24,25,25,26,26,27,27,29,29,30,30,31,31,33,33],"right_children":[2,4,6,8,-1,10,12,14,16,-1,18,20,22,24,26,28,30,32,-1,-1,-1,34,-1,36,38,40,42,44,-1,46,48,50,-1,52,-1,-1,-1,-1,-1,-1,-1,-1,-1,-1,-1,-1,-1,-1,-1,-1,-1,-1,-1],"split_conditions":[-1E0,1.1E1,9.1E1,4.3E1,-3.463451E-2,5E-1,-4E-1,9.682E2,7.1E1,-3.47E-2,-2E-1,1.1E1,9.574E2,1.6E1,7.6E1,5.2E1,1.04E1,1.1E1,-3.4598812E-2,7.396579E-2,-3.2600496E-2,-8.1915206E-1,-3.4265082E-2,4.4E1,5.8E0,2.446E2,1.84E1,-7.880108E-1,-3.2068804E-2,-1.6E0,8.4E1,3.08E1,-3.309686E-2,5E-1,-3.145821E-2,-3.4371257E-2,2.4249086E-2,2.8658393E-3,4.8958514E-2,-2.934561E-2,3.98692E-2,-1.3930279E-2,7.4911065E-2,5.7284284E-2,-2.5311157E-3,-3.178497E-2,6.5558895E-2,5.7905186E-2,7.1088135E-2,5.654544E-2,-2.745515E-2,6.530993E-2,-2.7036402E-2],"split_indices":[5,14,9,1,0,16,5,2,9,0,5,14,2,1,9,1,12,14,0,0,0,6,0,9,16,15,8,6,0,5,9,8,0,5,0,0,0,0,0,0,0,0,0,0,0,0,0,0,0,0,0,0,0],"split_type":[0,0,0,0,0,0,0,0,0,0,0,0,0,0,0,0,0,0,0,0,0,0,0,0,0,0,0,0,0,0,0,0,0,0,0,0,0,0,0,0,0,0,0,0,0,0,0,0,0,0,0,0,0],"sum_hessian":[2.7808293E3,1.1886025E3,1.5922268E3,8.3123676E2,3.5736575E2,1.463421E3,1.2880579E2,3.185722E2,5.1266455E2,1.1534003E3,3.100207E2,4.0839977E1,8.7965805E1,1.9014296E2,1.2842924E2,3.2215164E1,4.8044937E2,5.0298424E1,2.597223E2,2.6178556E1,1.466142E1,1.7527935E1,7.0437874E1,3.3654533E1,1.5648843E2,9.9274055E1,2.9155186E1,2.5427832E1,6.787333E0,9.139065E0,4.713103E2,3.071716E1,1.9581266E1,8.477107E0,9.050828E0,2.7521097E1,6.1334357E0,2.9635256E1,1.2685317E2,9.449451E1,4.779549E0,1.9307415E1,9.847771E0,1.389619E1,1.1531641E1,7.820702E0,1.3183627E0,1.5972888E2,3.1158142E2,2.7757292E1,2.9598684E0,5.066558E0,3.4105492E0],"tree_param":{"num_deleted":"0","num_feature":"17","num_nodes":"53","size_leaf_vector":"1"}},{"base_weights":[-3.087775E-1,6.2678933E-1,-1.0234644E0,1.3642788E0,-3.4471426E-2,-1.092046E0,-2.4977355E-1,4.6741152E-1,2.0636885E0,-3.453805E-2,-8.6957943E-1,1.1574626E0,-9.241901E-1,-7.328052E-1,8.5965925E-1,-3.493074E-1,2.104483E0,5.266086E-1,-3.443512E-2,7.073193E-2,-3.2406095E-2,-6.9052115E-2,-3.4095198E-2,5.138043E-1,-9.8257285E-1,9.836089E-2,1.429606E0,-3.175911E-2,5.4234717E-2,-2.564577E-2,2.1232312E0,1.5252249E0,-3.2909557E-2,9.424129E-1,-3.1249536E-2,5.012174E-2,-1.2472957E-2,-3.200596E-2,2.3673465E-2,-2.3636617E-2,1.4207064E-2,5.5879127E-2,1.3318401E-2,5.4933224E-2,6.7953594E-2,-2.8317891E-2,5.395635E-2,6.2356625E-2,-2.6814625E-2],"categories":[],"categories_nodes":[],"categories_segments":[],"categories_sizes":[],"default_left":[0,0,0,0,0,0,0,0,0,0,0,0,0,0,0,0,0,0,0,0,0,0,0,0,0,0,0,0,0,0,0,0,0,0,0,0,0,0,0,0,0,0,0,0,0,0,0,0,0],"id":11,"left_children":[1,3,5,7,-1,9,11,13,15,-1,17,19,21,23,25,27,29,31,-1,-1,-1,33,-1,35,37,39,41,-1,-1,-1,43,45,-1,47,-1,-1,-1,-1,-1,-1,-1,-1,-1,-1,-1,-1,-1,-1,-1],"loss_changes":[1.8353634E3,1.5587167E3,8.229016E1,5.262916E2,0E0,1.7826172E1,1.225432E2,1.7462112E2,4.7193848E1,0E0,1.1891127E2,1.1511221E2,1.5732063E1,2.901715E1,1.20920074E2,1.5232139E1,2.757373E1,8.4833115E1,0E0,0E0,0E0,1.9068134E1,0E0,1.7838686E1,1.2285973E1,4.0450966E1,6.724313E1,0E0,0E0,0E0,1.4986328E1,2.3412277E1,0E0,2.1755283E1,0E0,0E0,0E0,0E0,0E0,0E0,0E0,0E0,0E0,0E0,0E0,0E0,0E0,0E0,0E0],"parents":[2147483647,0,0,1,1,2,2,3,3,5,5,6,6,7,7,8,8,10,10,11,11,12,12,13,13,14,14,15,15,16,16,17,17,21,21,23,23,24,24,25,25,26,26,30,30,31,31,33,33],"right_children":[2,4,6,8,-1,10,12,14,16,-1,18,20,22,24,26,28,30,32,-1,-1,-1,34,-1,36,38,40,42,-1,-1,-1,44,46,-1,48,-1,-1,-1,-1,-1,-1,-1,-1,-1,-1,-1,-1,-1,-1,-1],"split_conditions":[-1E0,1.1E1,9.1E1,4.8E1,-3.4471426E-2,5E-1,-4E-1,1.24E1,6.7E1,-3.453805E-2,-2E-1,1.1E1,9.574E2,7.265E2,5.5E1,2.1E1,8.4E0,1.1E1,-3.443512E-2,7.073193E-2,-3.2406095E-2,-8.1915206E-1,-3.4095198E-2,6.9E0,9.945219E-1,1.6E1,9E0,-3.175911E-2,5.4234717E-2,-2.564577E-2,8.4E1,2.8E1,-3.2909557E-2,5E-1,-3.1249536E-2,5.012174E-2,-1.2472957E-2,-3.200596E-2,2.3673465E-2,-2.3636617E-2,1.4207064E-2,5.5879127E-2,1.3318401E-2,5.4933224E-2,6.7953594E-2,-2.8317891E-2,5.395635E-2,6.2356625E-2,-2.6814625E-2],"split_indices":[5,14,9,1,0,16,5,12,9,0,5,14,2,10,9,3,12,14,0,0,0,6,0,16,7,1,13,0,0,0,9,1,0,5,0,0,0,0,0,0,0,0,0,0,0,0,0,0,0],"split_type":[0,0,0,0,0,0,0,0,0,0,0,0,0,0,0,0,0,0,0,0,0,0,0,0,0,0,0,0,0,0,0,0,0,0,0,0,0,0,0,0,0,0,0,0,0,0,0,0,0],"sum_hessian":[2.7429714E3,1.1879711E3,1.5550004E3,8.395466E2,3.4842456E2,1.4280073E3,1.26993004E2,3.6857883E2,4.7096774E2,1.1244857E3,3.0352164E2,4.0911312E1,8.6081696E1,9.05726E1,2.7800623E2,7.7041097E0,4.6326364E2,5.029065E1,2.53231E2,2.659323E1,1.4318082E1,1.7385225E1,6.869647E1,1.4941467E1,7.5631134E1,1.1952498E2,1.5848123E2,6.1808863E0,1.523223E0,2.6356876E0,4.6062796E2,3.1175974E1,1.9114676E1,8.537547E0,8.847678E0,6.3014817E0,8.639985E0,7.257598E1,3.0551593E0,3.5224407E1,8.4300575E1,1.09489334E2,4.8991905E1,1.551359E2,3.0549207E2,2.8625274E0,2.8313446E1,5.192687E0,3.3448603E0],"tree_param":{"num_deleted":"0","num_feature":"17","num_nodes":"49","size_leaf_vector":"1"}},{"base_weights":[-3.0411255E-1,6.0849595E-1,-1.0171776E0,1.3118387E0,-3.4314472E-2,-1.0861962E0,-2.4621294E-1,3.404793E-1,1.9005208E0,-3.4382295E-2,-8.6218387E-1,1.123241E0,-9.1678095E-1,8.961041E-1,-5.1430964E-1,7.596559E-1,2.0120609E0,5.106065E-1,-3.4277525E-2,6.784653E-2,-3.221633E-2,-6.7709245E-2,-3.3931114E-2,-7.5655615E-1,1.232701E0,-8.416315E-1,5.616364E-1,1.8139102E0,1.734293E-1,-2.9743802E-2,2.0494258E0,1.4606572E0,-3.272717E-2,9.1260123E-1,-3.1045016E-2,-3.402467E-2,2.3948047E-2,2.0741161E-3,4.4892296E-2,-2.8987097E-2,3.8040932E-2,-1.3503025E-2,6.908836E-2,6.834188E-2,-2.5600558E-2,-3.5924204E-2,3.4586508E-2,5.3440463E-2,6.516048E-2,2.933251E-3,5.9231058E-2,5.9666365E-2,-2.6595926E-2],"categories":[],"categories_nodes":[],"categories_segments":[],"categories_sizes":[],"default_left":[0,0,0,0,0,0,0,0,0,0,0,0,0,0,0,0,0,0,0,0,0,0,0,0,0,0,0,0,0,0,0,0,0,0,0,0,0,0,0,0,0,0,0,0,0,0,0,0,0,0,0,0,0],"id":12,"left_children":[1,3,5,7,-1,9,11,13,15,-1,17,19,21,23,25,27,29,31,-1,-1,-1,33,-1,35,37,39,41,43,45,-1,47,49,-1,51,-1,-1,-1,-1,-1,-1,-1,-1,-1,-1,-1,-1,-1,-1,-1,-1,-1,-1,-1],"loss_changes":[1.7614678E3,1.4650638E3,8.058008E1,4.841687E2,0E0,1.7714233E1,1.1686145E2,1.5298961E2,6.562134E1,0E0,1.15338974E2,1.07247894E2,1.5427376E1,1.09407684E2,4.5253006E1,2.9723696E1,5.5910767E1,7.957996E1,0E0,0E0,0E0,1.823369E1,0E0,2.0640902E1,4.972328E1,2.695877E1,5.43448E1,2.3315407E1,4.480531E1,0E0,1.1725098E1,2.263021E1,0E0,2.032846E1,0E0,0E0,0E0,0E0,0E0,0E0,0E0,0E0,0E0,0E0,0E0,0E0,0E0,0E0,0E0,0E0,0E0,0E0,0E0],"parents":[2147483647,0,0,1,1,2,2,3,3,5,5,6,6,7,7,8,8,10,10,11,11,12,12,13,13,14,14,15,15,16,16,17,17,21,21,23,23,24,24,25,25,26,26,27,27,28,28,30,30,31,31,33,33],"right_children":[2,4,6,8,-1,10,12,14,16,-1,18,20,22,24,26,28,30,32,-1,-1,-1,34,-1,36,38,40,42,44,46,-1,48,50,-1,52,-1,-1,-1,-1,-1,-1,-1,-1,-1,-1,-1,-1,-1,-1,-1,-1,-1,-1,-1],"split_conditions":[-1E0,1.1E1,9.1E1,4.3E1,-3.4314472E-2,5E-1,-4E-1,9.682E2,7.3E1,-3.4382295E-2,-2E-1,1.1E1,9.574E2,1.6E1,7.6E1,7E0,1.2E1,1.1E1,-3.4277525E-2,6.784653E-2,-3.221633E-2,-8.1915206E-1,-3.3931114E-2,4.4E1,5.8E0,2.446E2,1.84E1,2.412E2,2.2495106E-1,-2.9743802E-2,8.4E1,6.123234E-17,-3.272717E-2,5E-1,-3.1045016E-2,-3.402467E-2,2.3948047E-2,2.0741161E-3,4.4892296E-2,-2.8987097E-2,3.8040932E-2,-1.3503025E-2,6.908836E-2,6.834188E-2,-2.5600558E-2,-3.5924204E-2,3.4586508E-2,5.3440463E-2,6.516048E-2,2.933251E-3,5.9231058E-2,5.9666365E-2,-2.6595926E-2],"split_indices":[5,14,9,1,0,16,5,2,9,0,5,14,2,1,9,13,8,14,0,0,0,6,0,9,16,15,8,15,7,0,9,7,0,5,0,0,0,0,0,0,0,0,0,0,0,0,0,0,0,0,0,0,0],"split_type":[0,0,0,0,0,0,0,0,0,0,0,0,0,0,0,0,0,0,0,0,0,0,0,0,0,0,0,0,0,0,0,0,0,0,0,0,0,0,0,0,0,0,0,0,0,0,0,0,0,0,0,0,0],"sum_hessian":[2.7048794E3,1.1864987E3,1.5183806E3,8.468439E2,3.396548E2,1.3932452E3,1.25135445E2,3.2015237E2,5.2669147E2,1.0961252E3,2.9711993E2,4.0910908E1,8.422453E1,1.9400081E2,1.26151566E2,4.7603115E1,4.7908838E2,5.025574E1,2.4686418E2,2.6929579E1,1.398133E1,1.7236073E1,6.6988464E1,3.2615242E1,1.6138557E2,9.689283E1,2.9258738E1,1.6262625E1,3.134049E1,5.573074E0,4.735153E2,3.1598688E1,1.8657055E1,8.587683E0,8.648391E0,2.6459846E1,6.1553946E0,3.0051489E1,1.3133409E2,9.2000885E1,4.8919444E0,1.8975239E1,1.0283499E1,1.3976394E1,2.286231E0,1.29676285E1,1.837286E1,1.534613E2,3.2005402E2,8.975887E0,2.26228E1,5.307288E0,3.280394E0],"tree_param":{"num_deleted":"0","num_feature":"17","num_nodes":"53","size_leaf_vector":"1"}},{"base_weights":[-2.996438E-1,5.9149E-1,-1.0110875E0,1.2639388E0,-3.416336E-2,-1.0805194E0,-2.4284337E-1,2.1098377E-1,1.7637224E0,-3.4232445E-2,-8.5488164E-1,1.0917602E0,-9.095946E-1,7.4311584E-1,-6.7878765E-1,-9.822798E-3,1.8684489E0,4.962742E-1,-3.4125738E-2,6.525646E-2,-3.203093E-2,-6.651644E-2,-3.3772532E-2,-7.466331E-1,1.0871612E0,-9.3751204E-1,4.2269778E-1,6.489582E-1,-3.238796E-2,9.914834E-1,1.9798464E0,1.4025135E0,-3.2549426E-2,8.845269E-1,-3.0844394E-2,-3.3824213E-2,2.3067197E-2,3.9105956E-2,-7.1891933E-3,-3.2735787E-2,1.6776918E-2,-3.2393E-2,6.881399E-2,-2.942E-2,3.5869297E-2,4.7134772E-2,5.776347E-3,5.2628014E-2,6.30509E-2,4.989488E-2,-2.757539E-2,5.72048E-2,-2.6380159E-2],"categories":[],"categories_nodes":[],"categories_segments":[],"categories_sizes":[],"default_left":[0,0,0,0,0,0,0,0,0,0,0,0,0,0,0,0,0,0,0,0,0,0,0,0,0,0,0,0,0,0,0,0,0,0,0,0,0,0,0,0,0,0,0,0,0,0,0,0,0,0,0,0,0],"id":13,"left_children":[1,3,5,7,-1,9,11,13,15,-1,17,19,21,23,25,27,29,31,-1,-1,-1,33,-1,35,37,39,41,43,-1,45,47,49,-1,51,-1,-1,-1,-1,-1,-1,-1,-1,-1,-1,-1,-1,-1,-1,-1,-1,-1,-1,-1],"loss_changes":[1.6914197E3,1.3797274E3,7.886096E1,4.4879846E2,0E0,1.7610718E1,1.115479E2,1.3111932E2,1.0749817E2,0E0,1.120009E2,1.0022636E2,1.5122765E1,8.953369E1,2.9966412E1,2.4140133E1,5.1416504E1,7.485764E1,0E0,0E0,0E0,1.7445526E1,0E0,1.9953785E1,4.0800217E1,2.0009262E1,5.989872E1,2.006681E1,0E0,2.9146812E1,9.611816E0,2.1479408E1,0E0,1.9038189E1,0E0,0E0,0E0,0E0,0E0,0E0,0E0,0E0,0E0,0E0,0E0,0E0,0E0,0E0,0E0,0E0,0E0,0E0,0E0],"parents":[2147483647,0,0,1,1,2,2,3,3,5,5,6,6,7,7,8,8,10,10,11,11,12,12,13,13,14,14,15,15,16,16,17,17,21,21,23,23,24,24,25,25,26,26,27,27,29,29,30,30,31,31,33,33],"right_children":[2,4,6,8,-1,10,12,14,16,-1,18,20,22,24,26,28,30,32,-1,-1,-1,34,-1,36,38,40,42,44,-1,46,48,50,-1,52,-1,-1,-1,-1,-1,-1,-1,-1,-1,-1,-1,-1,-1,-1,-1,-1,-1,-1,-1],"split_conditions":[-1E0,1.1E1,9.1E1,3.8E1,-3.416336E-2,5E-1,-4E-1,9.682E2,1.18E1,-3.4232445E-2,-2E-1,1.1E1,9.574E2,1.6E1,7.6E1,8.2E0,7.3E1,1.1E1,-3.4125738E-2,6.525646E-2,-3.203093E-2,-8.1915206E-1,-3.3772532E-2,4.4E1,3.24E1,1.06E1,1.84E1,7E1,-3.238796E-2,8E0,8.5E1,3.08E1,-3.2549426E-2,5E-1,-3.0844394E-2,-3.3824213E-2,2.3067197E-2,3.9105956E-2,-7.1891933E-3,-3.2735787E-2,1.6776918E-2,-3.2393E-2,6.881399E-2,-2.942E-2,3.5869297E-2,4.7134772E-2,5.776347E-3,5.2628014E-2,6.30509E-2,4.989488E-2,-2.757539E-2,5.72048E-2,-2.6380159E-2],"split_indices":[5,14,9,1,0,16,5,2,12,0,5,14,2,1,9,16,9,14,0,0,0,6,0,9,8,16,8,9,0,13,9,8,0,5,0,0,0,0,0,0,0,0,0,0,0,0,0,0,0,0,0,0,0],"split_type":[0,0,0,0,0,0,0,0,0,0,0,0,0,0,0,0,0,0,0,0,0,0,0,0,0,0,0,0,0,0,0,0,0,0,0,0,0,0,0,0,0,0,0,0,0,0,0,0,0,0,0,0,0],"sum_hessian":[2.6659465E3,1.1835876E3,1.4823589E3,8.5253094E2,3.3105673E2,1.3591189E3,1.2324007E2,2.7486386E2,5.7766705E2,1.0683201E3,2.9079874E2,4.0845062E1,8.2395004E1,1.7210216E2,1.027617E2,3.2259426E1,5.4540765E2,5.017667E1,2.4062207E2,2.7193892E1,1.365117E1,1.7081097E1,6.531391E1,3.2069218E1,1.4003294E2,8.333604E1,1.9425669E1,2.0208286E1,1.2051139E1,6.2588264E1,4.828194E2,3.1968256E1,1.8208414E1,8.628133E0,8.452964E0,2.5833551E1,6.235668E0,1.20413765E2,1.9619173E1,7.582184E1,7.514198E0,1.1008747E1,8.416921E0,4.8768725E0,1.5331414E1,3.571119E1,2.6877075E1,1.7473422E2,3.0808514E2,2.8996546E1,2.9717097E0,5.410987E0,3.2171457E0],"tree_param":{"num_deleted":"0","num_feature":"17","num_nodes":"53","size_leaf_vector":"1"}},{"base_weights":[-2.953607E-1,5.7541615E-1,-1.0052372E0,1.2194176E0,-3.401782E-2,-1.0750654E0,-2.3965126E-1,4.2195553E-1,1.8273422E0,-3.408823E-2,-8.47935E-1,1.0627016E0,-9.026189E-1,-7.1241665E-1,7.708245E-1,-3.6601484E-1,1.8633184E0,4.8199642E-1,-3.3979483E-2,6.291888E-2,-3.1849638E-2,-6.5460436E-2,-3.3619188E-2,4.4499213E-1,-9.625829E-1,7.877987E-2,1.2721733E0,-3.1645548E-2,4.9550932E-2,-2.5129505E-2,1.8793417E0,1.3478132E0,-3.2376055E-2,8.5803115E-1,-3.0647438E-2,-3.0651147E-2,3.2182153E-2,-3.1519227E-2,2.388916E-2,8.981953E-3,-3.5953883E-2,5.0377686E-2,1.3483154E-2,4.8445083E-2,6.0277432E-2,1.8332882E-3,5.4868322E-2,5.4943167E-2,-2.6167188E-2],"categories":[],"categories_nodes":[],"categories_segments":[],"categories_sizes":[],"default_left":[0,0,0,0,0,0,0,0,0,0,0,0,0,0,0,0,0,0,0,0,0,0,0,0,0,0,0,0,0,0,0,0,0,0,0,0,0,0,0,0,0,0,0,0,0,0,0,0,0],"id":14,"left_children":[1,3,5,7,-1,9,11,13,15,-1,17,19,21,23,25,27,29,31,-1,-1,-1,33,-1,35,37,39,41,-1,-1,-1,43,45,-1,47,-1,-1,-1,-1,-1,-1,-1,-1,-1,-1,-1,-1,-1,-1,-1],"loss_changes":[1.6248616E3,1.3011584E3,7.714868E1,4.15235E2,0E0,1.7479858E1,1.0656672E2,1.4796028E2,3.90802E1,0E0,1.0867328E2,9.391989E1,1.4818947E1,2.5946365E1,9.890587E1,1.381849E1,2.2301514E1,7.04661E1,0E0,0E0,0E0,1.6700155E1,0E0,1.6147251E1,1.2109772E1,3.4439205E1,5.464505E1,0E0,0E0,0E0,1.3125244E1,2.0494797E1,0E0,1.7866564E1,0E0,0E0,0E0,0E0,0E0,0E0,0E0,0E0,0E0,0E0,0E0,0E0,0E0,0E0,0E0],"parents":[2147483647,0,0,1,1,2,2,3,3,5,5,6,6,7,7,8,8,10,10,11,11,12,12,13,13,14,14,15,15,16,16,17,17,21,21,23,23,24,24,25,25,26,26,30,30,31,31,33,33],"right_children":[2,4,6,8,-1,10,12,14,16,-1,18,20,22,24,26,28,30,32,-1,-1,-1,34,-1,36,38,40,42,-1,-1,-1,44,46,-1,48,-1,-1,-1,-1,-1,-1,-1,-1,-1,-1,-1,-1,-1,-1,-1],"split_conditions":[-1E0,1.1E1,9.1E1,4.8E1,-3.401782E-2,5E-1,-4E-1,1.24E1,6.7E1,-3.408823E-2,-2E-1,1.1E1,9.574E2,7.265E2,5.5E1,2.1E1,8.4E0,1.1E1,-3.3979483E-2,6.291888E-2,-3.1849638E-2,-8.1915206E-1,-3.3619188E-2,4.7E1,9.945219E-1,7E0,8E0,-3.1645548E-2,4.9550932E-2,-2.5129505E-2,8.4E1,6.123234E-17,-3.2376055E-2,5E-1,-3.0647438E-2,-3.0651147E-2,3.2182153E-2,-3.1519227E-2,2.388916E-2,8.981953E-3,-3.5953883E-2,5.0377686E-2,1.3483154E-2,4.8445083E-2,6.0277432E-2,1.8332882E-3,5.4868322E-2,5.4943167E-2,-2.6167188E-2],"split_indices":[5,14,9,1,0,16,5,12,9,0,5,14,2,10,9,3,12,14,0,0,0,6,0,9,7,13,13,0,0,0,9,7,0,5,0,0,0,0,0,0,0,0,0,0,0,0,0,0,0],"split_type":[0,0,0,0,0,0,0,0,0,0,0,0,0,0,0,0,0,0,0,0,0,0,0,0,0,0,0,0,0,0,0,0,0,0,0,0,0,0,0,0,0,0,0,0,0,0,0,0,0],"sum_hessian":[2.6266777E3,1.1797344E3,1.4469432E3,8.5710394E2,3.2263046E2,1.3256299E3,1.2131333E2,3.714881E2,4.8561588E2,1.0410703E3,2.8455966E2,4.0719604E1,8.059373E1,8.713157E1,2.8435654E2,7.6886916E0,4.779272E2,5.0054916E1,2.3450476E2,2.739201E1,1.3327595E1,1.6920898E1,6.3672825E1,1.5347351E1,7.178422E1,1.1994529E2,1.6441124E2,6.087615E0,1.6010768E0,2.5161436E0,4.7541104E2,3.2286175E1,1.7768744E1,8.659506E0,8.261394E0,4.411809E0,1.0935542E1,6.874518E1,3.039035E0,1.0293149E2,1.7013802E1,1.0929288E2,5.5118355E1,1.6100809E2,3.1440295E2,9.093676E0,2.31925E1,5.5043974E0,3.155108E0],"tree_param":{"num_deleted":"0","num_feature":"17","num_nodes":"49","size_leaf_vector":"1"}},{"base_weights":[-2.9116237E-1,5.599763E-1,-9.9955255E-1,1.1772736E0,-3.387759E-2,-1.0697547E0,-2.366242E-1,1.949461E-1,1.6370202E0,-3.39494E-2,-8.4101987E-1,1.0357941E0,-8.958421E-1,6.912514E-1,-6.66894E-1,-8.197589E-3,1.7315122E0,4.690656E-1,-3.383851E-2,6.0798805E-2,-3.1672206E-2,-6.4529955E-2,-3.3470817E-2,-7.4135387E-1,1.0120473E0,-9.245812E-1,4.0453678E-1,6.182354E-1,-3.206537E-2,9.087848E-1,1.8368982E0,1.2977496E0,-3.220681E-2,8.329723E-1,-3.0453919E-2,-3.367514E-2,2.1807494E-2,3.6398757E-2,-7.365228E-3,-3.2438934E-2,1.6541664E-2,-3.2134324E-2,6.400115E-2,4.1701272E-2,-1.3592818E-2,4.3091893E-2,5.0126337E-3,4.8658658E-2,5.861991E-2,-2.8754344E-2,4.6269987E-2,5.2857224E-2,-2.5956888E-2],"categories":[],"categories_nodes":[],"categories_segments":[],"categories_sizes":[],"default_left":[0,0,0,0,0,0,0,0,0,0,0,0,0,0,0,0,0,0,0,0,0,0,0,0,0,0,0,0,0,0,0,0,0,0,0,0,0,0,0,0,0,0,0,0,0,0,0,0,0,0,0,0,0],"id":15,"left_children":[1,3,5,7,-1,9,11,13,15,-1,17,19,21,23,25,27,29,31,-1,-1,-1,33,-1,35,37,39,41,43,-1,45,47,49,-1,51,-1,-1,-1,-1,-1,-1,-1,-1,-1,-1,-1,-1,-1,-1,-1,-1,-1,-1,-1],"loss_changes":[1.5613549E3,1.2281243E3,7.543469E1,3.8903113E2,0E0,1.736438E1,1.0188694E2,1.1850998E2,9.128931E1,0E0,1.0556436E2,8.822534E1,1.4516563E1,8.146236E1,2.835949E1,2.2510504E1,4.647278E1,6.647255E1,0E0,0E0,0E0,1.5994446E1,0E0,1.9120802E1,3.671933E1,1.9566917E1,5.419599E1,1.8248585E1,0E0,2.5206696E1,9.194336E0,2.0003899E1,0E0,1.6798613E1,0E0,0E0,0E0,0E0,0E0,0E0,0E0,0E0,0E0,0E0,0E0,0E0,0E0,0E0,0E0,0E0,0E0,0E0,0E0],"parents":[2147483647,0,0,1,1,2,2,3,3,5,5,6,6,7,7,8,8,10,10,11,11,12,12,13,13,14,14,15,15,16,16,17,17,21,21,23,23,24,24,25,25,26,26,27,27,29,29,30,30,31,31,33,33],"right_children":[2,4,6,8,-1,10,12,14,16,-1,18,20,22,24,26,28,30,32,-1,-1,-1,34,-1,36,38,40,42,44,-1,46,48,50,-1,52,-1,-1,-1,-1,-1,-1,-1,-1,-1,-1,-1,-1,-1,-1,-1,-1,-1,-1,-1],"split_conditions":[-1E0,1.1E1,9.1E1,3.8E1,-3.387759E-2,5E-1,-4E-1,9.682E2,1.18E1,-3.39494E-2,-2E-1,1.1E1,9.574E2,1.6E1,7.6E1,8.2E0,7.3E1,1.1E1,-3.383851E-2,6.0798805E-2,-3.1672206E-2,-8.1915206E-1,-3.3470817E-2,4.4E1,3.24E1,1.06E1,1.84E1,8.7155744E-2,-3.206537E-2,8E0,8.5E1,2.8E1,-3.220681E-2,5E-1,-3.0453919E-2,-3.367514E-2,2.1807494E-2,3.6398757E-2,-7.365228E-3,-3.2438934E-2,1.6541664E-2,-3.2134324E-2,6.400115E-2,4.1701272E-2,-1.3592818E-2,4.3091893E-2,5.0126337E-3,4.8658658E-2,5.861991E-2,-2.8754344E-2,4.6269987E-2,5.2857224E-2,-2.5956888E-2],"split_indices":[5,14,9,1,0,16,5,2,12,0,5,14,2,1,9,16,9,14,0,0,0,6,0,9,8,16,8,6,0,13,9,1,0,5,0,0,0,0,0,0,0,0,0,0,0,0,0,0,0,0,0,0,0],"split_type":[0,0,0,0,0,0,0,0,0,0,0,0,0,0,0,0,0,0,0,0,0,0,0,0,0,0,0,0,0,0,0,0,0,0,0,0,0,0,0,0,0,0,0,0,0,0,0,0,0,0,0,0,0],"sum_hessian":[2.5876487E3,1.1754918E3,1.412157E3,8.61116E2,3.1437576E2,1.2927958E3,1.19361145E2,2.7498575E2,5.861303E2,1.014375E3,2.784208E2,4.0539948E1,7.88212E1,1.7462367E2,1.00362076E2,3.1885141E1,5.542452E2,4.9908886E1,2.2851192E2,2.7529362E1,1.3010584E1,1.6756058E1,6.206514E1,3.1708664E1,1.4291501E2,8.101453E1,1.9347546E1,2.030805E1,1.1577092E1,6.402654E1,4.902186E2,3.2570866E1,1.733802E1,8.682389E0,8.073669E0,2.5360722E1,6.3479424E0,1.2322991E2,1.9685091E1,7.347992E1,7.534609E0,1.0643231E1,8.704314E0,1.1631205E1,8.676845E0,3.686542E1,2.7161123E1,1.7811938E2,3.1209924E2,2.9000168E0,2.9670849E1,5.588115E0,3.094274E0],"tree_param":{"num_deleted":"0","num_feature":"17","num_nodes":"53","size_leaf_vector":"1"}},{"base_weights":[-2.871596E-1,4.1556048E-1,-3.3831075E-2,-3.383215E-2,1.1809807E0,1.774657E-1,1.6156775E0,6.479969E-1,-6.680473E-1,-8.241947E-2,1.69474E0,-7.5387174E-1,9.600262E-1,-9.220752E-1,3.8010952E-1,5.5744344E-1,-3.1769E-2,1.2383051E0,1.8717334E0,-3.3671223E-2,1.9864406E-2,3.4641907E-2,-8.027757E-3,-3.2355018E-2,1.5941886E-2,-3.195739E-2,6.1263017E-2,-2.8024582E-2,3.0585425E-2,4.7791846E-2,2.5750063E-2,4.5193017E-2,5.796936E-2],"categories":[],"categories_nodes":[],"categories_segments":[],"categories_sizes":[],"default_left":[0,0,0,0,0,0,0,0,0,0,0,0,0,0,0,0,0,0,0,0,0,0,0,0,0,0,0,0,0,0,0,0,0],"id":16,"left_children":[1,3,-1,-1,5,7,9,11,13,15,17,19,21,23,25,27,-1,29,31,-1,-1,-1,-1,-1,-1,-1,-1,-1,-1,-1,-1,-1,-1],"loss_changes":[1.5060422E3,1.6421416E3,0E0,0E0,4.0496594E2,1.12588745E2,8.7149414E1,8.017143E1,2.7318897E1,1.9202202E1,4.7713013E1,1.8289793E1,3.5923187E1,1.917543E1,5.1339832E1,1.3806482E1,0E0,2.2356964E1,6.9210205E0,0E0,0E0,0E0,0E0,0E0,0E0,0E0,0E0,0E0,0E0,0E0,0E0,0E0,0E0],"parents":[2147483647,0,0,1,1,4,4,5,5,6,6,7,7,8,8,9,9,10,10,11,11,12,12,13,13,14,14,15,15,17,17,18,18],"right_children":[2,4,-1,-1,6,8,10,12,14,16,18,20,22,24,26,28,-1,30,32,-1,-1,-1,-1,-1,-1,-1,-1,-1,-1,-1,-1,-1,-1],"split_conditions":[1.1E1,8E0,-3.3831075E-2,-3.383215E-2,3.8E1,9.682E2,1.14E1,1.6E1,7.6E1,8.2E0,8E1,4.4E1,3.24E1,1.06E1,1.84E1,6.9E1,-3.1769E-2,8E0,-2.3E0,-3.3671223E-2,1.9864406E-2,3.4641907E-2,-8.027757E-3,-3.2355018E-2,1.5941886E-2,-3.195739E-2,6.1263017E-2,-2.8024582E-2,3.0585425E-2,4.7791846E-2,2.5750063E-2,4.5193017E-2,5.796936E-2],"split_indices":[14,14,0,0,1,2,12,1,9,16,9,9,8,16,8,9,0,13,5,0,0,0,0,0,0,0,0,0,0,0,0,0,0],"split_type":[0,0,0,0,0,0,0,0,0,0,0,0,0,0,0,0,0,0,0,0,0,0,0,0,0,0,0,0,0,0,0,0,0],"sum_hessian":[2.5479407E3,1.388019E3,1.1599216E3,4.600194E2,9.279997E2,2.8091177E2,6.470879E2,1.8062622E2,1.0028557E2,2.8785868E1,6.18302E2,3.2626698E1,1.4799951E2,8.081886E1,1.9466707E1,1.7650137E1,1.1135729E1,1.7500104E2,4.43301E2,2.6053858E1,6.572839E0,1.2779087E2,2.0208649E1,7.319903E1,7.6198354E0,1.0603978E1,8.86273E0,3.9328756E0,1.3717262E1,8.885215E1,8.614889E1,6.673658E1,3.7656442E2],"tree_param":{"num_deleted":"0","num_feature":"17","num_nodes":"33","size_leaf_vector":"1"}},{"base_weights":[-2.8326517E-1,4.0578634E-1,-3.370207E-2,-3.370135E-2,1.1429485E0,1.7236337E-1,1.5606133E0,6.2497854E-1,-6.589393E-1,-6.340109E-3,1.6403136E0,-7.4434453E-1,9.215987E-1,-9.1215837E-1,3.7160015E-1,5.844019E-1,-3.169005E-2,1.1875852E0,1.8052262E0,-3.3483997E-2,1.9173408E-2,3.318102E-2,-7.831317E-3,-3.211209E-2,1.536966E-2,-3.17526E-2,5.8769505E-2,-2.8671563E-2,3.146115E-2,4.5607843E-2,2.4654968E-2,4.4021133E-2,5.5863388E-2],"categories":[],"categories_nodes":[],"categories_segments":[],"categories_sizes":[],"default_left":[0,0,0,0,0,0,0,0,0,0,0,0,0,0,0,0,0,0,0,0,0,0,0,0,0,0,0,0,0,0,0,0,0],"id":17,"left_children":[1,3,-1,-1,5,7,9,11,13,15,17,19,21,23,25,27,-1,29,31,-1,-1,-1,-1,-1,-1,-1,-1,-1,-1,-1,-1,-1,-1],"loss_changes":[1.4529989E3,1.5560493E3,0E0,0E0,3.7719202E2,1.0623927E2,8.129541E1,7.486153E1,2.6339943E1,2.0775747E1,4.4098633E1,1.7722515E1,3.31276E1,1.8643646E1,4.8299797E1,1.6334879E1,0E0,1.922853E1,5.9560547E0,0E0,0E0,0E0,0E0,0E0,0E0,0E0,0E0,0E0,0E0,0E0,0E0,0E0,0E0],"parents":[2147483647,0,0,1,1,4,4,5,5,6,6,7,7,8,8,9,9,10,10,11,11,12,12,13,13,14,14,15,15,17,17,18,18],"right_children":[2,4,-1,-1,6,8,10,12,14,16,18,20,22,24,26,28,-1,30,32,-1,-1,-1,-1,-1,-1,-1,-1,-1,-1,-1,-1,-1,-1],"split_conditions":[1.1E1,8E0,-3.370207E-2,-3.370135E-2,3.8E1,9.682E2,1.18E1,1.6E1,7.6E1,8.2E0,7.9E1,4.4E1,3.24E1,1.06E1,1.84E1,7E1,-3.169005E-2,8E0,-2.3E0,-3.3483997E-2,1.9173408E-2,3.318102E-2,-7.831317E-3,-3.211209E-2,1.536966E-2,-3.17526E-2,5.8769505E-2,-2.8671563E-2,3.146115E-2,4.5607843E-2,2.4654968E-2,4.4021133E-2,5.5863388E-2],"split_indices":[14,14,0,0,1,2,12,1,9,16,9,9,8,16,8,9,0,13,5,0,0,0,0,0,0,0,0,0,0,0,0,0,0],"split_type":[0,0,0,0,0,0,0,0,0,0,0,0,0,0,0,0,0,0,0,0,0,0,0,0,0,0,0,0,0,0,0,0,0],"sum_hessian":[2.5081526E3,1.3782646E3,1.1298881E3,4.4813412E2,9.301305E2,2.8026132E2,6.498692E2,1.8162245E2,9.863887E1,3.1499115E1,6.1837006E2,3.2069008E1,1.4955344E2,7.927474E1,1.9364126E1,2.0441732E1,1.10573845E1,1.6729709E2,4.5107297E2,2.5428593E1,6.6404166E0,1.294329E2,2.012053E1,7.157237E1,7.702372E0,1.0362305E1,9.0018215E0,4.48994E0,1.5951792E1,8.595702E1,8.1340065E1,6.88661E1,3.8220688E2],"tree_param":{"num_deleted":"0","num_feature":"17","num_nodes":"33","size_leaf_vector":"1"}},{"base_weights":[-2.794947E-1,3.964779E-1,-3.3577777E-2,-3.357523E-2,1.1073015E0,1.6745584E-1,1.5094941E0,6.031273E-1,-6.500561E-1,-7.335227E-3,1.586027E0,-7.349665E-1,8.854489E-1,-9.0237635E-1,3.6348566E-1,5.6395894E-1,-3.149946E-2,8.662888E-1,1.6869186E0,-3.3302147E-2,1.8513583E-2,3.1865377E-2,-9.283516E-3,-3.1873755E-2,1.4823276E-2,-3.1552088E-2,5.6487933E-2,3.785731E-2,-1.3504032E-2,5.048805E-2,1.0991331E-2,4.3333344E-2,5.3819533E-2],"categories":[],"categories_nodes":[],"categories_segments":[],"categories_sizes":[],"default_left":[0,0,0,0,0,0,0,0,0,0,0,0,0,0,0,0,0,0,0,0,0,0,0,0,0,0,0,0,0,0,0,0,0],"id":18,"left_children":[1,3,-1,-1,5,7,9,11,13,15,17,19,21,23,25,27,-1,29,31,-1,-1,-1,-1,-1,-1,-1,-1,-1,-1,-1,-1,-1,-1],"loss_changes":[1.4021633E3,1.4759401E3,0E0,0E0,3.5215784E2,1.00305885E2,7.5791016E1,6.997924E1,2.5391884E1,1.9861658E1,4.3664062E1,1.7178637E1,3.2426956E1,1.8131577E1,4.552105E1,1.5820478E1,0E0,3.1413464E1,1.153064E1,0E0,0E0,0E0,0E0,0E0,0E0,0E0,0E0,0E0,0E0,0E0,0E0,0E0,0E0],"parents":[2147483647,0,0,1,1,4,4,5,5,6,6,7,7,8,8,9,9,10,10,11,11,12,12,13,13,14,14,15,15,17,17,18,18],"right_children":[2,4,-1,-1,6,8,10,12,14,16,18,20,22,24,26,28,-1,30,32,-1,-1,-1,-1,-1,-1,-1,-1,-1,-1,-1,-1,-1,-1],"split_conditions":[1.1E1,8E0,-3.3577777E-2,-3.357523E-2,3.8E1,9.682E2,1.18E1,1.6E1,7.6E1,8.2E0,7.3E1,4.4E1,9E0,1.06E1,1.84E1,8.7155744E-2,-3.149946E-2,7E0,8.4E1,-3.3302147E-2,1.8513583E-2,3.1865377E-2,-9.283516E-3,-3.1873755E-2,1.4823276E-2,-3.1552088E-2,5.6487933E-2,3.785731E-2,-1.3504032E-2,5.048805E-2,1.0991331E-2,4.3333344E-2,5.3819533E-2],"split_indices":[14,14,0,0,1,2,12,1,9,16,9,9,13,16,8,6,0,13,9,0,0,0,0,0,0,0,0,0,0,0,0,0,0],"split_type":[0,0,0,0,0,0,0,0,0,0,0,0,0,0,0,0,0,0,0,0,0,0,0,0,0,0,0,0,0,0,0,0,0],"sum_hessian":[2.4683037E3,1.3678079E3,1.1004958E3,4.365023E2,9.313056E2,2.7952545E2,6.5178015E2,1.82519E2,9.7006454E1,3.1349958E1,6.2043024E2,3.152056E1,1.5099844E2,7.7758286E1,1.9248169E1,2.0549465E1,1.0800493E1,7.745685E1,5.429734E2,2.4815159E1,6.7053995E0,1.3163951E2,1.9358927E1,6.997598E1,7.7823086E0,1.0125255E1,9.122915E0,1.2027289E1,8.522175E0,2.8512629E1,4.8944218E1,1.7075447E2,3.722189E2],"tree_param":{"num_deleted":"0","num_feature":"17","num_nodes":"33","size_leaf_vector":"1"}},{"base_weights":[-2.7584782E-1,3.8764814E-1,-3.3457987E-2,-3.3453595E-2,1.0739737E0,1.6267198E-1,1.4623997E0,5.8207613E-1,-6.413831E-1,-7.608444E-3,1.5361178E0,-7.257289E-1,8.508979E-1,-8.927195E-1,3.5573286E-1,5.4516613E-1,-3.1312592E-2,9.919187E-1,1.6644154E0,-3.312538E-2,1.7882966E-2,3.0791173E-2,-8.417644E-3,-3.1639684E-2,1.4301183E-2,-3.1355593E-2,5.4391112E-2,-2.8475164E-2,2.9450519E-2,4.119338E-2,1.3747424E-2,4.348691E-2,5.250691E-2],"categories":[],"categories_nodes":[],"categories_segments":[],"categories_sizes":[],"default_left":[0,0,0,0,0,0,0,0,0,0,0,0,0,0,0,0,0,0,0,0,0,0,0,0,0,0,0,0,0,0,0,0,0],"id":19,"left_children":[1,3,-1,-1,5,7,9,11,13,15,17,19,21,23,25,27,-1,29,31,-1,-1,-1,-1,-1,-1,-1,-1,-1,-1,-1,-1,-1,-1],"loss_changes":[1.3534487E3,1.4013976E3,0E0,0E0,3.2983008E2,9.472671E1,7.084766E1,6.544798E1,2.447396E1,1.9017479E1,4.180896E1,1.665681E1,3.0749657E1,1.7638103E1,4.2971455E1,1.5061565E1,0E0,2.4032227E1,6.7227783E0,0E0,0E0,0E0,0E0,0E0,0E0,0E0,0E0,0E0,0E0,0E0,0E0,0E0,0E0],"parents":[2147483647,0,0,1,1,4,4,5,5,6,6,7,7,8,8,9,9,10,10,11,11,12,12,13,13,14,14,15,15,17,17,18,18],"right_children":[2,4,-1,-1,6,8,10,12,14,16,18,20,22,24,26,28,-1,30,32,-1,-1,-1,-1,-1,-1,-1,-1,-1,-1,-1,-1,-1,-1],"split_conditions":[1.1E1,8E0,-3.3457987E-2,-3.3453595E-2,3.8E1,9.682E2,1.18E1,1.6E1,7.6E1,8.2E0,7.6E1,4.4E1,3.24E1,1.06E1,1.84E1,7E1,-3.1312592E-2,8E0,8.5E1,-3.312538E-2,1.7882966E-2,3.0791173E-2,-8.417644E-3,-3.1639684E-2,1.4301183E-2,-3.1355593E-2,5.4391112E-2,-2.8475164E-2,2.9450519E-2,4.119338E-2,1.3747424E-2,4.348691E-2,5.250691E-2],"split_indices":[14,14,0,0,1,2,12,1,9,16,9,9,8,16,8,9,0,13,9,0,0,0,0,0,0,0,0,0,0,0,0,0,0],"split_type":[0,0,0,0,0,0,0,0,0,0,0,0,0,0,0,0,0,0,0,0,0,0,0,0,0,0,0,0,0,0,0,0,0],"sum_hessian":[2.4283286E3,1.356588E3,1.0717407E3,4.2512216E2,9.314658E2,2.7879434E2,6.526715E2,1.8340454E2,9.5389786E1,3.121007E1,6.214614E2,3.0981478E1,1.5242307E2,7.626969E1,1.9120092E1,2.0661293E1,1.0548777E1,1.2022683E2,5.012346E2,2.4213585E1,6.7678933E0,1.3203894E2,2.0384129E1,6.8409966E1,7.8597302E0,9.892826E0,9.227265E0,4.4054904E0,1.6255802E1,6.921474E1,5.1012096E1,1.4816687E2,3.5306772E2],"tree_param":{"num_deleted":"0","num_feature":"17","num_nodes":"33","size_leaf_vector":"1"}},{"base_weights":[-2.72315E-1,3.7917763E-1,-3.3342507E-2,-3.3336245E-2,1.0424942E0,3.534857E-1,1.5270301E0,-6.8519413E-1,6.34774E-1,2.1689771E-1,1.5672809E0,3.1852403E-1,-9.3318474E-1,7.776304E-2,1.0267788E0,-3.1077929E-2,7.690794E-1,-2.3852859E-2,1.5788763E0,3.993131E-2,-1.4905254E-2,-3.083987E-2,2.4477933E-2,8.453801E-3,-3.6118824E-2,4.062723E-2,9.621815E-3,-2.6598426E-2,3.4817692E-2,3.9474092E-2,5.101982E-2],"categories":[],"categories_nodes":[],"categories_segments":[],"categories_sizes":[],"default_left":[0,0,0,0,0,0,0,0,0,0,0,0,0,0,0,0,0,0,0,0,0,0,0,0,0,0,0,0,0,0,0],"id":20,"left_children":[1,3,-1,-1,5,7,9,11,13,15,17,19,21,23,25,-1,27,-1,29,-1,-1,-1,-1,-1,-1,-1,-1,-1,-1,-1,-1],"loss_changes":[1.3066694E3,1.3316646E3,0E0,0E0,3.1056122E2,1.1322662E2,2.8495605E1,2.0894543E1,6.636457E1,1.2874894E1,1.5783081E1,1.4811583E1,1.1884933E1,3.3493023E1,4.084111E1,0E0,9.256324E0,0E0,1.4681519E1,0E0,0E0,0E0,0E0,0E0,0E0,0E0,0E0,0E0,0E0,0E0,0E0],"parents":[2147483647,0,0,1,1,4,4,5,5,6,6,7,7,8,8,9,9,10,10,11,11,12,12,13,13,14,14,16,16,18,18],"right_children":[2,4,-1,-1,6,8,10,12,14,16,18,20,22,24,26,-1,28,-1,30,-1,-1,-1,-1,-1,-1,-1,-1,-1,-1,-1,-1],"split_conditions":[1.1E1,8E0,-3.3342507E-2,-3.3336245E-2,4.8E1,1.24E1,7E1,7.265E2,5.5E1,-1.9E0,1.2E1,6.9E0,9.945219E-1,7E0,8E0,-3.1077929E-2,1.03E1,-2.3852859E-2,8.4E1,3.993131E-2,-1.4905254E-2,-3.083987E-2,2.4477933E-2,8.453801E-3,-3.6118824E-2,4.062723E-2,9.621815E-3,-2.6598426E-2,3.4817692E-2,3.9474092E-2,5.101982E-2],"split_indices":[14,14,0,0,1,12,9,10,9,5,8,16,7,13,13,0,4,0,9,0,0,0,0,0,0,0,0,0,0,0,0],"split_type":[0,0,0,0,0,0,0,0,0,0,0,0,0,0,0,0,0,0,0,0,0,0,0,0,0,0,0,0,0,0,0],"sum_hessian":[2.3884692E3,1.344852E3,1.0436172E3,4.139916E2,9.308604E2,3.8505005E2,5.4581036E2,8.174908E1,3.0330096E2,1.6459341E1,5.29351E2,1.6139914E1,6.560916E1,1.25777885E2,1.7752307E2,4.7671733E0,1.1692167E1,2.2555177E0,5.270955E2,6.917423E0,9.22249E0,6.262675E1,2.982412E0,1.0917852E2,1.6599363E1,1.20648865E2,5.6874207E1,1.9941831E0,9.697984E0,1.705295E2,3.5656598E2],"tree_param":{"num_deleted":"0","num_feature":"17","num_nodes":"31","size_leaf_vector":"1"}},{"base_weights":[-2.6882935E-1,3.7089175E-1,-3.323115E-2,-3.3223E-2,1.0121211E0,3.361481E-1,1.4833865E0,6.6528964E-1,-7.853482E-1,-7.037253E-1,1.5527948E0,-7.421721E-1,8.395196E-1,-3.402184E-2,-2.630522E-1,-3.227344E-2,5.2161854E-2,1.5627301E0,-2.477078E-2,-3.3082187E-2,1.631814E-2,2.8459175E-2,-6.3309316E-3,6.2559895E-2,-2.8394273E-2,-2.622674E-2,4.7089275E-2],"categories":[],"categories_nodes":[],"categories_segments":[],"categories_sizes":[],"default_left":[0,0,0,0,0,0,0,0,0,0,0,0,0,0,0,0,0,0,0,0,0,0,0,0,0,0,0],"id":21,"left_children":[1,3,-1,-1,5,7,9,11,13,15,17,19,21,-1,23,-1,-1,25,-1,-1,-1,-1,-1,-1,-1,-1,-1],"loss_changes":[1.2616929E3,1.2658542E3,0E0,0E0,2.9610712E2,1.4218108E2,8.432886E1,7.35105E1,1.5644035E1,1.7822073E1,1.3856201E1,1.6029003E1,3.0573837E1,0E0,6.030681E1,0E0,0E0,1.0298584E1,0E0,0E0,0E0,0E0,0E0,0E0,0E0,0E0,0E0],"parents":[2147483647,0,0,1,1,4,4,5,5,6,6,7,7,8,8,9,9,10,10,11,11,12,12,14,14,17,17],"right_children":[2,4,-1,-1,6,8,10,12,14,16,18,20,22,-1,24,-1,-1,26,-1,-1,-1,-1,-1,-1,-1,-1,-1],"split_conditions":[1.1E1,8E0,-3.323115E-2,-3.3223E-2,7.6E1,7.265E2,1.04E1,1.6E1,2.2E1,9.945219E-1,7.309E2,4.4E1,3.24E1,-3.402184E-2,2.25E1,-3.227344E-2,5.2161854E-2,2.6E1,-2.477078E-2,-3.3082187E-2,1.631814E-2,2.8459175E-2,-6.3309316E-3,6.2559895E-2,-2.8394273E-2,-2.622674E-2,4.7089275E-2],"split_indices":[14,14,0,0,9,10,12,1,8,7,10,9,8,0,8,0,0,1,0,0,0,0,0,0,0,0,0],"split_type":[0,0,0,0,0,0,0,0,0,0,0,0,0,0,0,0,0,0,0,0,0,0,0,0,0,0,0],"sum_hessian":[2.3493032E3,1.3331838E3,1.0161194E3,4.031085E2,9.300754E2,3.8276242E2,5.473129E2,2.962303E2,8.653215E1,1.6553707E1,5.307592E2,3.227194E1,2.6395834E2,5.118618E1,3.5345974E1,1.4851017E1,1.7026893E0,5.2889294E2,1.8662686E0,2.531682E1,6.95512E0,2.3920898E2,2.4749353E1,7.505219E0,2.7840754E1,1.1410955E0,5.2775183E2],"tree_param":{"num_deleted":"0","num_feature":"17","num_nodes":"27","size_leaf_vector":"1"}},{"base_weights":[-2.6550767E-1,3.6294165E-1,-3.3123747E-2,-3.3113677E-2,9.8353714E-1,3.2615477E-1,1.4426365E0,6.426504E-1,-7.7558327E-1,-6.938448E-1,1.5093727E0,-7.331711E-1,8.089605E-1,-3.3858772E-2,-2.563186E-1,-3.209575E-2,5.0189495E-2,1.5190098E0,-2.452521E-2,-3.291459E-2,1.5778206E-2,2.9921144E-2,6.7212745E-3,5.900782E-2,-2.8071605E-2,-2.5906557E-2,4.5772858E-2],"categories":[],"categories_nodes":[],"categories_segments":[],"categories_sizes":[],"default_left":[0,0,0,0,0,0,0,0,0,0,0,0,0,0,0,0,0,0,0,0,0,0,0,0,0,0,0],"id":22,"left_children":[1,3,-1,-1,5,7,9,11,13,15,17,19,21,-1,23,-1,-1,25,-1,-1,-1,-1,-1,-1,-1,-1,-1],"loss_changes":[1.2183967E3,1.2042698E3,0E0,0E0,2.8001166E2,1.3420337E2,7.902576E1,6.887557E1,1.5480675E1,1.7142666E1,1.3141602E1,1.5566685E1,2.9169632E1,0E0,5.6382812E1,0E0,0E0,9.824951E0,0E0,0E0,0E0,0E0,0E0,0E0,0E0,0E0,0E0],"parents":[2147483647,0,0,1,1,4,4,5,5,6,6,7,7,8,8,9,9,10,10,11,11,12,12,14,14,17,17],"right_children":[2,4,-1,-1,6,8,10,12,14,16,18,20,22,-1,24,-1,-1,26,-1,-1,-1,-1,-1,-1,-1,-1,-1],"split_conditions":[1.1E1,8E0,-3.3123747E-2,-3.3113677E-2,7.6E1,7.265E2,1.04E1,1.6E1,2.2E1,9.945219E-1,7.309E2,4.4E1,8E0,-3.3858772E-2,2.25E1,-3.209575E-2,5.0189495E-2,2.6E1,-2.452521E-2,-3.291459E-2,1.5778206E-2,2.9921144E-2,6.7212745E-3,5.900782E-2,-2.8071605E-2,-2.5906557E-2,4.5772858E-2],"split_indices":[14,14,0,0,9,10,12,1,8,7,10,9,13,0,8,0,0,1,0,0,0,0,0,0,0,0,0],"split_type":[0,0,0,0,0,0,0,0,0,0,0,0,0,0,0,0,0,0,0,0,0,0,0,0,0,0,0],"sum_hessian":[2.310063E3,1.3208224E3,9.892406E2,3.924701E2,9.283523E2,3.824435E2,5.4590875E2,2.974204E2,8.5023094E1,1.625114E1,5.2965765E2,3.1707506E1,2.657129E2,4.9913757E1,3.510934E1,1.4496143E1,1.7549969E0,5.278188E2,1.8388354E0,2.4696817E1,7.010689E0,2.0044225E2,6.5270645E1,7.7742176E0,2.7335123E1,1.1330237E0,5.266858E2],"tree_param":{"num_deleted":"0","num_feature":"17","num_nodes":"27","size_leaf_vector":"1"}},{"base_weights":[-2.6224867E-1,3.5526717E-1,-3.3020128E-2,-3.300811E-2,9.5625925E-1,3.193377E-1,1.4068456E0,-6.660216E-1,5.7262146E-1,1.744003E-1,1.4454058E0,2.558616E-1,-9.126056E-1,7.1618927E-1,-7.1247053E-1,-3.0893497E-2,6.885469E-1,1.1909374E0,1.5652279E0,3.6254875E-2,-1.5533702E-2,-3.0334206E-2,2.270616E-2,2.9154072E-2,-2.825257E-3,-3.2886725E-2,2.1067014E-2,-2.676356E-2,3.1827908E-2,3.6817797E-2,-3.2637607E-2,-2.2627125E-2,4.7404766E-2],"categories":[],"categories_nodes":[],"categories_segments":[],"categories_sizes":[],"default_left":[0,0,0,0,0,0,0,0,0,0,0,0,0,0,0,0,0,0,0,0,0,0,0,0,0,0,0,0,0,0,0,0,0],"id":23,"left_children":[1,3,-1,-1,5,7,9,11,13,15,17,19,21,23,25,-1,27,29,31,-1,-1,-1,-1,-1,-1,-1,-1,-1,-1,-1,-1,-1,-1],"loss_changes":[1.1768079E3,1.1463362E3,0E0,0E0,2.6563794E2,9.6579765E1,2.5540161E1,1.8255692E1,5.718199E1,1.1607279E1,1.4177734E1,1.3532044E1,1.1090855E1,5.7427505E1,1.779994E1,0E0,8.560158E0,1.5622665E1,1.346936E1,0E0,0E0,0E0,0E0,0E0,0E0,0E0,0E0,0E0,0E0,0E0,0E0,0E0,0E0],"parents":[2147483647,0,0,1,1,4,4,5,5,6,6,7,7,8,8,9,9,10,10,11,11,12,12,13,13,14,14,16,16,17,17,18,18],"right_children":[2,4,-1,-1,6,8,10,12,14,16,18,20,22,24,26,-1,28,30,32,-1,-1,-1,-1,-1,-1,-1,-1,-1,-1,-1,-1,-1,-1],"split_conditions":[1.1E1,8E0,-3.3020128E-2,-3.300811E-2,4.8E1,1.24E1,7E1,7.265E2,3.1E1,-1.9E0,8.4E1,6.9E0,9.945219E-1,9E0,4.4E1,-3.0893497E-2,1.03E1,9.709E2,1.2E1,3.6254875E-2,-1.5533702E-2,-3.0334206E-2,2.270616E-2,2.9154072E-2,-2.825257E-3,-3.2886725E-2,2.1067014E-2,-2.676356E-2,3.1827908E-2,3.6817797E-2,-3.2637607E-2,-2.2627125E-2,4.7404766E-2],"split_indices":[14,14,0,0,1,12,9,10,4,5,9,16,7,13,9,0,4,2,8,0,0,0,0,0,0,0,0,0,0,0,0,0,0],"split_type":[0,0,0,0,0,0,0,0,0,0,0,0,0,0,0,0,0,0,0,0,0,0,0,0,0,0,0,0,0,0,0,0,0],"sum_hessian":[2.2712197E3,1.3082454E3,9.6297424E2,3.8207364E2,9.261717E2,3.84448E2,5.417237E2,7.828058E1,3.0616742E2,1.660257E1,5.251211E2,1.6511768E1,6.1768814E1,2.757985E2,3.036894E1,4.667623E0,1.1934945E1,1.7160959E2,3.5351154E2,7.148012E0,9.363755E0,5.8698685E1,3.0701313E0,2.0951271E2,6.6285774E1,2.4065924E1,6.3030176E0,2.0094934E0,9.925452E0,1.6937146E2,2.2381372E0,1.9444093E0,3.5156714E2],"tree_param":{"num_deleted":"0","num_feature":"17","num_nodes":"33","size_leaf_vector":"1"}},{"base_weights":[-2.5904402E-1,3.4786806E-1,-3.2920133E-2,-3.290615E-2,9.302262E-1,3.0298615E-1,1.371855E0,5.984329E-1,-7.61617E-1,-6.7443633E-1,1.4340367E0,-7.1760553E-1,7.50761E-1,-3.3614833E-2,-2.5312066E-1,-3.177572E-2,4.7507305E-2,1.4433025E0,-2.4280868E-2,-3.260999E-2,1.4584204E-2,2.5679255E-2,-7.6003307E-3,5.5318072E-2,-2.7778948E-2,3.605033E-2,4.6031818E-2],"categories":[],"categories_nodes":[],"categories_segments":[],"categories_sizes":[],"default_left":[0,0,0,0,0,0,0,0,0,0,0,0,0,0,0,0,0,0,0,0,0,0,0,0,0,0,0],"id":24,"left_children":[1,3,-1,-1,5,7,9,11,13,15,17,19,21,-1,23,-1,-1,25,-1,-1,-1,-1,-1,-1,-1,-1,-1],"loss_changes":[1.1368628E3,1.0918097E3,0E0,0E0,2.5569128E2,1.2101126E2,6.996625E1,6.0796272E1,1.4990894E1,1.6161884E1,1.2114502E1,1.4621201E1,2.8729492E1,0E0,5.2395176E1,0E0,0E0,9.706665E0,0E0,0E0,0E0,0E0,0E0,0E0,0E0,0E0,0E0],"parents":[2147483647,0,0,1,1,4,4,5,5,6,6,7,7,8,8,9,9,10,10,11,11,12,12,14,14,17,17],"right_children":[2,4,-1,-1,6,8,10,12,14,16,18,20,22,-1,24,-1,-1,26,-1,-1,-1,-1,-1,-1,-1,-1,-1],"split_conditions":[1.1E1,8E0,-3.2920133E-2,-3.290615E-2,7.6E1,7.265E2,1.04E1,1.6E1,2.2E1,9.945219E-1,7.309E2,4.4E1,3.24E1,-3.3614833E-2,2.25E1,-3.177572E-2,4.7507305E-2,8.4E1,-2.4280868E-2,-3.260999E-2,1.4584204E-2,2.5679255E-2,-7.6003307E-3,5.5318072E-2,-2.7778948E-2,3.605033E-2,4.6031818E-2],"split_indices":[14,14,0,0,9,10,12,1,8,7,10,9,8,0,8,0,0,9,0,0,0,0,0,0,0,0,0],"split_type":[0,0,0,0,0,0,0,0,0,0,0,0,0,0,0,0,0,0,0,0,0,0,0,0,0,0,0],"sum_hessian":[2.2327788E3,1.2954661E3,9.373128E2,3.719163E2,9.2354974E2,3.8228336E2,5.412664E2,2.9958182E2,8.270153E1,1.5672302E1,5.255941E2,3.0693592E1,2.688882E2,4.7778053E1,3.492348E1,1.3844232E1,1.8280706E0,5.2378735E2,1.806716E0,2.356054E1,7.1330533E0,2.4351886E2,2.536936E1,8.060568E0,2.6862913E1,1.4728862E2,3.7649875E2],"tree_param":{"num_deleted":"0","num_feature":"17","num_nodes":"27","size_leaf_vector":"1"}},{"base_weights":[-2.5594226E-1,3.408425E-1,-3.2823622E-2,-3.280763E-2,9.0577585E-1,2.9418465E-1,1.3379791E0,5.7875764E-1,-7.523064E-1,-6.6506606E-1,1.3980603E0,-7.0892227E-1,7.2453177E-1,-3.346401E-2,-2.4686088E-1,-3.160802E-2,4.580564E-2,6.935949E-1,1.4340286E0,-3.245451E-2,1.41143855E-2,2.4760399E-2,-7.4082147E-3,5.2453957E-2,-2.7463498E-2,3.6804143E-2,-1.5816234E-2,-2.5986267E-2,4.3218937E-2],"categories":[],"categories_nodes":[],"categories_segments":[],"categories_sizes":[],"default_left":[0,0,0,0,0,0,0,0,0,0,0,0,0,0,0,0,0,0,0,0,0,0,0,0,0,0,0,0,0],"id":25,"left_children":[1,3,-1,-1,5,7,9,11,13,15,17,19,21,-1,23,-1,-1,25,27,-1,-1,-1,-1,-1,-1,-1,-1,-1,-1],"loss_changes":[1.0985012E3,1.0407417E3,0E0,0E0,2.4307764E2,1.14396805E2,6.58454E1,5.7094383E1,1.4821911E1,1.5563639E1,1.2283203E1,1.4212354E1,2.6771408E1,0E0,4.9188652E1,0E0,0E0,1.8477678E1,8.805603E0,0E0,0E0,0E0,0E0,0E0,0E0,0E0,0E0,0E0,0E0],"parents":[2147483647,0,0,1,1,4,4,5,5,6,6,7,7,8,8,9,9,10,10,11,11,12,12,14,14,17,17,18,18],"right_children":[2,4,-1,-1,6,8,10,12,14,16,18,20,22,-1,24,-1,-1,26,28,-1,-1,-1,-1,-1,-1,-1,-1,-1,-1],"split_conditions":[1.1E1,8E0,-3.2823622E-2,-3.280763E-2,7.6E1,7.265E2,1.04E1,1.6E1,2.2E1,9.945219E-1,1.33E1,4.4E1,3.24E1,-3.346401E-2,2.25E1,-3.160802E-2,4.580564E-2,2.23E1,2.6E1,-3.245451E-2,1.41143855E-2,2.4760399E-2,-7.4082147E-3,5.2453957E-2,-2.7463498E-2,3.6804143E-2,-1.5816234E-2,-2.5986267E-2,4.3218937E-2],"split_indices":[14,14,0,0,9,10,12,1,8,7,12,9,8,0,8,0,0,0,1,0,0,0,0,0,0,0,0,0,0],"split_type":[0,0,0,0,0,0,0,0,0,0,0,0,0,0,0,0,0,0,0,0,0,0,0,0,0,0,0,0,0],"sum_hessian":[2.1943252E3,1.2820771E3,9.122481E2,3.6199493E2,9.200822E2,3.8167374E2,5.384085E2,3.0042575E2,8.1248E1,1.5386021E1,5.2302246E2,3.0158728E1,2.70267E2,4.657625E1,3.4671757E1,1.3510507E1,1.8755144E0,2.6392353E1,4.9663013E2,2.2976824E1,7.1819043E0,2.4499316E2,2.527384E1,8.29654E0,2.6375216E1,1.8365803E1,8.026549E0,1.0488119E0,4.9558133E2],"tree_param":{"num_deleted":"0","num_feature":"17","num_nodes":"29","size_leaf_vector":"1"}},{"base_weights":[-2.5292537E-1,3.3405265E-1,-3.273044E-2,-3.271242E-2,8.824441E-1,2.856918E-1,1.30598E0,5.5991495E-1,-7.4317515E-1,-6.55877E-1,1.3641148E0,-7.003354E-1,6.995182E-1,-3.3317506E-2,-2.4083142E-1,-3.1443436E-2,4.4199303E-2,6.7489314E-1,1.3994449E0,-3.2302782E-2,1.3662933E-2,2.628418E-2,4.4977716E-3,4.9838178E-2,-2.7151508E-2,3.5758276E-2,-1.5489025E-2,-2.5663689E-2,4.2178236E-2],"categories":[],"categories_nodes":[],"categories_segments":[],"categories_sizes":[],"default_left":[0,0,0,0,0,0,0,0,0,0,0,0,0,0,0,0,0,0,0,0,0,0,0,0,0,0,0,0,0],"id":26,"left_children":[1,3,-1,-1,5,7,9,11,13,15,17,19,21,-1,23,-1,-1,25,27,-1,-1,-1,-1,-1,-1,-1,-1,-1,-1],"loss_changes":[1.0615753E3,9.925914E2,0E0,0E0,2.3142444E2,1.0818986E2,6.204138E1,5.3652657E1,1.4648273E1,1.499421E1,1.1742554E1,1.3818175E1,2.6323807E1,0E0,4.6248196E1,0E0,0E0,1.7452614E1,8.449158E0,0E0,0E0,0E0,0E0,0E0,0E0,0E0,0E0,0E0,0E0],"parents":[2147483647,0,0,1,1,4,4,5,5,6,6,7,7,8,8,9,9,10,10,11,11,12,12,14,14,17,17,18,18],"right_children":[2,4,-1,-1,6,8,10,12,14,16,18,20,22,-1,24,-1,-1,26,28,-1,-1,-1,-1,-1,-1,-1,-1,-1,-1],"split_conditions":[1.1E1,8E0,-3.273044E-2,-3.271242E-2,7.6E1,7.265E2,1.04E1,1.6E1,2.2E1,9.945219E-1,1.33E1,4.4E1,8E0,-3.3317506E-2,2.25E1,-3.1443436E-2,4.4199303E-2,2.23E1,2.6E1,-3.2302782E-2,1.3662933E-2,2.628418E-2,4.4977716E-3,4.9838178E-2,-2.7151508E-2,3.5758276E-2,-1.5489025E-2,-2.5663689E-2,4.2178236E-2],"split_indices":[14,14,0,0,9,10,12,1,8,7,12,9,13,0,8,0,0,0,1,0,0,0,0,0,0,0,0,0,0],"split_type":[0,0,0,0,0,0,0,0,0,0,0,0,0,0,0,0,0,0,0,0,0,0,0,0,0,0,0,0,0],"sum_hessian":[2.1561953E3,1.2684231E3,8.8777216E2,3.523063E2,9.1611676E2,3.80988E2,5.351288E2,3.0117252E2,7.981549E1,1.510496E1,5.200238E2,2.9634483E1,2.7153802E2,4.5399796E1,3.441569E1,1.3183959E1,1.9210013E0,2.63373E1,4.9368652E2,2.2405537E1,7.228947E0,2.0504808E2,6.6489944E1,8.518998E0,2.5896696E1,1.8365114E1,7.972186E0,1.0427954E0,4.926437E2],"tree_param":{"num_deleted":"0","num_feature":"17","num_nodes":"29","size_leaf_vector":"1"}},{"base_weights":[-2.4995108E-1,3.2745823E-1,-3.264046E-2,-3.2620367E-2,8.5999846E-1,1.082711E-1,1.1828243E0,-5.94836E-1,4.4785613E-1,8.749288E-1,1.4074764E0,8.757785E-1,-7.6451856E-1,6.62287E-1,-5.878481E-1,9.5449954E-1,-2.3665285E-1,2.712332E-1,1.451469E0,5.4329723E-2,-2.700898E-2,2.9655457E-2,-2.7123988E-2,-2.0642158E-2,2.5932405E-2,-2.8872162E-2,4.312684E-2,2.350277E-2,3.740052E-2,-3.3990778E-2,1.7862467E-2,-3.220039E-2,3.0114736E-2,4.457638E-2,2.4106074E-2],"categories":[],"categories_nodes":[],"categories_segments":[],"categories_sizes":[],"default_left":[0,0,0,0,0,0,0,0,0,0,0,0,0,0,0,0,0,0,0,0,0,0,0,0,0,0,0,0,0,0,0,0,0,0,0],"id":27,"left_children":[1,3,-1,-1,5,7,9,11,13,15,17,19,21,23,25,27,29,31,33,-1,-1,-1,-1,-1,-1,-1,-1,-1,-1,-1,-1,-1,-1,-1,-1],"loss_changes":[1.0260483E3,9.470547E2,0E0,0E0,2.2140839E2,6.601198E1,4.293524E1,2.3154924E1,4.1752827E1,2.4284348E1,1.797754E1,1.7887459E1,2.0796898E1,4.2838966E1,2.602113E1,1.1721115E1,1.4824413E1,1.5783022E1,6.6896973E0,0E0,0E0,0E0,0E0,0E0,0E0,0E0,0E0,0E0,0E0,0E0,0E0,0E0,0E0,0E0,0E0],"parents":[2147483647,0,0,1,1,4,4,5,5,6,6,7,7,8,8,9,9,10,10,11,11,12,12,13,13,14,14,15,15,16,16,17,17,18,18],"right_children":[2,4,-1,-1,6,8,10,12,14,16,18,20,22,24,26,28,30,32,34,-1,-1,-1,-1,-1,-1,-1,-1,-1,-1,-1,-1,-1,-1,-1,-1],"split_conditions":[1.1E1,8E0,-3.264046E-2,-3.2620367E-2,3.8E1,1.52E1,8.4E1,-9.9254614E-1,3.24E1,9.71E2,1.24E1,7.7E0,-9.975641E-1,5.9E0,8.8294756E-1,4.9E0,2.432E2,6.7E0,1E1,5.4329723E-2,-2.700898E-2,2.9655457E-2,-2.7123988E-2,-2.0642158E-2,2.5932405E-2,-2.8872162E-2,4.312684E-2,2.350277E-2,3.740052E-2,-3.3990778E-2,1.7862467E-2,-3.220039E-2,3.0114736E-2,4.457638E-2,2.4106074E-2],"split_indices":[14,14,0,0,1,12,9,6,8,2,12,16,7,16,7,16,15,3,13,0,0,0,0,0,0,0,0,0,0,0,0,0,0,0,0],"split_type":[0,0,0,0,0,0,0,0,0,0,0,0,0,0,0,0,0,0,0,0,0,0,0,0,0,0,0,0,0,0,0,0,0,0,0],"sum_hessian":[2.1186096E3,1.2547333E3,8.6387646E2,3.4284705E2,9.118862E2,2.7435727E2,6.3752893E2,8.9108154E1,1.8524913E2,2.710027E2,3.6652625E2,8.787435E0,8.032072E1,1.5377275E2,3.1476368E1,2.5303117E2,1.7971518E1,1.3929096E1,3.5259714E2,5.743485E0,3.0439494E0,5.4764686E0,7.4844246E1,1.9707499E1,1.3406526E2,2.700685E1,4.46952E0,1.6191267E2,9.111849E1,8.477333E0,9.494185E0,4.7485657E0,9.180531E0,3.335877E2,1.9009445E1],"tree_param":{"num_deleted":"0","num_feature":"17","num_nodes":"35","size_leaf_vector":"1"}},{"base_weights":[-2.4692515E-1,3.2104245E-1,-3.255355E-2,-3.2531355E-2,8.381758E-1,2.664605E-1,1.2488415E0,5.2438146E-1,-7.3120856E-1,-6.4327174E-1,1.3042068E0,-6.923392E-1,6.555656E-1,-3.3110514E-2,-2.368381E-1,-3.1233719E-2,4.2315066E-2,6.378153E-1,1.3386929E0,-3.2130342E-2,1.2726397E-2,2.47713E-2,3.7555727E-3,4.7227073E-2,-2.6896207E-2,3.406631E-2,-1.5372267E-2,3.3171352E-2,4.285945E-2],"categories":[],"categories_nodes":[],"categories_segments":[],"categories_sizes":[],"default_left":[0,0,0,0,0,0,0,0,0,0,0,0,0,0,0,0,0,0,0,0,0,0,0,0,0,0,0,0,0],"id":28,"left_children":[1,3,-1,-1,5,7,9,11,13,15,17,19,21,-1,23,-1,-1,25,27,-1,-1,-1,-1,-1,-1,-1,-1,-1,-1],"loss_changes":[9.919616E2,9.0385645E2,0E0,0E0,2.1303027E2,9.846415E1,5.6213867E1,4.8888466E1,1.42333145E1,1.4294831E1,1.0956299E1,1.3146684E1,2.4661346E1,0E0,4.3343533E1,0E0,0E0,1.6151665E1,8.641602E0,0E0,0E0,0E0,0E0,0E0,0E0,0E0,0E0,0E0,0E0],"parents":[2147483647,0,0,1,1,4,4,5,5,6,6,7,7,8,8,9,9,10,10,11,11,12,12,14,14,17,17,18,18],"right_children":[2,4,-1,-1,6,8,10,12,14,16,18,20,22,-1,24,-1,-1,26,28,-1,-1,-1,-1,-1,-1,-1,-1,-1,-1],"split_conditions":[1.1E1,8E0,-3.255355E-2,-3.2531355E-2,7.6E1,7.265E2,1.04E1,1.6E1,2.2E1,9.945219E-1,1.33E1,4.4E1,8E0,-3.3110514E-2,2.25E1,-3.1233719E-2,4.2315066E-2,2.23E1,8.4E1,-3.2130342E-2,1.2726397E-2,2.47713E-2,3.7555727E-3,4.7227073E-2,-2.6896207E-2,3.406631E-2,-1.5372267E-2,3.3171352E-2,4.285945E-2],"split_indices":[14,14,0,0,9,10,12,1,8,7,12,9,13,0,8,0,0,0,9,0,0,0,0,0,0,0,0,0,0],"split_type":[0,0,0,0,0,0,0,0,0,0,0,0,0,0,0,0,0,0,0,0,0,0,0,0,0,0,0,0,0],"sum_hessian":[2.0819297E3,1.2413776E3,8.405521E2,3.3361368E2,9.0776385E2,3.8016275E2,5.2760114E2,3.0244736E2,7.771538E1,1.4697403E1,5.129037E2,2.9019222E1,2.7342813E2,4.3618923E1,3.409646E1,1.2725347E1,1.972056E0,2.6196205E1,4.867075E2,2.1700434E1,7.318788E0,2.0659593E2,6.683222E1,8.733683E0,2.5362776E1,1.829312E1,7.903086E0,1.3927705E2,3.4743045E2],"tree_param":{"num_deleted":"0","num_feature":"17","num_nodes":"29","size_leaf_vector":"1"}},{"base_weights":[-2.4404818E-1,3.149244E-1,-3.2469586E-2,-3.2445256E-2,8.1768525E-1,1.8566234E-1,1.1760796E0,4.211738E-1,-6.7692846E-1,-4.5780465E-1,1.2328186E0,-6.8394697E-1,5.6121683E-1,-3.259947E-2,-1.0753204E-1,-3.103211E-2,5.3298897E-1,9.655772E-1,1.3730774E0,-3.198593E-2,1.2328002E-2,2.2812672E-2,-7.271427E-3,4.0190067E-2,-2.477966E-2,4.166886E-2,-2.5458768E-2,2.0691516E-2,3.6354586E-2,-2.4192873E-2,4.152374E-2],"categories":[],"categories_nodes":[],"categories_segments":[],"categories_sizes":[],"default_left":[0,0,0,0,0,0,0,0,0,0,0,0,0,0,0,0,0,0,0,0,0,0,0,0,0,0,0,0,0,0,0],"id":29,"left_children":[1,3,-1,-1,5,7,9,11,13,15,17,19,21,-1,23,-1,25,27,29,-1,-1,-1,-1,-1,-1,-1,-1,-1,-1,-1,-1],"loss_changes":[9.591008E2,8.6327246E2,0E0,0E0,2.0449188E2,6.696265E1,5.401117E1,4.0381363E1,1.639495E1,1.20216875E1,1.956903E1,1.2791766E1,3.6990776E1,0E0,3.3055096E1,0E0,1.0694188E1,1.2426498E1,9.861389E0,0E0,0E0,0E0,0E0,0E0,0E0,0E0,0E0,0E0,0E0,0E0,0E0],"parents":[2147483647,0,0,1,1,4,4,5,5,6,6,7,7,8,8,9,9,10,10,11,11,12,12,14,14,16,16,17,17,18,18],"right_children":[2,4,-1,-1,6,8,10,12,14,16,18,20,22,-1,24,-1,26,28,30,-1,-1,-1,-1,-1,-1,-1,-1,-1,-1,-1,-1],"split_conditions":[1.1E1,8E0,-3.2469586E-2,-3.2445256E-2,7.3E1,7.265E2,1.04E1,1.6E1,1.3E1,8.4E0,8.4E1,4.4E1,8E0,-3.259947E-2,2.25E1,-3.103211E-2,2E1,3.19E1,2.9E1,-3.198593E-2,1.2328002E-2,2.2812672E-2,-7.271427E-3,4.0190067E-2,-2.477966E-2,4.166886E-2,-2.5458768E-2,2.0691516E-2,3.6354586E-2,-2.4192873E-2,4.152374E-2],"split_indices":[14,14,0,0,9,10,12,1,12,3,9,9,13,0,8,0,0,0,1,0,0,0,0,0,0,0,0,0,0,0,0],"split_type":[0,0,0,0,0,0,0,0,0,0,0,0,0,0,0,0,0,0,0,0,0,0,0,0,0,0,0,0,0,0,0],"sum_hessian":[2.0451375E3,1.2273473E3,8.1779016E2,3.246027E2,9.027445E2,3.2721826E2,5.755263E2,2.5744128E2,6.9776955E1,1.9077978E1,5.564483E2,2.8517496E1,2.289238E2,4.0049854E1,2.9727102E1,1.2031911E1,7.046068E0,1.9423947E2,3.6220883E2,2.1157179E1,7.3603163E0,1.8349144E2,4.5432365E1,9.575115E0,2.0151987E1,4.3473616E0,2.6987066E0,9.340304E1,1.00836426E2,1.463566E0,3.6074527E2],"tree_param":{"num_deleted":"0","num_feature":"17","num_nodes":"31","size_leaf_vector":"1"}},{"base_weights":[-2.4123621E-1,3.0889937E-1,-3.238845E-2,-3.2361947E-2,7.9779094E-1,2.505147E-1,1.1956382E0,4.9132392E-1,-7.153862E-1,-6.2775004E-1,1.2481278E0,-6.756345E-1,6.121173E-1,-3.2906055E-2,-2.2284077E-1,-3.0969637E-2,4.0320046E-2,1.0011221E0,1.345894E0,-3.1844646E-2,1.1944348E-2,2.1224067E-2,-8.877718E-3,4.3900233E-2,-2.6310746E-2,-2.715831E-2,3.0990157E-2,2.907459E-2,4.285304E-2],"categories":[],"categories_nodes":[],"categories_segments":[],"categories_sizes":[],"default_left":[0,0,0,0,0,0,0,0,0,0,0,0,0,0,0,0,0,0,0,0,0,0,0,0,0,0,0,0,0],"id":30,"left_children":[1,3,-1,-1,5,7,9,11,13,15,17,19,21,-1,23,-1,-1,25,27,-1,-1,-1,-1,-1,-1,-1,-1,-1,-1],"loss_changes":[9.273758E2,8.2470294E2,0E0,0E0,1.9534985E2,8.862679E1,5.055786E1,4.331862E1,1.4062714E1,1.3526501E1,1.0868042E1,1.244886E1,2.4136574E1,0E0,3.932714E1,0E0,0E0,9.891037E0,9.794739E0,0E0,0E0,0E0,0E0,0E0,0E0,0E0,0E0,0E0,0E0],"parents":[2147483647,0,0,1,1,4,4,5,5,6,6,7,7,8,8,9,9,10,10,11,11,12,12,14,14,17,17,18,18],"right_children":[2,4,-1,-1,6,8,10,12,14,16,18,20,22,-1,24,-1,-1,26,28,-1,-1,-1,-1,-1,-1,-1,-1,-1,-1],"split_conditions":[1.1E1,8E0,-3.238845E-2,-3.2361947E-2,7.6E1,7.265E2,1.04E1,1.6E1,2.2E1,9.945219E-1,8.4E1,4.4E1,3.24E1,-3.2906055E-2,2.25E1,-3.0969637E-2,4.0320046E-2,1.56E1,-2.2E0,-3.1844646E-2,1.1944348E-2,2.1224067E-2,-8.877718E-3,4.3900233E-2,-2.6310746E-2,-2.715831E-2,3.0990157E-2,2.907459E-2,4.285304E-2],"split_indices":[14,14,0,0,9,10,12,1,8,7,9,9,8,0,8,0,0,8,5,0,0,0,0,0,0,0,0,0,0],"split_type":[0,0,0,0,0,0,0,0,0,0,0,0,0,0,0,0,0,0,0,0,0,0,0,0,0,0,0,0,0],"sum_hessian":[2.0089697E3,1.2133883E3,7.9558136E2,3.1581046E2,8.975778E2,3.7851907E2,5.190588E2,3.0337567E2,7.5143394E1,1.4217308E1,5.0484146E2,2.8026306E1,2.7534937E2,4.1654533E1,3.3488865E1,1.2192127E1,2.0251806E0,1.4634402E2,3.5849744E2,2.0625978E1,7.4003277E0,2.4938303E2,2.596634E1,9.015141E0,2.4473726E1,1.9566387E0,1.4438739E2,6.6717896E1,2.9177954E2],"tree_param":{"num_deleted":"0","num_feature":"17","num_nodes":"29","size_leaf_vector":"1"}},{"base_weights":[-2.3847322E-1,3.0309117E-1,-3.231003E-2,-3.2281317E-2,7.787588E-1,2.4344575E-1,1.1703315E0,4.759462E-1,-7.068542E-1,-6.192127E-1,1.2213684E0,-3.5679907E-1,6.3646525E-1,-3.2774873E-2,-2.17596E-1,-3.0815406E-2,3.9017156E-2,5.593099E-1,1.2566062E0,2.0633604E-2,-2.5001846E-2,2.2371052E-2,-1.9186087E-2,4.196771E-2,-2.6008736E-2,2.6249692E-2,-3.3016164E-2,3.0709071E-2,4.046585E-2],"categories":[],"categories_nodes":[],"categories_segments":[],"categories_sizes":[],"default_left":[0,0,0,0,0,0,0,0,0,0,0,0,0,0,0,0,0,0,0,0,0,0,0,0,0,0,0,0,0],"id":31,"left_children":[1,3,-1,-1,5,7,9,11,13,15,17,19,21,-1,23,-1,-1,25,27,-1,-1,-1,-1,-1,-1,-1,-1,-1,-1],"loss_changes":[8.9684106E2,7.8823193E2,0E0,0E0,1.8690955E2,8.397269E1,4.783899E1,4.0960487E1,1.3877472E1,1.3051081E1,1.0997925E1,2.5409246E1,3.6137497E1,0E0,3.7138084E1,0E0,0E0,1.5187841E1,8.836914E0,0E0,0E0,0E0,0E0,0E0,0E0,0E0,0E0,0E0,0E0],"parents":[2147483647,0,0,1,1,4,4,5,5,6,6,7,7,8,8,9,9,10,10,11,11,12,12,14,14,17,17,18,18],"right_children":[2,4,-1,-1,6,8,10,12,14,16,18,20,22,-1,24,-1,-1,26,28,-1,-1,-1,-1,-1,-1,-1,-1,-1,-1],"split_conditions":[1.1E1,8E0,-3.231003E-2,-3.2281317E-2,7.6E1,7.265E2,1.04E1,4E1,2.2E1,9.945219E-1,1.33E1,2.68E1,3.24E1,-3.2774873E-2,2.25E1,-3.0815406E-2,3.9017156E-2,2.33E1,8.4E1,2.0633604E-2,-2.5001846E-2,2.2371052E-2,-1.9186087E-2,4.196771E-2,-2.6008736E-2,2.6249692E-2,-3.3016164E-2,3.0709071E-2,4.046585E-2],"split_indices":[14,14,0,0,9,10,12,9,8,7,12,4,8,0,8,0,0,0,9,0,0,0,0,0,0,0,0,0,0],"split_type":[0,0,0,0,0,0,0,0,0,0,0,0,0,0,0,0,0,0,0,0,0,0,0,0,0,0,0,0,0],"sum_hessian":[1.9731936E3,1.1992773E3,7.739163E2,3.0723325E2,8.9204407E2,3.7753854E2,5.1450555E2,3.037277E2,7.3810875E1,1.3957883E1,5.0054764E2,4.8887085E1,2.548406E2,4.0586746E1,3.3224125E1,1.1895052E1,2.0628302E0,2.614772E1,4.7439993E2,1.5177798E1,3.370929E1,2.3512732E2,1.9713287E1,9.190648E0,2.4033478E1,2.2366732E1,3.780987E0,1.3800227E2,3.3639764E2],"tree_param":{"num_deleted":"0","num_feature":"17","num_nodes":"29","size_leaf_vector":"1"}},{"base_weights":[-2.357735E-1,2.9746702E-1,-3.2234225E-2,-3.2203257E-2,7.6051164E-1,1.684868E-1,1.1019102E0,3.8031542E-1,-6.513659E-1,-4.3113247E-1,1.1538986E0,-6.6320205E-1,5.0552243E-1,-3.2279458E-2,-8.961203E-2,-3.0631173E-2,5.290383E-1,8.9075017E-1,1.2955616E0,-2.5902055E-2,3.7160143E-2,2.0995637E-2,-8.219284E-3,3.6489423E-2,-2.3784509E-2,3.949695E-2,-2.4786357E-2,1.8670104E-2,3.393958E-2,2.7550016E-2,4.1368987E-2],"categories":[],"categories_nodes":[],"categories_segments":[],"categories_sizes":[],"default_left":[0,0,0,0,0,0,0,0,0,0,0,0,0,0,0,0,0,0,0,0,0,0,0,0,0,0,0,0,0,0,0],"id":32,"left_children":[1,3,-1,-1,5,7,9,11,13,15,17,19,21,-1,23,-1,25,27,29,-1,-1,-1,-1,-1,-1,-1,-1,-1,-1,-1,-1],"loss_changes":[8.674121E2,7.5369525E2,0E0,0E0,1.7912341E2,5.6804047E1,4.532892E1,3.423041E1,1.5940838E1,1.1402658E1,1.9137451E1,1.1816243E1,3.536555E1,0E0,2.8545458E1,0E0,9.580339E0,1.1802567E1,9.796997E0,0E0,0E0,0E0,0E0,0E0,0E0,0E0,0E0,0E0,0E0,0E0,0E0],"parents":[2147483647,0,0,1,1,4,4,5,5,6,6,7,7,8,8,9,9,10,10,11,11,12,12,14,14,16,16,17,17,18,18],"right_children":[2,4,-1,-1,6,8,10,12,14,16,18,20,22,-1,24,-1,26,28,30,-1,-1,-1,-1,-1,-1,-1,-1,-1,-1,-1,-1],"split_conditions":[1.1E1,8E0,-3.2234225E-2,-3.2203257E-2,7.3E1,7.265E2,1.04E1,1.6E1,1.3E1,8.4E0,8.4E1,1.12E1,8E0,-3.2279458E-2,2.25E1,-3.0631173E-2,2E1,3.19E1,-2.2E0,-2.5902055E-2,3.7160143E-2,2.0995637E-2,-8.219284E-3,3.6489423E-2,-2.3784509E-2,3.949695E-2,-2.4786357E-2,1.8670104E-2,3.393958E-2,2.7550016E-2,4.1368987E-2],"split_indices":[14,14,0,0,9,10,12,1,12,3,9,16,13,0,8,0,0,0,5,0,0,0,0,0,0,0,0,0,0,0,0],"split_type":[0,0,0,0,0,0,0,0,0,0,0,0,0,0,0,0,0,0,0,0,0,0,0,0,0,0,0,0,0,0,0],"sum_hessian":[1.9378099E3,1.1850243E3,7.527856E2,2.9886728E2,8.8615704E2,3.2465723E2,5.614998E2,2.5842343E2,6.623379E1,1.817775E1,5.433221E2,2.7224916E1,2.3119852E2,3.719989E1,2.9033897E1,1.1220649E1,6.9571E0,1.9268492E2,3.5063718E2,2.5126059E1,2.0988572E0,1.8514363E2,4.6054882E1,9.906606E0,1.912729E1,4.418237E0,2.5388627E0,9.2767334E1,9.991758E1,6.5663055E1,2.8497412E2],"tree_param":{"num_deleted":"0","num_feature":"17","num_nodes":"31","size_leaf_vector":"1"}},{"base_weights":[-2.3304385E-1,2.9196212E-1,-3.2160927E-2,-3.212767E-2,7.4269503E-1,2.2912407E-1,1.123429E0,4.467668E-1,-6.917308E-1,1.3046688E-2,1.2017624E0,-3.5289827E-1,5.9853935E-1,-3.258667E-2,-2.0480932E-1,5.474334E-1,-3.1502157E-2,9.615333E-1,1.2977402E0,1.9328933E-2,-2.4699256E-2,2.11164E-2,-1.9154543E-2,3.923541E-2,-2.5438052E-2,2.3109559E-2,-3.2962784E-2,-3.1579588E-2,2.9927252E-2,-2.1190833E-2,3.9206125E-2],"categories":[],"categories_nodes":[],"categories_segments":[],"categories_sizes":[],"default_left":[0,0,0,0,0,0,0,0,0,0,0,0,0,0,0,0,0,0,0,0,0,0,0,0,0,0,0,0,0,0,0],"id":33,"left_children":[1,3,-1,-1,5,7,9,11,13,15,17,19,21,-1,23,25,-1,27,29,-1,-1,-1,-1,-1,-1,-1,-1,-1,-1,-1,-1],"loss_changes":[8.390985E2,7.2081476E2,0E0,0E0,1.7208511E2,7.576493E1,4.398761E1,3.7243786E1,1.3677956E1,2.008885E1,9.647644E0,2.3658016E1,3.391606E1,0E0,3.3816204E1,9.4746475E0,0E0,1.1123398E1,7.0493164E0,0E0,0E0,0E0,0E0,0E0,0E0,0E0,0E0,0E0,0E0,0E0,0E0],"parents":[2147483647,0,0,1,1,4,4,5,5,6,6,7,7,8,8,9,9,10,10,11,11,12,12,14,14,15,15,17,17,18,18],"right_children":[2,4,-1,-1,6,8,10,12,14,16,18,20,22,-1,24,26,-1,28,30,-1,-1,-1,-1,-1,-1,-1,-1,-1,-1,-1,-1],"split_conditions":[1.1E1,8E0,-3.2160927E-2,-3.212767E-2,7.6E1,7.265E2,1.28E1,4E1,2.2E1,8.3E0,8.4E1,2.68E1,3.24E1,-3.258667E-2,2.25E1,3.7460658E-1,-3.1502157E-2,3E0,3E1,1.9328933E-2,-2.4699256E-2,2.11164E-2,-1.9154543E-2,3.923541E-2,-2.5438052E-2,2.3109559E-2,-3.2962784E-2,-3.1579588E-2,2.9927252E-2,-2.1190833E-2,3.9206125E-2],"split_indices":[14,14,0,0,9,10,12,9,8,16,9,4,8,0,8,6,0,13,1,0,0,0,0,0,0,0,0,0,0,0,0],"split_type":[0,0,0,0,0,0,0,0,0,0,0,0,0,0,0,0,0,0,0,0,0,0,0,0,0,0,0,0,0,0,0],"sum_hessian":[1.9032828E3,1.1711033E3,7.3217957E2,2.9070883E2,8.803944E2,3.7549374E2,5.049007E2,3.0412827E2,7.136545E1,3.3348602E1,4.715521E2,4.8302906E1,2.5582538E2,3.874468E1,3.262077E1,2.251586E1,1.0832743E1,1.3776048E2,3.337916E2,1.5363995E1,3.293891E1,2.3614691E2,1.9678455E1,9.423279E0,2.319749E1,2.0299484E1,2.2163754E0,1.9258955E0,1.358346E2,1.1675254E0,3.3262408E2],"tree_param":{"num_deleted":"0","num_feature":"17","num_nodes":"31","size_leaf_vector":"1"}},{"base_weights":[-2.3048063E-1,2.865482E-1,-3.2090034E-2,-3.2054447E-2,7.2559243E-1,2.2274248E-1,1.1011132E0,4.3308598E-1,-6.8353575E-1,1.1367188E-2,1.1783006E0,-6.491648E-1,5.3818965E-1,-3.2463565E-2,-2.0007578E-1,5.2959996E-1,-3.1335205E-2,9.371662E-1,1.2755008E0,-3.1408496E-2,1.09055955E-2,2.08627E-2,1.4202882E-3,3.7626423E-2,-2.514281E-2,2.2374796E-2,-3.256661E-2,-3.1148307E-2,2.9173955E-2,-2.09787E-2,3.8536362E-2],"categories":[],"categories_nodes":[],"categories_segments":[],"categories_sizes":[],"default_left":[0,0,0,0,0,0,0,0,0,0,0,0,0,0,0,0,0,0,0,0,0,0,0,0,0,0,0,0,0,0,0],"id":34,"left_children":[1,3,-1,-1,5,7,9,11,13,15,17,19,21,-1,23,25,-1,27,29,-1,-1,-1,-1,-1,-1,-1,-1,-1,-1,-1,-1],"loss_changes":[8.1164575E2,6.896049E2,0E0,0E0,1.6500082E2,7.185408E1,4.210498E1,3.5074265E1,1.3484291E1,1.9228985E1,9.764221E0,1.144885E1,2.1484314E1,0E0,3.200067E1,9.036835E0,0E0,1.0639908E1,6.8012695E0,0E0,0E0,0E0,0E0,0E0,0E0,0E0,0E0,0E0,0E0,0E0,0E0],"parents":[2147483647,0,0,1,1,4,4,5,5,6,6,7,7,8,8,9,9,10,10,11,11,12,12,14,14,15,15,17,17,18,18],"right_children":[2,4,-1,-1,6,8,10,12,14,16,18,20,22,-1,24,26,-1,28,30,-1,-1,-1,-1,-1,-1,-1,-1,-1,-1,-1,-1],"split_conditions":[1.1E1,8E0,-3.2090034E-2,-3.2054447E-2,7.6E1,7.265E2,1.28E1,1.6E1,2.2E1,8.3E0,8.4E1,4.4E1,8E0,-3.2463565E-2,2.25E1,3.7460658E-1,-3.1335205E-2,3E0,3E1,-3.1408496E-2,1.09055955E-2,2.08627E-2,1.4202882E-3,3.7626423E-2,-2.514281E-2,2.2374796E-2,-3.256661E-2,-3.1148307E-2,2.9173955E-2,-2.09787E-2,3.8536362E-2],"split_indices":[14,14,0,0,9,10,12,1,8,16,9,9,13,0,8,6,0,13,1,0,0,0,0,0,0,0,0,0,0,0,0],"split_type":[0,0,0,0,0,0,0,0,0,0,0,0,0,0,0,0,0,0,0,0,0,0,0,0,0,0,0,0,0,0,0],"sum_hessian":[1.8689451E3,1.1568566E3,7.120885E2,2.827541E2,8.741025E2,3.743771E2,4.9972537E2,3.0427765E2,7.009948E1,3.313049E1,4.6659488E2,2.6476206E1,2.7780142E2,3.774377E1,3.2355705E1,2.255749E1,1.0573E1,1.3710529E2,3.294896E2,1.898501E1,7.4911966E0,2.1008713E2,6.771431E1,9.571881E0,2.2783825E1,2.0368866E1,2.1886232E0,1.9080999E0,1.3519719E2,1.1542639E0,3.2833533E2],"tree_param":{"num_deleted":"0","num_feature":"17","num_nodes":"31","size_leaf_vector":"1"}},{"base_weights":[-2.27932E-1,2.8123108E-1,-3.202146E-2,-3.19835E-2,7.0892256E-1,2.1561679E-1,1.0791502E0,-6.0892034E-1,3.955848E-1,7.97128E-1,1.2427733E0,1.7323323E-1,-8.7437785E-1,-1.4496711E-2,6.739261E-1,8.3040255E-1,-3.2700844E-2,7.6408166E-1,1.3173898E0,-3.13399E-2,2.255667E-2,-2.9705808E-2,2.7551081E-2,5.1879548E-3,-3.6805443E-2,-1.9512989E-2,2.3811769E-2,-5.693402E-3,2.670338E-2,-3.854412E-2,2.8141642E-2,3.0717386E-2,4.0398046E-2],"categories":[],"categories_nodes":[],"categories_segments":[],"categories_sizes":[],"default_left":[0,0,0,0,0,0,0,0,0,0,0,0,0,0,0,0,0,0,0,0,0,0,0,0,0,0,0,0,0,0,0,0,0],"id":35,"left_children":[1,3,-1,-1,5,7,9,11,13,15,17,19,21,23,25,27,-1,29,31,-1,-1,-1,-1,-1,-1,-1,-1,-1,-1,-1,-1,-1,-1],"loss_changes":[7.8517395E2,6.598787E2,0E0,0E0,1.5844412E2,5.5700653E1,2.1900818E1,1.4136055E1,3.5095924E1,1.2517517E1,1.0142792E1,1.3401531E1,1.138467E1,2.8675247E1,2.9570793E1,1.12732315E1,0E0,1.7058575E1,9.244995E-1,0E0,0E0,0E0,0E0,0E0,0E0,0E0,0E0,0E0,0E0,0E0,0E0,0E0,0E0],"parents":[2147483647,0,0,1,1,4,4,5,5,6,6,7,7,8,8,9,9,10,10,11,11,12,12,13,13,14,14,15,15,17,17,18,18],"right_children":[2,4,-1,-1,6,8,10,12,14,16,18,20,22,24,26,28,-1,30,32,-1,-1,-1,-1,-1,-1,-1,-1,-1,-1,-1,-1,-1,-1],"split_conditions":[1.1E1,8E0,-3.202146E-2,-3.19835E-2,4.8E1,1.24E1,8.4E1,6.9E0,5.5E1,9.709E2,-2.3E0,6.3E0,3.31E1,7E0,4.7E0,6.7E1,-3.2700844E-2,1.28E1,-9.702957E-1,-3.13399E-2,2.255667E-2,-2.9705808E-2,2.7551081E-2,5.1879548E-3,-3.6805443E-2,-1.9512989E-2,2.3811769E-2,-5.693402E-3,2.670338E-2,-3.854412E-2,2.8141642E-2,3.0717386E-2,4.0398046E-2],"split_indices":[14,14,0,0,1,12,9,16,9,2,5,16,0,13,16,9,0,12,6,0,0,0,0,0,0,0,0,0,0,0,0,0,0],"split_type":[0,0,0,0,0,0,0,0,0,0,0,0,0,0,0,0,0,0,0,0,0,0,0,0,0,0,0,0,0,0,0,0,0],"sum_hessian":[1.8353188E3,1.142816E3,6.925028E2,2.7499915E2,8.678169E2,3.7274258E2,4.950743E2,6.635386E1,3.0638873E2,1.8392732E2,3.1114697E2,1.690165E1,4.9452206E1,1.2426154E2,1.8212718E2,1.8129076E2,2.6365607E0,4.3475582E1,2.676714E2,5.1845016E0,1.1717148E1,4.687184E1,2.5803654E0,1.0836566E2,1.58958845E1,1.4740852E1,1.6738634E2,9.903611E0,1.7138715E2,2.9029057E0,4.0572678E1,2.749489E1,2.4017651E2],"tree_param":{"num_deleted":"0","num_feature":"17","num_nodes":"33","size_leaf_vector":"1"}},{"base_weights":[-2.2530882E-1,2.7595142E-1,-3.1955115E-2,-3.1914733E-2,6.92381E-1,2.0831294E-1,1.0603825E0,4.0781513E-1,-6.734119E-1,1.5263599E-2,1.1346709E0,-3.5047904E-1,5.495318E-1,-3.2312427E-2,-1.9919667E-1,5.1094925E-1,-3.1065311E-2,8.922472E-1,1.234205E0,1.8074796E-2,-2.4428625E-2,1.9526476E-2,-1.9278962E-2,3.578646E-2,-2.4909494E-2,2.1570085E-2,-3.1892095E-2,-3.1049073E-2,2.7813805E-2,-2.1006975E-2,3.7300967E-2],"categories":[],"categories_nodes":[],"categories_segments":[],"categories_sizes":[],"default_left":[0,0,0,0,0,0,0,0,0,0,0,0,0,0,0,0,0,0,0,0,0,0,0,0,0,0,0,0,0,0,0],"id":36,"left_children":[1,3,-1,-1,5,7,9,11,13,15,17,19,21,-1,23,25,-1,27,29,-1,-1,-1,-1,-1,-1,-1,-1,-1,-1,-1,-1],"loss_changes":[7.596912E2,6.314275E2,0E0,0E0,1.5350983E2,6.605669E1,3.802838E1,3.303144E1,1.3066299E1,1.7995253E1,9.937744E0,2.2028215E1,3.157402E1,0E0,3.009618E1,8.44533E0,0E0,1.0153473E1,6.5716553E0,0E0,0E0,0E0,0E0,0E0,0E0,0E0,0E0,0E0,0E0,0E0,0E0],"parents":[2147483647,0,0,1,1,4,4,5,5,6,6,7,7,8,8,9,9,10,10,11,11,12,12,14,14,15,15,17,17,18,18],"right_children":[2,4,-1,-1,6,8,10,12,14,16,18,20,22,-1,24,26,-1,28,30,-1,-1,-1,-1,-1,-1,-1,-1,-1,-1,-1,-1],"split_conditions":[1.1E1,8E0,-3.1955115E-2,-3.1914733E-2,7.6E1,7.265E2,1.28E1,4E1,2.2E1,8.3E0,8.4E1,2.68E1,3.24E1,-3.2312427E-2,2.25E1,3.7460658E-1,-3.1065311E-2,3E0,3E1,1.8074796E-2,-2.4428625E-2,1.9526476E-2,-1.9278962E-2,3.578646E-2,-2.4909494E-2,2.1570085E-2,-3.1892095E-2,-3.1049073E-2,2.7813805E-2,-2.1006975E-2,3.7300967E-2],"split_indices":[14,14,0,0,9,10,12,9,8,16,9,4,8,0,8,6,0,13,1,0,0,0,0,0,0,0,0,0,0,0,0],"split_type":[0,0,0,0,0,0,0,0,0,0,0,0,0,0,0,0,0,0,0,0,0,0,0,0,0,0,0,0,0,0,0],"sum_hessian":[1.8028402E3,1.1294277E3,6.734125E2,2.6744012E2,8.619876E2,3.7296136E2,4.8902625E2,3.0458286E2,6.837851E1,3.253372E1,4.5649252E2,4.772801E1,2.5685486E2,3.624995E1,3.212856E1,2.245478E1,1.00789385E1,1.3577232E2,3.207202E2,1.5526728E1,3.220128E1,2.3714798E2,1.9706884E1,9.744574E0,2.2383986E1,2.0313015E1,2.1417654E0,1.9038835E0,1.3386844E2,1.156038E0,3.1956418E2],"tree_param":{"num_deleted":"0","num_feature":"17","num_nodes":"31","size_leaf_vector":"1"}},{"base_weights":[-2.2285227E-1,2.709031E-1,-3.189091E-2,-3.1848058E-2,6.76845E-1,2.0254779E-1,