{"learner":{"attributes":{"scikit_learn":"{\"_estimator_type\": \"classifier\"}"},"feature_names":["api_temp","api_humidity","api_pressure","api_wind_speed","api_dew_spread","pressure_trend","wind_sin","wind_cos","sensor_temp","sensor_humidity","sensor_pressure","sensor_wind_speed","sensor_dew_spread","month","hour","pressure_diff","temp_diff"],"feature_types":["float","int","float","float","float","float","float","float","float","float","float","float","float","int","int","float","float"],"gradient_booster":{"model":{"gbtree_model_param":{"num_parallel_tree":"1","num_trees":"300"},"iteration_indptr":[0,1,2,3,4,5,6,7,8,9,10,11,12,13,14,15,16,17,18,19,20,21,22,23,24,25,26,27,28,29,30,31,32,33,34,35,36,37,38,39,40,41,42,43,44,45,46,47,48,49,50,51,52,53,54,55,56,57,58,59,60,61,62,63,64,65,66,67,68,69,70,71,72,73,74,75,76,77,78,79,80,81,82,83,84,85,86,87,88,89,90,91,92,93,94,95,96,97,98,99,100,101,102,103,104,105,106,107,108,109,110,111,112,113,114,115,116,117,118,119,120,121,122,123,124,125,126,127,128,129,130,131,132,133,134,135,136,137,138,139,140,141,142,143,144,145,146,147,148,149,150,151,152,153,154,155,156,157,158,159,160,161,162,163,164,165,166,167,168,169,170,171,172,173,174,175,176,177,178,179,180,181,182,183,184,185,186,187,188,189,190,191,192,193,194,195,196,197,198,199,200,201,202,203,204,205,206,207,208,209,210,211,212,213,214,215,216,217,218,219,220,221,222,223,224,225,226,227,228,229,230,231,232,233,234,235,236,237,238,239,240,241,242,243,244,245,246,247,248,249,250,251,252,253,254,255,256,257,258,259,260,261,262,263,264,265,266,267,268,269,270,271,272,273,274,275,276,277,278,279,280,281,282,283,284,285,286,287,288,289,290,291,292,293,294,295,296,297,298,299,300],"tree_info":[0,0,0,0,0,0,0,0,0,0,0,0,0,0,0,0,0,0,0,0,0,0,0,0,0,0,0,0,0,0,0,0,0,0,0,0,0,0,0,0,0,0,0,0,0,0,0,0,0,0,0,0,0,0,0,0,0,0,0,0,0,0,0,0,0,0,0,0,0,0,0,0,0,0,0,0,0,0,0,0,0,0,0,0,0,0,0,0,0,0,0,0,0,0,0,0,0,0,0,0,0,0,0,0,0,0,0,0,0,0,0,0,0,0,0,0,0,0,0,0,0,0,0,0,0,0,0,0,0,0,0,0,0,0,0,0,0,0,0,0,0,0,0,0,0,0,0,0,0,0,0,0,0,0,0,0,0,0,0,0,0,0,0,0,0,0,0,0,0,0,0,0,0,0,0,0,0,0,0,0,0,0,0,0,0,0,0,0,0,0,0,0,0,0,0,0,0,0,0,0,0,0,0,0,0,0,0,0,0,0,0,0,0,0,0,0,0,0,0,0,0,0,0,0,0,0,0,0,0,0,0,0,0,0,0,0,0,0,0,0,0,0,0,0,0,0,0,0,0,0,0,0,0,0,0,0,0,0,0,0,0,0,0,0,0,0,0,0,0,0,0,0,0,0,0,0,0,0,0,0,0,0,0,0,0,0,0,0,0,0,0,0,0,0,0,0,0,0,0,0],"trees":[{"base_weights":[-6.365731E-2,2.1532898E0,-4.2408954E-2,9.6117085E-1,3.0213156E0,-2.1569699E-1,1.5147947E0,1.8128325E0,3.0951722E0,4.272515E-1,-1.3240105E0,1.8178177E0,3.0625024E-1,-2.351928E-2,1.9453204E0,1.5204457E0,3.147241E0,-1.1178781E0,1.4425352E0,-4.144336E-2,8.209151E-3,1.2278692E0,2.2499447E0,-7.1633756E-1,9.460105E-1,2.2678921E0,4.0096727E-1,-6.258719E-1,2.2336771E0,5.677313E-1,3.1590462E0,-3.817451E-2,1.0413778E-2,-9.6530905E-3,4.9902663E-2,4.5231115E-2,-1.5153317E-2,7.40078E-2,2.8432403E-2,3.7489034E-2,-3.15171E-2,-3.0948374E-2,3.484393E-2,1.8939713E-2,7.510779E-2,-2.9496359E-2,4.1811477E-2,1.3079499E-2,-3.1558692E-2,4.124394E-3,7.522288E-2,-2.351928E-2,5.2814785E-2,9.888231E-2,8.775734E-2],"categories":[],"categories_nodes":[],"categories_segments":[],"categories_sizes":[],"default_left":[0,0,0,0,0,0,0,0,0,0,0,0,0,0,0,0,0,0,0,0,0,0,0,0,0,0,0,0,0,0,0,0,0,0,0,0,0,0,0,0,0,0,0,0,0,0,0,0,0,0,0,0,0,0,0],"id":0,"left_children":[1,3,-1,5,7,9,11,13,15,17,19,21,23,-1,25,27,29,31,33,-1,-1,35,37,39,41,43,45,47,49,51,53,-1,-1,-1,-1,-1,-1,-1,-1,-1,-1,-1,-1,-1,-1,-1,-1,-1,-1,-1,-1,-1,-1,-1,-1],"loss_changes":[6.9138413E3,9.0184546E2,0E0,2.413057E2,3.9504883E1,8.5507515E1,9.160443E1,1.2371628E1,3.4157715E1,1.2114269E2,4.4161224E0,4.8480164E1,3.446911E1,0E0,1.4176743E1,2.7630566E1,1.2177246E1,7.412632E0,1.8624794E1,0E0,0E0,4.3041794E1,3.0104858E1,1.4748781E1,1.4920124E1,7.9997177E0,1.022969E1,2.745844E0,7.1616516E0,6.715523E0,4.9833984E0,0E0,0E0,0E0,0E0,0E0,0E0,0E0,0E0,0E0,0E0,0E0,0E0,0E0,0E0,0E0,0E0,0E0,0E0,0E0,0E0,0E0,0E0,0E0,0E0],"parents":[2147483647,0,0,1,1,3,3,4,4,5,5,6,6,7,7,8,8,9,9,10,10,11,11,12,12,14,14,15,15,16,16,17,17,18,18,21,21,22,22,23,23,24,24,25,25,26,26,27,27,28,28,29,29,30,30],"right_children":[2,4,-1,6,8,10,12,14,16,18,20,22,24,-1,26,28,30,32,34,-1,-1,36,38,40,42,44,46,48,50,52,54,-1,-1,-1,-1,-1,-1,-1,-1,-1,-1,-1,-1,-1,-1,-1,-1,-1,-1,-1,-1,-1,-1,-1,-1],"split_conditions":[1.1E1,1.2E1,-4.2408954E-2,7.5E1,7.1E1,6E0,1.1E1,8.339E2,1.54E1,3E0,6.1E0,3E0,8.8E1,-2.351928E-2,8.401E2,6.16E2,6.09E2,8.9E1,2.7E0,-4.144336E-2,8.209151E-3,3.1E0,8.412E2,6.6E0,8.377E2,8.1E1,8.413E2,1.34E1,8.7E1,1.92E1,2.209E2,-3.817451E-2,1.0413778E-2,-9.6530905E-3,4.9902663E-2,4.5231115E-2,-1.5153317E-2,7.40078E-2,2.8432403E-2,3.7489034E-2,-3.15171E-2,-3.0948374E-2,3.484393E-2,1.8939713E-2,7.510779E-2,-2.9496359E-2,4.1811477E-2,1.3079499E-2,-3.1558692E-2,4.124394E-3,7.522288E-2,-2.351928E-2,5.2814785E-2,9.888231E-2,8.775734E-2],"split_indices":[14,12,0,1,1,13,13,2,0,13,5,13,1,0,2,10,10,9,5,0,0,4,2,8,2,9,2,0,1,8,15,0,0,0,0,0,0,0,0,0,0,0,0,0,0,0,0,0,0,0,0,0,0,0,0],"split_type":[0,0,0,0,0,0,0,0,0,0,0,0,0,0,0,0,0,0,0,0,0,0,0,0,0,0,0,0,0,0,0,0,0,0,0,0,0,0,0,0,0,0,0,0,0,0,0,0,0,0,0,0,0,0,0],"sum_hessian":[2.308124E3,8.7333154E2,1.4347925E3,3.6885925E2,5.0447226E2,1.1820178E2,2.5065746E2,3.052648E1,4.739458E2,7.519475E1,4.300704E1,2.0000525E2,5.065221E1,1.2431414E0,2.9283339E1,1.6136267E1,4.578095E2,2.977699E1,4.5417755E1,4.164524E1,1.3618004E0,8.618509E1,1.1382016E2,1.9447607E1,3.1204603E1,2.3836138E1,5.4472017E0,4.0552735E0,1.2080993E1,2.3092203E0,4.555003E2,2.705339E1,2.7236009E0,5.0026937E0,4.041506E1,7.431499E1,1.1870099E1,9.679673E1,1.7023432E1,2.4278793E0,1.7019728E1,2.693473E0,2.851113E1,3.4638305E0,2.0372307E1,2.2790928E0,3.168109E0,1.1546102E0,2.9006634E0,1.5689907E0,1.0512002E1,1.2431414E0,1.0660789E0,2.789247E2,1.7657559E2],"tree_param":{"num_deleted":"0","num_feature":"17","num_nodes":"55","size_leaf_vector":"1"}},{"base_weights":[-6.2333196E-2,2.0356617E0,-4.189231E-2,9.215629E-1,2.8275874E0,-2.1036242E-1,1.4430587E0,1.7242184E0,2.8939483E0,4.1215384E-1,-1.3067038E0,1.7697366E0,4.4031233E-1,-2.325645E-2,1.8486556E0,1.4530321E0,2.9406102E0,-1.100542E0,1.3759134E0,-4.093329E-2,8.051177E-3,1.1735555E0,2.2531729E0,7.245569E-1,-8.632833E-1,2.1469061E0,3.8903537E-1,-6.147694E-1,2.1195974E0,5.5751526E-1,2.9511025E0,-3.76588E-2,1.0152871E-2,-9.4437525E-3,4.748453E-2,5.9682764E-2,1.7674789E-2,7.430839E-2,3.6698867E-2,2.2021171E-3,3.3971466E-2,-3.7706956E-2,1.2770777E-2,1.8385902E-2,7.087658E-2,-2.9134354E-2,4.032631E-2,-3.1245524E-2,1.3134172E-2,4.0445514E-3,7.1155645E-2,-2.325645E-2,5.1417936E-2,9.242062E-2,8.247214E-2],"categories":[],"categories_nodes":[],"categories_segments":[],"categories_sizes":[],"default_left":[0,0,0,0,0,0,0,0,0,0,0,0,0,0,0,0,0,0,0,0,0,0,0,0,0,0,0,0,0,0,0,0,0,0,0,0,0,0,0,0,0,0,0,0,0,0,0,0,0,0,0,0,0,0,0],"id":1,"left_children":[1,3,-1,5,7,9,11,13,15,17,19,21,23,-1,25,27,29,31,33,-1,-1,35,37,39,41,43,45,47,49,51,53,-1,-1,-1,-1,-1,-1,-1,-1,-1,-1,-1,-1,-1,-1,-1,-1,-1,-1,-1,-1,-1,-1,-1,-1],"loss_changes":[6.457443E3,7.886443E2,0E0,2.2113239E2,3.3356934E1,8.166298E1,8.315674E1,1.1443573E1,2.8843262E1,1.1315284E2,4.3030396E0,5.2963745E1,2.44495E1,0E0,1.2640373E1,2.5322407E1,1.0259277E1,7.184738E0,1.701632E1,0E0,0E0,4.1015396E1,2.1273499E1,1.4078835E1,6.6061497E0,6.981636E0,9.715557E0,2.7123604E0,6.390877E0,6.4453588E0,3.9350586E0,0E0,0E0,0E0,0E0,0E0,0E0,0E0,0E0,0E0,0E0,0E0,0E0,0E0,0E0,0E0,0E0,0E0,0E0,0E0,0E0,0E0,0E0,0E0,0E0],"parents":[2147483647,0,0,1,1,3,3,4,4,5,5,6,6,7,7,8,8,9,9,10,10,11,11,12,12,14,14,15,15,16,16,17,17,18,18,21,21,22,22,23,23,24,24,25,25,26,26,27,27,28,28,29,29,30,30],"right_children":[2,4,-1,6,8,10,12,14,16,18,20,22,24,-1,26,28,30,32,34,-1,-1,36,38,40,42,44,46,48,50,52,54,-1,-1,-1,-1,-1,-1,-1,-1,-1,-1,-1,-1,-1,-1,-1,-1,-1,-1,-1,-1,-1,-1,-1,-1],"split_conditions":[1.1E1,1.2E1,-4.189231E-2,7.5E1,7.1E1,6E0,6E0,8.339E2,1.54E1,3E0,6.1E0,3E0,3.1E0,-2.325645E-2,8.401E2,6.16E2,6.09E2,8.9E1,2.7E0,-4.093329E-2,8.051177E-3,2.192E2,2.231E2,8.6E1,1.36E1,8.1E1,8.413E2,2.9E0,8.7E1,1.92E1,2.208E2,-3.76588E-2,1.0152871E-2,-9.4437525E-3,4.748453E-2,5.9682764E-2,1.7674789E-2,7.430839E-2,3.6698867E-2,2.2021171E-3,3.3971466E-2,-3.7706956E-2,1.2770777E-2,1.8385902E-2,7.087658E-2,-2.9134354E-2,4.032631E-2,-3.1245524E-2,1.3134172E-2,4.0445514E-3,7.1155645E-2,-2.325645E-2,5.1417936E-2,9.242062E-2,8.247214E-2],"split_indices":[14,12,0,1,1,13,13,2,0,13,5,13,4,0,2,10,10,9,5,0,0,15,15,9,8,9,2,3,1,8,15,0,0,0,0,0,0,0,0,0,0,0,0,0,0,0,0,0,0,0,0,0,0,0,0],"split_type":[0,0,0,0,0,0,0,0,0,0,0,0,0,0,0,0,0,0,0,0,0,0,0,0,0,0,0,0,0,0,0,0,0,0,0,0,0,0,0,0,0,0,0,0,0,0,0,0,0,0,0,0,0,0,0],"sum_hessian":[2.305131E3,8.958207E2,1.4093104E3,3.7309955E2,5.227211E2,1.178653E2,2.5523424E2,3.1185682E1,4.9153546E2,7.557624E1,4.2289062E1,1.9193889E2,6.329535E1,1.2309607E0,2.9954721E1,1.6426472E1,4.75109E2,2.9356693E1,4.6219543E1,4.092265E1,1.3664154E0,8.748211E1,1.0445678E2,5.2329308E1,1.0966043E1,2.4481455E1,5.473266E0,4.0232763E0,1.2403195E1,2.3199615E0,4.7278903E2,2.6621393E1,2.735302E0,4.982654E0,4.123689E1,3.5506935E1,5.197517E1,8.465721E1,1.9799562E1,2.0607075E1,3.172223E1,8.419777E0,2.5462658E0,3.490825E0,2.099063E1,2.2510393E0,3.2222266E0,2.8701355E0,1.1531408E0,1.5716654E0,1.083153E1,1.2309607E0,1.0890008E0,2.7935754E2,1.934315E2],"tree_param":{"num_deleted":"0","num_feature":"17","num_nodes":"55","size_leaf_vector":"1"}},{"base_weights":[-6.103434E-2,1.9319088E0,-4.1402988E-2,8.8510966E-1,2.6612709E0,-2.0529673E-1,1.3777808E0,1.6441101E0,2.7216759E0,3.9795348E-1,-1.2901993E0,1.6440969E0,2.8152928E-1,-2.2999158E-2,1.7615117E0,1.3915689E0,2.7640228E0,-1.0838162E0,1.3145467E0,-4.044859E-2,7.896449E-3,1.1238282E0,2.0172777E0,-6.9829667E-1,8.7557375E-1,2.0388887E0,3.7755072E-1,-6.039168E-1,2.0173438E0,5.475233E-1,2.7734644E0,-3.716362E-2,9.899318E-3,-9.238703E-3,4.52701E-2,4.1432023E-2,-1.53569495E-2,6.618914E-2,2.5670579E-2,3.5938766E-2,-3.0912165E-2,-3.0835092E-2,3.236273E-2,6.499565E-2,2.2924715E-3,-2.8782137E-2,3.8927503E-2,1.3335703E-2,-3.098083E-2,3.966298E-3,6.75401E-2,-2.2999158E-2,5.008959E-2,7.232883E-2,8.50228E-2],"categories":[],"categories_nodes":[],"categories_segments":[],"categories_sizes":[],"default_left":[0,0,0,0,0,0,0,0,0,0,0,0,0,0,0,0,0,0,0,0,0,0,0,0,0,0,0,0,0,0,0,0,0,0,0,0,0,0,0,0,0,0,0,0,0,0,0,0,0,0,0,0,0,0,0],"id":2,"left_children":[1,3,-1,5,7,9,11,13,15,17,19,21,23,-1,25,27,29,31,33,-1,-1,35,37,39,41,43,45,47,49,51,53,-1,-1,-1,-1,-1,-1,-1,-1,-1,-1,-1,-1,-1,-1,-1,-1,-1,-1,-1,-1,-1,-1,-1,-1],"loss_changes":[6.049046E3,6.9734595E2,0E0,2.0325592E2,2.8680176E1,7.80379E1,7.555286E1,1.0626656E1,2.475879E1,1.05854744E2,4.195633E0,3.8364746E1,3.0934944E1,0E0,1.1344032E1,2.3300072E1,8.76001E0,6.967087E0,1.559523E1,0E0,0E0,3.8437416E1,2.4593933E1,1.3968118E1,1.3823723E1,6.3619537E0,9.235147E0,2.7028332E0,5.742119E0,6.1895933E0,3.9108887E0,0E0,0E0,0E0,0E0,0E0,0E0,0E0,0E0,0E0,0E0,0E0,0E0,0E0,0E0,0E0,0E0,0E0,0E0,0E0,0E0,0E0,0E0,0E0,0E0],"parents":[2147483647,0,0,1,1,3,3,4,4,5,5,6,6,7,7,8,8,9,9,10,10,11,11,12,12,14,14,15,15,16,16,17,17,18,18,21,21,22,22,23,23,24,24,25,25,26,26,27,27,28,28,29,29,30,30],"right_children":[2,4,-1,6,8,10,12,14,16,18,20,22,24,-1,26,28,30,32,34,-1,-1,36,38,40,42,44,46,48,50,52,54,-1,-1,-1,-1,-1,-1,-1,-1,-1,-1,-1,-1,-1,-1,-1,-1,-1,-1,-1,-1,-1,-1,-1,-1],"split_conditions":[1.1E1,1.2E1,-4.1402988E-2,7.5E1,7.1E1,6E0,1.1E1,8.339E2,1.54E1,3E0,6.1E0,3E0,8.8E1,-2.2999158E-2,8.401E2,6.16E2,6.09E2,8.9E1,2.7E0,-4.044859E-2,7.896449E-3,3.1E0,8.412E2,6.6E0,8.377E2,2.242E2,8.413E2,2.224E2,8.7E1,1.92E1,6E0,-3.716362E-2,9.899318E-3,-9.238703E-3,4.52701E-2,4.1432023E-2,-1.53569495E-2,6.618914E-2,2.5670579E-2,3.5938766E-2,-3.0912165E-2,-3.0835092E-2,3.236273E-2,6.499565E-2,2.2924715E-3,-2.8782137E-2,3.8927503E-2,1.3335703E-2,-3.098083E-2,3.966298E-3,6.75401E-2,-2.2999158E-2,5.008959E-2,7.232883E-2,8.50228E-2],"split_indices":[14,12,0,1,1,13,13,2,0,13,5,13,1,0,2,10,10,9,5,0,0,4,2,8,2,15,2,15,1,8,13,0,0,0,0,0,0,0,0,0,0,0,0,0,0,0,0,0,0,0,0,0,0,0,0],"split_type":[0,0,0,0,0,0,0,0,0,0,0,0,0,0,0,0,0,0,0,0,0,0,0,0,0,0,0,0,0,0,0,0,0,0,0,0,0,0,0,0,0,0,0,0,0,0,0,0,0,0,0,0,0,0,0],"sum_hessian":[2.2990337E3,9.154453E2,1.3835884E3,3.76827E2,5.3861835E2,1.1745423E2,2.5937277E2,3.1775103E1,5.0684323E2,7.588966E1,4.1564568E1,2.0827586E2,5.1096905E1,1.2187612E0,3.0556341E1,1.668345E1,4.901598E2,2.8933372E1,4.695629E1,4.019365E1,1.3709192E0,8.866933E1,1.1960654E2,1.9219868E1,3.1877035E1,2.5060436E1,5.495905E0,3.9911876E0,1.2692264E1,2.329291E0,4.8783047E2,2.6186733E1,2.7466383E0,4.962942E0,4.199335E1,7.675439E1,1.1914943E1,1.0209338E2,1.7513155E1,2.4759142E0,1.6743954E1,2.6831205E0,2.9193916E1,2.343249E1,1.6279484E0,2.222892E0,3.2730129E0,1.1478237E0,2.843364E0,1.5742817E0,1.1117982E1,1.2187612E0,1.1105298E0,7.574022E1,4.1209027E2],"tree_param":{"num_deleted":"0","num_feature":"17","num_nodes":"55","size_leaf_vector":"1"}},{"base_weights":[-5.9831925E-2,1.8393911E0,-4.0939067E-2,8.510541E-1,2.516695E0,-2.004766E-1,1.3175269E0,1.5701718E0,2.5723753E0,3.845617E-1,-1.2744391E0,1.6066967E0,4.0657482E-1,-2.2747193E-2,1.6812944E0,1.3352675E0,2.611219E0,-1.0676564E0,1.257796E0,-3.9987475E-2,7.744896E-3,1.0767717E0,2.0280523E0,6.710714E-1,-8.43642E-1,1.9402313E0,3.6648643E-1,-5.9326935E-1,1.9251193E0,5.377583E-1,2.6198044E0,-3.668748E-2,9.65287E-3,-9.037851E-3,4.3233145E-2,5.477281E-2,1.5945354E-2,2.2821601E-2,6.530612E-2,-2.7170344E-3,2.9304365E-2,-3.702865E-2,1.1990706E-2,1.6376032E-2,6.401882E-2,-2.8439207E-2,3.7607595E-2,1.3082382E-2,-3.06038E-2,3.889607E-3,6.430348E-2,-2.2747193E-2,4.8825737E-2,8.1912026E-2,7.2925776E-2],"categories":[],"categories_nodes":[],"categories_segments":[],"categories_sizes":[],"default_left":[0,0,0,0,0,0,0,0,0,0,0,0,0,0,0,0,0,0,0,0,0,0,0,0,0,0,0,0,0,0,0,0,0,0,0,0,0,0,0,0,0,0,0,0,0,0,0,0,0,0,0,0,0,0,0],"id":3,"left_children":[1,3,-1,5,7,9,11,13,15,17,19,21,23,-1,25,27,29,31,33,-1,-1,35,37,39,41,43,45,47,49,51,53,-1,-1,-1,-1,-1,-1,-1,-1,-1,-1,-1,-1,-1,-1,-1,-1,-1,-1,-1,-1,-1,-1,-1,-1],"loss_changes":[5.680294E3,6.227339E2,0E0,1.8719489E2,2.5125488E1,7.461538E1,6.892084E1,9.893845E0,2.1553223E1,9.916673E1,4.0934677E0,4.2504944E1,2.205302E1,0E0,1.0219162E1,2.1515112E1,7.565918E0,6.758976E0,1.4332764E1,0E0,0E0,3.610399E1,1.915802E1,1.2707098E1,6.219494E0,6.0177994E0,8.785576E0,2.6238358E0,5.190693E0,5.947334E0,3.8496094E0,0E0,0E0,0E0,0E0,0E0,0E0,0E0,0E0,0E0,0E0,0E0,0E0,0E0,0E0,0E0,0E0,0E0,0E0,0E0,0E0,0E0,0E0,0E0,0E0],"parents":[2147483647,0,0,1,1,3,3,4,4,5,5,6,6,7,7,8,8,9,9,10,10,11,11,12,12,14,14,15,15,16,16,17,17,18,18,21,21,22,22,23,23,24,24,25,25,26,26,27,27,28,28,29,29,30,30],"right_children":[2,4,-1,6,8,10,12,14,16,18,20,22,24,-1,26,28,30,32,34,-1,-1,36,38,40,42,44,46,48,50,52,54,-1,-1,-1,-1,-1,-1,-1,-1,-1,-1,-1,-1,-1,-1,-1,-1,-1,-1,-1,-1,-1,-1,-1,-1],"split_conditions":[1.1E1,1.2E1,-4.0939067E-2,7.5E1,7.1E1,6E0,6E0,8.339E2,1.54E1,3E0,6.1E0,3E0,3.1E0,-2.2747193E-2,8.401E2,6.16E2,6.09E2,8.9E1,2.7E0,-3.9987475E-2,7.744896E-3,2.192E2,6.153E2,8.3E1,9.4E0,8.1E1,8.413E2,2.224E2,8.7E1,1.92E1,2.209E2,-3.668748E-2,9.65287E-3,-9.037851E-3,4.3233145E-2,5.477281E-2,1.5945354E-2,2.2821601E-2,6.530612E-2,-2.7170344E-3,2.9304365E-2,-3.702865E-2,1.1990706E-2,1.6376032E-2,6.401882E-2,-2.8439207E-2,3.7607595E-2,1.3082382E-2,-3.06038E-2,3.889607E-3,6.430348E-2,-2.2747193E-2,4.8825737E-2,8.1912026E-2,7.2925776E-2],"split_indices":[14,12,0,1,1,13,13,2,0,13,5,13,4,0,2,10,10,9,5,0,0,15,10,9,12,9,2,15,1,8,15,0,0,0,0,0,0,0,0,0,0,0,0,0,0,0,0,0,0,0,0,0,0,0,0],"split_type":[0,0,0,0,0,0,0,0,0,0,0,0,0,0,0,0,0,0,0,0,0,0,0,0,0,0,0,0,0,0,0,0,0,0,0,0,0,0,0,0,0,0,0,0,0,0,0,0,0,0,0,0,0,0,0],"sum_hessian":[2.290172E3,9.3247986E2,1.3576923E3,3.800943E2,5.5238556E2,1.169758E2,2.631185E2,3.2311596E1,5.20074E2,7.614043E1,4.0835373E1,1.9914027E2,6.397822E1,1.2065551E0,3.1105043E1,1.6909523E1,5.0316443E2,2.8508007E1,4.7632416E1,3.946006E1,1.375315E0,8.978107E1,1.0935921E2,5.3188805E1,1.0789419E1,2.5589748E1,5.5152946E0,3.9591568E0,1.2950366E1,2.3372257E0,5.008272E2,2.5750385E1,2.7576227E0,4.9435577E0,4.2688858E1,3.6834904E1,5.2946167E1,1.2134463E1,9.722475E1,1.5437012E1,3.7751793E1,8.215453E0,2.5739658E0,3.5873759E0,2.2002373E1,2.1946912E0,3.3206034E0,1.1542138E0,2.8049428E0,1.5768414E0,1.1373525E1,1.2065551E0,1.1306704E0,3.0742767E2,1.9339952E2],"tree_param":{"num_deleted":"0","num_feature":"17","num_nodes":"55","size_leaf_vector":"1"}},{"base_weights":[-5.8652204E-2,1.7565053E0,-4.0498804E-2,8.193898E-1,2.390037E0,-1.9588147E-1,1.2620293E0,1.5035517E0,2.4417922E0,3.71901E-1,-1.2593708E0,1.4997857E0,2.5879788E-1,-2.2500355E-2,1.6091745E0,1.2834783E0,2.477756E0,-1.0520217E0,1.2051233E0,-3.9548326E-2,7.596435E-3,6.5828335E-1,1.6911796E0,-6.810085E-1,8.120618E-1,1.8523095E0,3.5581732E-1,-2.9815253E-2,1.7269162E0,5.2822155E-1,2.4856343E0,-3.622903E-2,9.413275E-3,-8.841112E-3,4.135178E-2,3.2176808E-2,-3.7382003E-2,6.2963575E-2,3.6334276E-2,3.4607463E-2,-3.0341161E-2,-3.0727461E-2,3.0139675E-2,5.903538E-2,1.4467426E-3,-2.810509E-2,3.63599E-2,7.027587E-2,2.6430339E-2,-2.2500355E-2,4.7622543E-2,6.4800695E-2,7.6204784E-2],"categories":[],"categories_nodes":[],"categories_segments":[],"categories_sizes":[],"default_left":[0,0,0,0,0,0,0,0,0,0,0,0,0,0,0,0,0,0,0,0,0,0,0,0,0,0,0,0,0,0,0,0,0,0,0,0,0,0,0,0,0,0,0,0,0,0,0,0,0,0,0,0,0],"id":4,"left_children":[1,3,-1,5,7,9,11,13,15,17,19,21,23,-1,25,27,29,31,33,-1,-1,35,37,39,41,43,45,-1,47,49,51,-1,-1,-1,-1,-1,-1,-1,-1,-1,-1,-1,-1,-1,-1,-1,-1,-1,-1,-1,-1,-1,-1],"loss_changes":[5.3460303E3,5.6092505E2,0E0,1.7279272E2,2.2258545E1,7.138022E1,6.3419678E1,9.2469635E0,1.8997559E1,9.301974E1,3.9961548E0,3.368347E1,2.783012E1,0E0,9.270248E0,2.0001087E1,6.601074E0,6.5597687E0,1.3205551E1,0E0,0E0,3.421203E1,3.1773895E1,1.3278117E1,1.2868494E1,5.543747E0,8.364257E0,0E0,6.0186043E0,5.717737E0,3.619873E0,0E0,0E0,0E0,0E0,0E0,0E0,0E0,0E0,0E0,0E0,0E0,0E0,0E0,0E0,0E0,0E0,0E0,0E0,0E0,0E0,0E0,0E0],"parents":[2147483647,0,0,1,1,3,3,4,4,5,5,6,6,7,7,8,8,9,9,10,10,11,11,12,12,14,14,15,15,16,16,17,17,18,18,21,21,22,22,23,23,24,24,25,25,26,26,28,28,29,29,30,30],"right_children":[2,4,-1,6,8,10,12,14,16,18,20,22,24,-1,26,28,30,32,34,-1,-1,36,38,40,42,44,46,-1,48,50,52,-1,-1,-1,-1,-1,-1,-1,-1,-1,-1,-1,-1,-1,-1,-1,-1,-1,-1,-1,-1,-1,-1],"split_conditions":[1.1E1,1.2E1,-4.0498804E-2,7.5E1,7.1E1,6E0,1.1E1,8.339E2,1.54E1,3E0,6.1E0,2E0,8.8E1,-2.2500355E-2,8.401E2,6.156E2,6.09E2,8.9E1,2.7E0,-3.9548326E-2,7.596435E-3,2.9E0,2.211E2,6.6E0,8.377E2,2.242E2,8.413E2,-2.9815253E-2,2.224E2,1.92E1,6E0,-3.622903E-2,9.413275E-3,-8.841112E-3,4.135178E-2,3.2176808E-2,-3.7382003E-2,6.2963575E-2,3.6334276E-2,3.4607463E-2,-3.0341161E-2,-3.0727461E-2,3.0139675E-2,5.903538E-2,1.4467426E-3,-2.810509E-2,3.63599E-2,7.027587E-2,2.6430339E-2,-2.2500355E-2,4.7622543E-2,6.4800695E-2,7.6204784E-2],"split_indices":[14,12,0,1,1,13,13,2,0,13,5,13,1,0,2,10,10,9,5,0,0,4,15,8,2,15,2,0,15,8,13,0,0,0,0,0,0,0,0,0,0,0,0,0,0,0,0,0,0,0,0,0,0],"split_type":[0,0,0,0,0,0,0,0,0,0,0,0,0,0,0,0,0,0,0,0,0,0,0,0,0,0,0,0,0,0,0,0,0,0,0,0,0,0,0,0,0,0,0,0,0,0,0,0,0,0,0,0,0],"sum_hessian":[2.2787886E3,9.4710626E2,1.3316824E3,3.829471E2,5.641592E2,1.1643667E2,2.6651044E2,3.2777866E1,5.313813E2,7.6333534E1,4.0103134E1,2.1505054E2,5.14599E1,1.1943529E0,3.1583515E1,1.7106453E1,5.1427484E2,2.8081493E1,4.825204E1,3.872353E1,1.3796048E0,4.0671135E1,1.7437941E2,1.8983137E1,3.247676E1,2.6051907E1,5.5316076E0,2.5857673E0,1.4520686E1,2.3437872E0,5.1193106E2,2.5313227E1,2.7682662E0,4.9245024E0,4.3327538E1,3.3763027E1,6.908108E0,9.248067E1,8.189874E1,2.5165052E0,1.6466633E1,2.672958E0,2.9803802E1,2.4398605E1,1.6533009E0,2.166474E0,3.3651335E0,7.380338E0,7.140348E0,1.1943529E0,1.1494343E0,7.92549E1,4.3267615E2],"tree_param":{"num_deleted":"0","num_feature":"17","num_nodes":"53","size_leaf_vector":"1"}},{"base_weights":[-5.7551887E-2,1.6815082E0,-4.0080618E-2,4.762013E-1,2.1246555E0,1.1446154E0,-2.8517306E-1,1.5496296E0,2.3498232E0,1.603284E0,7.8553283E-1,2.473363E-1,-1.2557578E0,2.0921645E0,1.0149109E0,1.3386111E0,2.385253E0,2.0844393E0,1.0222344E0,4.7578403E-1,1.3129034E0,-8.950845E-1,1.3873708E0,-3.9335016E-2,7.451002E-3,2.246003E0,6.9020903E-1,3.0160844E-1,1.2108788E0,1.5692726E0,-2.5985142E-2,2.1319075E0,7.435429E-2,3.8239143E-3,6.527975E-2,3.613255E-3,4.7353078E-2,-1.987393E-2,2.0111462E-2,3.0867741E-3,5.3043418E-2,4.5387253E-2,-3.0306611E-2,1.4782372E-2,5.7367515E-2,-1.4686942E-4,7.008111E-2,-1.9152531E-2,4.4816278E-2,-2.0531157E-2,2.3420772E-2,4.01962E-2,-1.218637E-3,1.3302147E-2,5.9169624E-2,7.189844E-2,4.798856E-2],"categories":[],"categories_nodes":[],"categories_segments":[],"categories_sizes":[],"default_left":[0,0,0,0,0,0,0,0,0,0,0,0,0,0,0,0,0,0,0,0,0,0,0,0,0,0,0,0,0,0,0,0,0,0,0,0,0,0,0,0,0,0,0,0,0,0,0,0,0,0,0,0,0,0,0,0,0],"id":5,"left_children":[1,3,-1,5,7,9,11,13,15,17,19,21,23,25,27,29,31,33,35,37,39,41,43,-1,-1,45,47,49,51,53,-1,55,-1,-1,-1,-1,-1,-1,-1,-1,-1,-1,-1,-1,-1,-1,-1,-1,-1,-1,-1,-1,-1,-1,-1,-1,-1],"loss_changes":[5.040774E3,5.120664E2,0E0,1.323998E2,8.726074E1,2.1534424E1,6.342991E1,5.6040344E1,1.4812744E1,1.4590729E1,1.2375858E1,1.05035225E2,3.9452286E0,1.9710327E1,1.40208435E1,1.1170151E1,6.1538086E0,5.4121094E0,1.4383364E1,1.1897019E1,1.5725307E1,1.273278E1,1.7972427E1,0E0,0E0,1.7923462E1,1.2903194E1,1.1640763E1,1.30345E1,7.211849E0,0E0,1.5528748E1,0E0,0E0,0E0,0E0,0E0,0E0,0E0,0E0,0E0,0E0,0E0,0E0,0E0,0E0,0E0,0E0,0E0,0E0,0E0,0E0,0E0,0E0,0E0,0E0,0E0],"parents":[2147483647,0,0,1,1,3,3,4,4,5,5,6,6,7,7,8,8,9,9,10,10,11,11,12,12,13,13,14,14,15,15,16,16,17,17,18,18,19,19,20,20,21,21,22,22,25,25,26,26,27,27,28,28,29,29,31,31],"right_children":[2,4,-1,6,8,10,12,14,16,18,20,22,24,26,28,30,32,34,36,38,40,42,44,-1,-1,46,48,50,52,54,-1,56,-1,-1,-1,-1,-1,-1,-1,-1,-1,-1,-1,-1,-1,-1,-1,-1,-1,-1,-1,-1,-1,-1,-1,-1,-1],"split_conditions":[1.1E1,8.4E0,-4.0080618E-2,3.1E0,1.38E1,-8.660254E-1,6E0,2.211E2,7E1,2.196E2,8.8E1,3E0,6.1E0,1E1,6E-1,6.8E1,7E0,-8E-1,8E-1,6.158E2,6.156615E-1,2.178E2,6.2E1,-3.9335016E-2,7.451002E-3,7.5E1,8.8E1,8.392E2,1.1E1,8.7E1,-2.5985142E-2,2.209E2,7.435429E-2,3.8239143E-3,6.527975E-2,3.613255E-3,4.7353078E-2,-1.987393E-2,2.0111462E-2,3.0867741E-3,5.3043418E-2,4.5387253E-2,-3.0306611E-2,1.4782372E-2,5.7367515E-2,-1.4686942E-4,7.008111E-2,-1.9152531E-2,4.4816278E-2,-2.0531157E-2,2.3420772E-2,4.01962E-2,-1.218637E-3,1.3302147E-2,5.9169624E-2,7.189844E-2,4.798856E-2],"split_indices":[14,12,0,4,12,6,13,15,1,15,9,13,5,13,16,1,13,16,16,10,7,15,1,0,0,9,1,2,13,9,0,15,0,0,0,0,0,0,0,0,0,0,0,0,0,0,0,0,0,0,0,0,0,0,0,0,0],"split_type":[0,0,0,0,0,0,0,0,0,0,0,0,0,0,0,0,0,0,0,0,0,0,0,0,0,0,0,0,0,0,0,0,0,0,0,0,0,0,0,0,0,0,0,0,0,0,0,0,0,0,0,0,0,0,0,0,0],"sum_hessian":[2.2652039E3,9.5958954E2,1.3056141E3,2.5852036E2,7.010692E2,1.3739622E2,1.21124146E2,1.9949289E2,5.015763E2,5.8810547E1,7.858568E1,7.869401E1,4.2430138E1,9.757695E1,1.0191595E2,1.8291569E1,4.8328473E2,3.0755323E1,2.8055223E1,5.0705944E1,2.7879732E1,3.9413185E1,3.928082E1,4.104635E1,1.3837919E0,8.7385925E1,1.0191024E1,2.2512377E1,7.9403564E1,1.6820112E1,1.4714568E0,1.3641905E2,3.4686566E2,1.4814262E0,2.9273897E1,1.1166714E1,1.688851E1,7.052133E0,4.3653812E1,7.956449E0,1.9923283E1,1.2445266E0,3.816866E1,1.5241463E1,2.4039358E1,3.3972971E0,8.398863E1,3.9185212E0,6.272503E0,7.221547E0,1.5290831E1,7.192002E1,7.483544E0,4.987696E0,1.1832416E1,8.8770874E1,4.7648182E1],"tree_param":{"num_deleted":"0","num_feature":"17","num_nodes":"57","size_leaf_vector":"1"}},{"base_weights":[-5.6377646E-2,1.6136154E0,-3.9683048E-2,4.614613E-1,2.0322866E0,1.0999732E0,-2.78342E-1,1.4856231E0,2.2457576E0,1.5355929E0,7.568327E-1,2.4085578E-1,-1.2417684E0,1.9993923E0,9.76081E-1,1.2873425E0,2.2791865E0,1.9878554E0,9.8444664E-1,-7.252213E-1,8.506282E-1,-8.79126E-1,1.3315885E0,-3.8929433E-2,7.308523E-3,2.14369E0,6.685295E-1,2.9186976E-1,1.1625624E0,1.5079422E0,-2.5676038E-2,4.612584E-1,2.2871962E0,3.7527075E-3,6.2201455E-2,3.50963E-3,4.53884E-2,5.2606435E-3,-3.3185918E-2,1.2430001E-2,3.790672E-2,4.415758E-2,-2.9831933E-2,1.4299373E-2,5.482831E-2,-1.4347238E-4,6.684552E-2,-1.8805578E-2,4.317363E-2,4.233024E-2,-4.165792E-3,3.854951E-2,-1.1869174E-3,1.2924964E-2,5.6670807E-2,-2.296136E-2,4.4740837E-2,5.5273183E-2,6.992233E-2],"categories":[],"categories_nodes":[],"categories_segments":[],"categories_sizes":[],"default_left":[0,0,0,0,0,0,0,0,0,0,0,0,0,0,0,0,0,0,0,0,0,0,0,0,0,0,0,0,0,0,0,0,0,0,0,0,0,0,0,0,0,0,0,0,0,0,0,0,0,0,0,0,0,0,0,0,0,0,0],"id":6,"left_children":[1,3,-1,5,7,9,11,13,15,17,19,21,23,25,27,29,31,33,35,37,39,41,43,-1,-1,45,47,49,51,53,-1,55,57,-1,-1,-1,-1,-1,-1,-1,-1,-1,-1,-1,-1,-1,-1,-1,-1,-1,-1,-1,-1,-1,-1,-1,-1,-1,-1],"loss_changes":[4.761912E3,4.674917E2,0E0,1.2317919E2,7.974878E1,1.9737808E1,6.0974094E1,5.11651E1,1.3408203E1,1.3157333E1,1.1763168E1,9.848247E1,3.855362E0,1.7785797E1,1.2907745E1,1.0505047E1,6.102783E0,4.8904495E0,1.3260811E1,2.0166314E0,1.314529E1,1.2278294E1,1.641156E1,0E0,0E0,1.6318573E1,1.2124582E1,1.1558533E1,1.2008293E1,6.588028E0,0E0,5.4489055E0,5.18042E0,0E0,0E0,0E0,0E0,0E0,0E0,0E0,0E0,0E0,0E0,0E0,0E0,0E0,0E0,0E0,0E0,0E0,0E0,0E0,0E0,0E0,0E0,0E0,0E0,0E0,0E0],"parents":[2147483647,0,0,1,1,3,3,4,4,5,5,6,6,7,7,8,8,9,9,10,10,11,11,12,12,13,13,14,14,15,15,16,16,17,17,18,18,19,19,20,20,21,21,22,22,25,25,26,26,27,27,28,28,29,29,31,31,32,32],"right_children":[2,4,-1,6,8,10,12,14,16,18,20,22,24,26,28,30,32,34,36,38,40,42,44,-1,-1,46,48,50,52,54,-1,56,58,-1,-1,-1,-1,-1,-1,-1,-1,-1,-1,-1,-1,-1,-1,-1,-1,-1,-1,-1,-1,-1,-1,-1,-1,-1,-1],"split_conditions":[1.1E1,8.4E0,-3.9683048E-2,3.1E0,1.38E1,-8.660254E-1,6E0,2.211E2,7E1,2.196E2,6.142E2,3E0,6.1E0,1E1,6E-1,6.8E1,6.09E2,-8E-1,8E-1,8E-1,8.6E1,2.178E2,6.2E1,-3.8929433E-2,7.308523E-3,7.5E1,8.8E1,2E-1,1.1E1,8.7E1,-2.5676038E-2,1.92E1,6E0,3.7527075E-3,6.2201455E-2,3.50963E-3,4.53884E-2,5.2606435E-3,-3.3185918E-2,1.2430001E-2,3.790672E-2,4.415758E-2,-2.9831933E-2,1.4299373E-2,5.482831E-2,-1.4347238E-4,6.684552E-2,-1.8805578E-2,4.317363E-2,4.233024E-2,-4.165792E-3,3.854951E-2,-1.1869174E-3,1.2924964E-2,5.6670807E-2,-2.296136E-2,4.4740837E-2,5.5273183E-2,6.992233E-2],"split_indices":[14,12,0,4,12,6,13,15,1,15,10,13,5,13,16,1,10,16,16,4,9,15,1,0,0,9,1,4,13,9,0,8,13,0,0,0,0,0,0,0,0,0,0,0,0,0,0,0,0,0,0,0,0,0,0,0,0,0,0],"split_type":[0,0,0,0,0,0,0,0,0,0,0,0,0,0,0,0,0,0,0,0,0,0,0,0,0,0,0,0,0,0,0,0,0,0,0,0,0,0,0,0,0,0,0,0,0,0,0,0,0,0,0,0,0,0,0,0,0,0,0],"sum_hessian":[2.2496309E3,9.7009265E2,1.2795382E3,2.591185E2,7.109742E2,1.3881915E2,1.20299355E2,2.019004E2,5.0907376E2,5.9635845E1,7.9183304E1,7.865927E1,4.164008E1,9.907729E1,1.0282311E2,1.848944E1,4.9058432E2,3.1324585E1,2.8311258E1,4.3123465E0,7.4870964E1,3.8905E1,3.9754272E1,4.02522E1,1.3878783E0,8.883471E1,1.0242585E1,2.2571619E1,8.0251495E1,1.7032682E1,1.4567571E0,2.408973E0,4.8817535E2,1.483197E0,2.9841389E1,1.1180838E1,1.7130423E1,1.4424083E0,2.8699381E0,3.7379616E1,3.7491344E1,1.2682875E0,3.763671E1,1.5316209E1,2.4438063E1,3.3971395E0,8.543757E1,3.8899765E0,6.352609E0,5.6404705E0,1.6931149E1,7.277169E1,7.4798026E0,5.008118E0,1.2024565E1,1.2168944E0,1.1920786E0,4.739898E1,4.4077637E2],"tree_param":{"num_deleted":"0","num_feature":"17","num_nodes":"59","size_leaf_vector":"1"}},{"base_weights":[-5.5269238E-2,1.5516641E0,-3.9304767E-2,4.4736236E-1,1.9490334E0,1.0579091E0,-2.7180105E-1,1.4396664E0,2.1578088E0,1.4733512E0,7.291062E-1,2.3468898E-1,-1.2283548E0,1.9239849E0,9.5404553E-1,1.2675059E0,2.1887379E0,1.9005327E0,9.488935E-1,-7.129008E-1,8.1917405E-1,-8.6357E-1,1.27979E0,-3.8542196E-2,7.168928E-3,-5.813955E-2,1.9943362E0,6.9320053E-3,1.0847967E0,1.4836023E0,-2.537419E-2,4.5344174E-1,2.1963823E0,3.6828585E-3,5.9425686E-2,3.409101E-3,4.3568484E-2,5.1618153E-3,-3.2730848E-2,1.6837664E-2,4.425362E-2,4.298377E-2,-2.9368568E-2,1.3835343E-2,5.2509733E-2,3.2619506E-2,-3.055768E-2,6.3904E-2,2.3114543E-2,-2.0107884E-2,4.588307E-2,3.9301466E-2,9.745851E-3,1.1671481E-2,5.6111537E-2,-2.2710169E-2,4.3728016E-2,5.96096E-2,6.812725E-2],"categories":[],"categories_nodes":[],"categories_segments":[],"categories_sizes":[],"default_left":[0,0,0,0,0,0,0,0,0,0,0,0,0,0,0,0,0,0,0,0,0,0,0,0,0,0,0,0,0,0,0,0,0,0,0,0,0,0,0,0,0,0,0,0,0,0,0,0,0,0,0,0,0,0,0,0,0,0,0],"id":7,"left_children":[1,3,-1,5,7,9,11,13,15,17,19,21,23,25,27,29,31,33,35,37,39,41,43,-1,-1,45,47,49,51,53,-1,55,57,-1,-1,-1,-1,-1,-1,-1,-1,-1,-1,-1,-1,-1,-1,-1,-1,-1,-1,-1,-1,-1,-1,-1,-1,-1,-1],"loss_changes":[4.5053394E3,4.2903662E2,0E0,1.1468823E2,7.3477295E1,1.8202286E1,5.86332E1,4.8111786E1,1.1236084E1,1.1944809E1,1.107201E1,9.2441696E1,3.7695236E0,1.4805328E1,1.3369743E1,1.0140844E1,5.5080566E0,4.4437027E0,1.2256784E1,1.9552217E0,1.210944E1,1.1841576E1,1.5053795E1,0E0,0E0,6.1488795E0,1.5270782E1,1.5573331E1,1.5821449E1,6.8994102E0,0E0,5.2490935E0,3.1020508E0,0E0,0E0,0E0,0E0,0E0,0E0,0E0,0E0,0E0,0E0,0E0,0E0,0E0,0E0,0E0,0E0,0E0,0E0,0E0,0E0,0E0,0E0,0E0,0E0,0E0,0E0],"parents":[2147483647,0,0,1,1,3,3,4,4,5,5,6,6,7,7,8,8,9,9,10,10,11,11,12,12,13,13,14,14,15,15,16,16,17,17,18,18,19,19,20,20,21,21,22,22,25,25,26,26,27,27,28,28,29,29,31,31,32,32],"right_children":[2,4,-1,6,8,10,12,14,16,18,20,22,24,26,28,30,32,34,36,38,40,42,44,-1,-1,46,48,50,52,54,-1,56,58,-1,-1,-1,-1,-1,-1,-1,-1,-1,-1,-1,-1,-1,-1,-1,-1,-1,-1,-1,-1,-1,-1,-1,-1,-1,-1],"split_conditions":[1.1E1,8.4E0,-3.9304767E-2,3.1E0,1.4E1,-8.660254E-1,6E0,2.211E2,7E1,2.196E2,6.142E2,3E0,6.1E0,7.5E1,6.152E2,6.8E1,6.09E2,-8E-1,8E-1,8E-1,8.9E1,2.178E2,6.2E1,-3.8542196E-2,7.168928E-3,-9.2718387E-1,1E1,1E0,8.42E2,-9.135454E-1,-2.537419E-2,1.92E1,7E0,3.6828585E-3,5.9425686E-2,3.409101E-3,4.3568484E-2,5.1618153E-3,-3.2730848E-2,1.6837664E-2,4.425362E-2,4.298377E-2,-2.9368568E-2,1.3835343E-2,5.2509733E-2,3.2619506E-2,-3.055768E-2,6.3904E-2,2.3114543E-2,-2.0107884E-2,4.588307E-2,3.9301466E-2,9.745851E-3,1.1671481E-2,5.6111537E-2,-2.2710169E-2,4.3728016E-2,5.96096E-2,6.812725E-2],"split_indices":[14,12,0,4,12,6,13,15,1,15,10,13,5,9,10,1,10,16,16,4,9,15,1,0,0,6,13,11,2,6,0,8,13,0,0,0,0,0,0,0,0,0,0,0,0,0,0,0,0,0,0,0,0,0,0,0,0,0,0],"split_type":[0,0,0,0,0,0,0,0,0,0,0,0,0,0,0,0,0,0,0,0,0,0,0,0,0,0,0,0,0,0,0,0,0,0,0,0,0,0,0,0,0,0,0,0,0,0,0,0,0,0,0,0,0,0,0,0,0,0,0],"sum_hessian":[2.2322021E3,9.787016E2,1.2535006E3,2.5954465E2,7.191569E2,1.4011795E2,1.194267E2,2.1136566E2,5.077913E2,6.0365395E1,7.9752556E1,7.857586E1,4.0850838E1,1.04341805E2,1.07023865E2,1.8457863E1,4.893334E2,3.1821957E1,2.8543438E1,4.281976E0,7.547057E1,3.8398235E1,4.0177624E1,3.945897E1,1.3918664E0,3.582407E0,1.007594E2,1.311034E1,9.391352E1,1.701588E1,1.4419836E0,2.4107323E0,4.869227E2,1.4849272E0,3.0337029E1,1.1194511E1,1.7348927E1,1.4450293E0,2.8369472E0,5.5502575E1,1.9968002E1,1.2907941E0,3.710744E1,1.5387444E1,2.4790178E1,1.5736005E0,2.0088065E0,9.002932E1,1.0730075E1,9.461653E0,3.6486878E0,7.1882835E1,2.2030684E1,4.966648E0,1.2049232E1,1.2046888E0,1.2060434E0,1.3507236E2,3.5185034E2],"tree_param":{"num_deleted":"0","num_feature":"17","num_nodes":"59","size_leaf_vector":"1"}},{"base_weights":[-5.4195758E-2,1.4948018E0,-3.894456E-2,4.3404168E-1,1.8733447E0,1.0186064E0,-2.6552773E-1,1.3716892E0,2.0689256E0,1.2165219E0,4.0112415E-1,2.2880857E-1,-1.2154791E0,1.839091E0,9.0472484E-1,1.1936133E0,2.0993645E0,-2.9790329E-2,1.3264756E0,-2.8399298E-1,9.323666E-1,-8.483922E-1,1.2315259E0,-3.8172122E-2,7.032158E-3,1.9689717E0,6.2398535E-1,2.5413138E-1,1.0812896E0,1.3964744E0,-2.5079286E-2,1.8778565E0,6.542414E-2,-3.048123E-2,1.1787954E-2,3.0511074E-2,5.6136057E-2,1.0405711E-2,-2.897234E-2,-1.9381084E-2,4.0030695E-2,4.186251E-2,-2.8915782E-2,1.3389272E-2,5.038242E-2,-1.1385882E-4,6.1338376E-2,-1.8842185E-2,4.0832642E-2,3.9551273E-2,-4.7732964E-3,3.959495E-2,1.4339022E-2,1.1325076E-2,5.2736446E-2,6.371601E-2,4.1582715E-2],"categories":[],"categories_nodes":[],"categories_segments":[],"categories_sizes":[],"default_left":[0,0,0,0,0,0,0,0,0,0,0,0,0,0,0,0,0,0,0,0,0,0,0,0,0,0,0,0,0,0,0,0,0,0,0,0,0,0,0,0,0,0,0,0,0,0,0,0,0,0,0,0,0,0,0,0,0],"id":8,"left_children":[1,3,-1,5,7,9,11,13,15,17,19,21,23,25,27,29,31,33,35,37,39,41,43,-1,-1,45,47,49,51,53,-1,55,-1,-1,-1,-1,-1,-1,-1,-1,-1,-1,-1,-1,-1,-1,-1,-1,-1,-1,-1,-1,-1,-1,-1,-1,-1],"loss_changes":[4.2684253E3,3.9536694E2,0E0,1.0692015E2,6.847632E1,1.6900146E1,5.6400284E1,4.3484375E1,1.1375244E1,1.473732E1,1.3377238E1,8.685885E1,3.6874352E0,1.4933777E1,1.1837814E1,9.330488E0,4.963867E0,4.432114E0,1.4713791E1,7.431852E0,1.3885628E1,1.142178E1,1.3864719E1,0E0,0E0,1.3744751E1,1.1332882E1,1.068351E1,1.1260948E1,6.112213E0,0E0,1.4258667E1,0E0,0E0,0E0,0E0,0E0,0E0,0E0,0E0,0E0,0E0,0E0,0E0,0E0,0E0,0E0,0E0,0E0,0E0,0E0,0E0,0E0,0E0,0E0,0E0,0E0],"parents":[2147483647,0,0,1,1,3,3,4,4,5,5,6,6,7,7,8,8,9,9,10,10,11,11,12,12,13,13,14,14,15,15,16,16,17,17,18,18,19,19,20,20,21,21,22,22,25,25,26,26,27,27,28,28,29,29,31,31],"right_children":[2,4,-1,6,8,10,12,14,16,18,20,22,24,26,28,30,32,34,36,38,40,42,44,-1,-1,46,48,50,52,54,-1,56,-1,-1,-1,-1,-1,-1,-1,-1,-1,-1,-1,-1,-1,-1,-1,-1,-1,-1,-1,-1,-1,-1,-1,-1,-1],"split_conditions":[1.1E1,8.4E0,-3.894456E-2,3.1E0,1.38E1,1.1E1,6E0,2.211E2,7E1,6.142E2,8.6E1,3E0,6.1E0,1E1,6E-1,6.8E1,7E0,6.8E0,8.9E1,6.189E2,8.382E2,2.178E2,6.2E1,-3.8172122E-2,7.032158E-3,7.5E1,8.8E1,2E-1,5.1E0,8.7E1,-2.5079286E-2,2.209E2,6.542414E-2,-3.048123E-2,1.1787954E-2,3.0511074E-2,5.6136057E-2,1.0405711E-2,-2.897234E-2,-1.9381084E-2,4.0030695E-2,4.186251E-2,-2.8915782E-2,1.3389272E-2,5.038242E-2,-1.1385882E-4,6.1338376E-2,-1.8842185E-2,4.0832642E-2,3.9551273E-2,-4.7732964E-3,3.959495E-2,1.4339022E-2,1.1325076E-2,5.2736446E-2,6.371601E-2,4.1582715E-2],"split_indices":[14,12,0,4,12,13,13,15,1,10,9,13,5,13,16,1,13,8,9,10,2,15,1,0,0,9,1,4,4,9,0,15,0,0,0,0,0,0,0,0,0,0,0,0,0,0,0,0,0,0,0,0,0,0,0,0,0],"split_type":[0,0,0,0,0,0,0,0,0,0,0,0,0,0,0,0,0,0,0,0,0,0,0,0,0,0,0,0,0,0,0,0,0,0,0,0,0,0,0,0,0,0,0,0,0,0,0,0,0,0,0,0,0,0,0,0,0],"sum_hessian":[2.2131873E3,9.8564374E2,1.2275436E3,2.5979315E2,7.258506E2,1.4128143E2,1.1851172E2,2.0585541E2,5.199952E2,1.0625457E2,3.5026855E1,7.844803E1,4.0063694E1,1.01411E2,1.04444405E2,1.8826519E1,5.0116867E2,8.673261E0,9.758131E1,1.5501176E1,1.9525682E1,3.789357E1,4.0554455E1,3.8667934E1,1.395759E0,9.105759E1,1.0353416E1,2.2815344E1,8.162906E1,1.7399364E1,1.4271549E0,1.4119379E2,3.5997488E2,2.1810644E0,6.4921966E0,6.405882E1,3.3522488E1,8.306288E0,7.1948876E0,3.840188E0,1.5685493E1,1.3120615E0,3.658151E1,1.5455339E1,2.5099117E1,3.3975317E0,8.766006E1,3.8913705E0,6.4620457E0,5.7686563E0,1.7046688E1,5.764839E1,2.3980667E1,5.0907526E0,1.2308613E1,9.190073E1,4.9293068E1],"tree_param":{"num_deleted":"0","num_feature":"17","num_nodes":"57","size_leaf_vector":"1"}},{"base_weights":[-5.3180777E-2,1.4424523E0,-3.8601305E-2,6.875582E-1,1.934507E0,-1.8674204E-1,1.0444816E0,2.080388E0,1.6981434E0,3.089187E-1,-1.2015822E0,1.2420282E0,1.8706386E-1,2.0900307E0,6.4424676E-1,1.1737676E0,1.9233819E0,-9.862492E-1,9.838165E-1,-3.788482E-2,6.8981443E-3,5.3637266E-1,1.3988222E0,-6.643073E-1,6.6136193E-1,1.9952945E-2,2.095647E0,-3.8136465E-3,3.747979E-2,-4.2831826E-1,1.3572302E0,2.0666738E0,1.2461509E0,-3.4522146E-2,1.1390199E-2,-1.0983357E-2,3.4201834E-2,2.699715E-2,-3.820486E-2,5.1540017E-2,3.0452115E-2,3.175692E-2,-2.9681604E-2,-3.107235E-2,2.5084753E-2,2.1029025E-2,6.303187E-2,3.709032E-2,-3.78823E-2,4.863536E-2,1.6335098E-2,6.2353313E-2,1.0319628E-2,4.174701E-2,-2.7883317E-2],"categories":[],"categories_nodes":[],"categories_segments":[],"categories_sizes":[],"default_left":[0,0,0,0,0,0,0,0,0,0,0,0,0,0,0,0,0,0,0,0,0,0,0,0,0,0,0,0,0,0,0,0,0,0,0,0,0,0,0,0,0,0,0,0,0,0,0,0,0,0,0,0,0,0,0],"id":9,"left_children":[1,3,-1,5,7,9,11,13,15,17,19,21,23,25,27,29,31,33,35,-1,-1,37,39,41,43,-1,45,-1,-1,47,49,51,53,-1,-1,-1,-1,-1,-1,-1,-1,-1,-1,-1,-1,-1,-1,-1,-1,-1,-1,-1,-1,-1,-1],"loss_changes":[4.0489868E3,3.6713672E2,0E0,1.228309E2,1.7155518E1,5.8104176E1,4.70614E1,3.7296143E0,2.5429749E1,6.9069145E1,3.6102867E0,2.433847E1,2.202744E1,1.5168457E0,1.974619E0,2.2038582E1,1.3186035E1,6.54558E0,1.1325794E1,0E0,0E0,2.9336456E1,2.0904694E1,1.2039537E1,1.1199909E1,0E0,1.2595215E0,0E0,0E0,1.3036114E1,1.32200775E1,1.972229E0,1.1063614E1,0E0,0E0,0E0,0E0,0E0,0E0,0E0,0E0,0E0,0E0,0E0,0E0,0E0,0E0,0E0,0E0,0E0,0E0,0E0,0E0,0E0,0E0],"parents":[2147483647,0,0,1,1,3,3,4,4,5,5,6,6,7,7,8,8,9,9,10,10,11,11,12,12,13,13,14,14,15,15,16,16,17,17,18,18,21,21,22,22,23,23,24,24,26,26,29,29,30,30,31,31,32,32],"right_children":[2,4,-1,6,8,10,12,14,16,18,20,22,24,26,28,30,32,34,36,-1,-1,38,40,42,44,-1,46,-1,-1,48,50,52,54,-1,-1,-1,-1,-1,-1,-1,-1,-1,-1,-1,-1,-1,-1,-1,-1,-1,-1,-1,-1,-1,-1],"split_conditions":[1.1E1,1.2E1,-3.8601305E-2,7.5E1,2.21E2,6E0,1.1E1,5.1E0,7E0,3E0,6.1E0,2E0,8.8E1,6.116E2,-5.8778524E-1,1.61E1,1E1,8.9E1,2.7E0,-3.788482E-2,6.8981443E-3,8E0,2.211E2,6.6E0,8.377E2,1.9952945E-2,7.5E1,-3.8136465E-3,3.747979E-2,2.219E2,1.72E1,3.8E0,1.95E1,-3.4522146E-2,1.1390199E-2,-1.0983357E-2,3.4201834E-2,2.699715E-2,-3.820486E-2,5.1540017E-2,3.0452115E-2,3.175692E-2,-2.9681604E-2,-3.107235E-2,2.5084753E-2,2.1029025E-2,6.303187E-2,3.709032E-2,-3.78823E-2,4.863536E-2,1.6335098E-2,6.2353313E-2,1.0319628E-2,4.174701E-2,-2.7883317E-2],"split_indices":[14,12,0,1,15,13,13,5,13,13,5,13,1,10,6,0,13,9,5,0,0,0,15,8,2,0,9,0,0,15,12,16,0,0,0,0,0,0,0,0,0,0,0,0,0,0,0,0,0,0,0,0,0,0,0],"split_type":[0,0,0,0,0,0,0,0,0,0,0,0,0,0,0,0,0,0,0,0,0,0,0,0,0,0,0,0,0,0,0,0,0,0,0,0,0,0,0,0,0,0,0,0,0,0,0,0,0,0,0,0,0,0,0],"sum_hessian":[2.1926768E3,9.9097156E2,1.2017051E3,3.919903E2,5.9898126E2,1.1377356E2,2.7821674E2,3.6556012E2,2.3342113E2,7.690687E1,3.6866688E1,2.2575488E2,5.2461857E1,3.6266974E2,2.8903995E0,7.200295E1,1.6141817E2,2.6188427E1,5.071844E1,3.546713E1,1.3995581E0,4.1846138E1,1.8390875E2,1.8626478E1,3.383538E1,1.8927015E0,3.60777E2,1.6178454E0,1.272554E0,7.2610745E0,6.4741875E1,1.3153557E2,2.9882597E1,2.3514294E1,2.6741338E0,5.121999E0,4.5596443E1,3.5265453E1,6.580685E0,9.850346E1,8.540529E1,2.5985014E0,1.6027975E1,2.6995828E0,3.1135796E1,1.8999338E0,3.5887708E2,2.2635877E0,4.9974866E0,4.811944E1,1.6622437E1,1.3043787E2,1.0977129E0,2.8348185E1,1.5344121E0],"tree_param":{"num_deleted":"0","num_feature":"17","num_nodes":"55","size_leaf_vector":"1"}},{"base_weights":[-5.227639E-2,1.393678E0,-3.8273975E-2,6.921108E-1,1.8855072E0,-3.5215977E-1,9.590896E-1,2.0282881E0,1.70434E0,-1.0188291E0,5.9015495E-1,1.1752687E0,1.36815915E-2,2.0399961E0,8.041225E-1,1.2447652E0,1.8922588E0,-1.1330465E0,-2.4157864E-1,9.8964584E-1,-3.371951E-2,7.0459104E-1,1.4659715E0,-7.57344E-1,6.22305E-1,1.1060609E0,2.0508485E0,-1.2230488E-3,3.7203558E-2,6.4107976E-3,1.4642414E0,1.9882227E0,1.4011657E0,-3.8185745E-2,-1.6417323E-2,2.1327307E-2,-3.261522E-2,-1.6815512E-2,3.6015723E-2,2.9690731E-2,-1.5899818E-2,5.0082948E-2,2.0417523E-2,2.8602712E-2,-3.2159053E-2,-3.068411E-2,2.3643553E-2,4.302461E-2,7.544212E-4,6.16923E-2,2.0564668E-2,-1.0738416E-2,3.802583E-2,4.628278E-2,-2.8548717E-2,6.0083978E-2,1.7395789E-2,4.5621894E-2,-2.6259158E-2],"categories":[],"categories_nodes":[],"categories_segments":[],"categories_sizes":[],"default_left":[0,0,0,0,0,0,0,0,0,0,0,0,0,0,0,0,0,0,0,0,0,0,0,0,0,0,0,0,0,0,0,0,0,0,0,0,0,0,0,0,0,0,0,0,0,0,0,0,0,0,0,0,0,0,0,0,0,0,0],"id":10,"left_children":[1,3,-1,5,7,9,11,13,15,17,19,21,23,25,27,29,31,33,35,37,-1,39,41,43,45,47,49,-1,-1,51,53,55,57,-1,-1,-1,-1,-1,-1,-1,-1,-1,-1,-1,-1,-1,-1,-1,-1,-1,-1,-1,-1,-1,-1,-1,-1,-1,-1],"loss_changes":[3.8444158E3,3.4236462E2,0E0,1.15217896E2,1.1673828E1,5.376593E1,6.71069E1,2.9726562E0,2.0450806E1,4.1588554E0,2.5557947E1,3.554001E1,2.9628633E1,9.562988E-1,1.7818391E0,2.1615135E1,5.956787E0,2.8466835E0,6.948994E0,1.03107395E1,0E0,3.712357E1,2.5120056E1,1.6018282E1,1.0427904E1,2.0298166E0,9.6972656E-1,0E0,0E0,6.4192214E0,1.4287445E1,1.9754639E0,1.0506866E1,0E0,0E0,0E0,0E0,0E0,0E0,0E0,0E0,0E0,0E0,0E0,0E0,0E0,0E0,0E0,0E0,0E0,0E0,0E0,0E0,0E0,0E0,0E0,0E0,0E0,0E0],"parents":[2147483647,0,0,1,1,3,3,4,4,5,5,6,6,7,7,8,8,9,9,10,10,11,11,12,12,13,13,14,14,15,15,16,16,17,17,18,18,19,19,21,21,22,22,23,23,24,24,25,25,26,26,29,29,30,30,31,31,32,32],"right_children":[2,4,-1,6,8,10,12,14,16,18,20,22,24,26,28,30,32,34,36,38,-1,40,42,44,46,48,50,-1,-1,52,54,56,58,-1,-1,-1,-1,-1,-1,-1,-1,-1,-1,-1,-1,-1,-1,-1,-1,-1,-1,-1,-1,-1,-1,-1,-1,-1,-1],"split_conditions":[1.1E1,1.24E1,-3.8273975E-2,6.8E1,2.207E2,1.65E1,1.1E1,2.2E1,7E0,8.5E1,6E0,3E0,8.8E1,8.1E1,2.7E0,0E0,1E1,4.1E0,8.393E2,2.8E0,-3.371951E-2,3.1E0,2.232E2,6.6E0,8.377E2,6.168E2,5.1E0,-1.2230488E-3,3.7203558E-2,1.96E1,2.18E1,3.6E0,1.99E1,-3.8185745E-2,-1.6417323E-2,2.1327307E-2,-3.261522E-2,-1.6815512E-2,3.6015723E-2,2.9690731E-2,-1.5899818E-2,5.0082948E-2,2.0417523E-2,2.8602712E-2,-3.2159053E-2,-3.068411E-2,2.3643553E-2,4.302461E-2,7.544212E-4,6.16923E-2,2.0564668E-2,-1.0738416E-2,3.802583E-2,4.628278E-2,-2.8548717E-2,6.0083978E-2,1.7395789E-2,4.5621894E-2,-2.6259158E-2],"split_indices":[14,12,0,1,15,0,13,0,13,9,13,13,1,9,3,16,13,5,2,5,0,4,15,8,2,10,5,0,0,8,0,16,0,0,0,0,0,0,0,0,0,0,0,0,0,0,0,0,0,0,0,0,0,0,0,0,0,0,0],"split_type":[0,0,0,0,0,0,0,0,0,0,0,0,0,0,0,0,0,0,0,0,0,0,0,0,0,0,0,0,0,0,0,0,0,0,0,0,0,0,0,0,0,0,0,0,0,0,0,0,0,0,0,0,0,0,0,0,0,0,0],"sum_hessian":[2.1710151E3,9.9499493E2,1.1760201E3,4.1105505E2,5.839399E2,8.3628494E1,3.2742657E2,3.208652E2,2.6307468E2,4.893016E1,3.4698334E1,2.6629242E2,6.113415E1,3.1716534E2,3.6998549E0,7.85635E1,1.8451118E2,4.2261974E1,6.668185E0,2.8482878E1,6.2154574E0,1.02980385E2,1.6331203E2,2.6861147E1,3.4273006E1,4.8252916E0,3.1234006E2,1.567937E0,2.1319177E0,1.1982674E1,6.6580826E1,1.5179965E2,3.2711533E1,3.3172054E1,9.089921E0,3.2107902E0,3.457395E0,3.2121797E0,2.5270697E1,8.382193E1,1.9158453E1,1.2881577E2,3.4496254E1,3.8572152E0,2.3003931E1,2.664906E0,3.1608099E1,3.4510014E0,1.3742902E0,3.1056885E2,1.7712194E0,9.852334E0,2.1303394E0,6.483503E1,1.7457957E0,1.4982687E2,1.9727793E0,3.1394611E1,1.31692E0],"tree_param":{"num_deleted":"0","num_feature":"17","num_nodes":"59","size_leaf_vector":"1"}},{"base_weights":[-5.141148E-2,1.3483286E0,-3.7961606E-2,6.6978467E-1,1.8234673E0,-3.4549716E-1,9.2612803E-1,1.1705456E0,1.858621E0,-1.0050691E0,5.7041985E-1,1.1331538E0,1.2976963E-2,-2.3916882E-2,1.274247E0,1.2023628E0,1.8877877E0,-1.1195252E0,-2.3670475E-1,9.538935E-1,-3.337469E-2,3.7029308E-1,1.299034E0,-7.436805E-1,6.0026485E-1,6.7569256E-1,1.6413524E0,-6.880679E-2,1.6163528E0,3.1861234E-1,1.894694E0,-3.782921E-2,-1.6067512E-2,2.071118E-2,-3.2225184E-2,-1.649888E-2,3.468099E-2,2.4390455E-2,-3.8261387E-2,4.857276E-2,2.8405923E-2,2.7687704E-2,-3.172581E-2,-3.0307123E-2,2.2802576E-2,-1.7453907E-2,3.315521E-2,5.187842E-2,7.329037E-3,-3.5970334E-2,4.4774704E-2,5.3334408E-2,-4.0274183E-3,-2.3960546E-2,3.8855042E-2,7.4519236E-3,5.6932263E-2],"categories":[],"categories_nodes":[],"categories_segments":[],"categories_sizes":[],"default_left":[0,0,0,0,0,0,0,0,0,0,0,0,0,0,0,0,0,0,0,0,0,0,0,0,0,0,0,0,0,0,0,0,0,0,0,0,0,0,0,0,0,0,0,0,0,0,0,0,0,0,0,0,0,0,0,0,0],"id":11,"left_children":[1,3,-1,5,7,9,11,13,15,17,19,21,23,-1,25,27,29,31,33,35,-1,37,39,41,43,45,47,49,51,53,55,-1,-1,-1,-1,-1,-1,-1,-1,-1,-1,-1,-1,-1,-1,-1,-1,-1,-1,-1,-1,-1,-1,-1,-1,-1,-1],"loss_changes":[3.6538271E3,3.2077307E2,0E0,1.0778281E2,1.1293457E1,5.129741E1,6.235904E1,7.685055E0,8.356323E0,4.059662E0,2.4157911E1,3.3552887E1,2.799304E1,0E0,5.7973785E0,1.3992294E1,5.137451E0,2.837658E0,6.6760507E0,9.660004E0,0E0,3.705426E1,2.3322235E1,1.5378573E1,9.893499E0,8.0141325E0,1.8847771E0,1.4916648E1,5.874218E0,4.879014E0,2.1744385E0,0E0,0E0,0E0,0E0,0E0,0E0,0E0,0E0,0E0,0E0,0E0,0E0,0E0,0E0,0E0,0E0,0E0,0E0,0E0,0E0,0E0,0E0,0E0,0E0,0E0,0E0],"parents":[2147483647,0,0,1,1,3,3,4,4,5,5,6,6,7,7,8,8,9,9,10,10,11,11,12,12,14,14,15,15,16,16,17,17,18,18,19,19,21,21,22,22,23,23,24,24,25,25,26,26,27,27,28,28,29,29,30,30],"right_children":[2,4,-1,6,8,10,12,14,16,18,20,22,24,-1,26,28,30,32,34,36,-1,38,40,42,44,46,48,50,52,54,56,-1,-1,-1,-1,-1,-1,-1,-1,-1,-1,-1,-1,-1,-1,-1,-1,-1,-1,-1,-1,-1,-1,-1,-1,-1,-1],"split_conditions":[1.1E1,1.24E1,-3.7961606E-2,6.8E1,7.1E1,1.65E1,1.1E1,8.339E2,1.62E1,8.5E1,6E0,2E0,8.8E1,-2.3916882E-2,-8.480481E-1,6.16E2,6.09E2,4.1E0,8.393E2,2.8E0,-3.337469E-2,8E0,2.211E2,6.6E0,8.377E2,1.46E1,2.245E2,1.72E1,4.3E0,1.92E1,7.5E1,-3.782921E-2,-1.6067512E-2,2.071118E-2,-3.2225184E-2,-1.649888E-2,3.468099E-2,2.4390455E-2,-3.8261387E-2,4.857276E-2,2.8405923E-2,2.7687704E-2,-3.172581E-2,-3.0307123E-2,2.2802576E-2,-1.7453907E-2,3.315521E-2,5.187842E-2,7.329037E-3,-3.5970334E-2,4.4774704E-2,5.3334408E-2,-4.0274183E-3,-2.3960546E-2,3.8855042E-2,7.4519236E-3,5.6932263E-2],"split_indices":[14,12,0,1,1,0,13,2,0,9,13,13,1,0,6,10,10,5,2,5,0,0,15,8,2,12,15,8,5,8,9,0,0,0,0,0,0,0,0,0,0,0,0,0,0,0,0,0,0,0,0,0,0,0,0,0,0],"split_type":[0,0,0,0,0,0,0,0,0,0,0,0,0,0,0,0,0,0,0,0,0,0,0,0,0,0,0,0,0,0,0,0,0,0,0,0,0,0,0,0,0,0,0,0,0,0,0,0,0,0,0,0,0,0,0,0,0],"sum_hessian":[2.1482542E3,9.9773425E2,1.1505199E3,4.1190445E2,5.8582983E2,8.2964554E1,3.2893988E2,3.1682314E1,5.541475E2,4.8175198E1,3.478936E1,2.6795038E2,6.0989513E1,1.2512683E0,3.0431046E1,2.5377256E1,5.2877026E2,4.15316E1,6.643597E0,2.8686045E1,6.1033144E0,4.8435295E1,2.1951508E2,2.653531E1,3.44542E1,1.2648553E1,1.7782492E1,6.4392214E0,1.8938034E1,2.5235739E0,5.262467E2,3.2499752E1,9.031846E0,3.2364686E0,3.4071288E0,3.1950624E0,2.5490982E1,3.8566128E1,9.869168E0,1.1311593E2,1.06399155E2,3.8975656E0,2.2637745E1,2.630079E0,3.1824121E1,3.12987E0,9.518683E0,1.6505833E1,1.2766593E0,3.869893E0,2.5693283E0,1.7324612E1,1.613424E0,1.2619232E0,1.2616508E0,1.1249875E0,5.251217E2],"tree_param":{"num_deleted":"0","num_feature":"17","num_nodes":"57","size_leaf_vector":"1"}},{"base_weights":[-5.0639052E-2,1.3058627E0,-3.7663333E-2,6.484203E-1,1.7662493E0,-3.3907515E-1,8.947137E-1,1.8879226E0,1.5659988E0,-9.916886E-1,5.516397E-1,1.1320988E0,1.531837E-1,3.4622836E-3,1.894166E0,1.0984964E0,1.7601576E0,-1.1063942E0,-2.3202787E-1,9.201244E-1,-3.3040132E-2,6.497778E-1,1.469625E0,4.967976E-1,-8.2299817E-1,1.9011989E0,1.314789E-2,-8.107508E-2,1.3192567E0,6.2133086E-1,1.8124804E0,-3.7487447E-2,-1.5724884E-2,2.0118007E-2,-3.184625E-2,3.196449E-2,-2.9825363E-2,2.7520366E-2,-1.5820252E-2,4.9311254E-2,2.1979922E-2,-5.9677283E-3,2.2483954E-2,-3.0339174E-2,1.6297156E-2,1.0510137E-2,5.714445E-2,-1.4560077E-2,3.5876766E-2,4.4246007E-2,3.0316664E-3,-3.341445E-2,4.787654E-2,5.6887377E-2,3.8722605E-2],"categories":[],"categories_nodes":[],"categories_segments":[],"categories_sizes":[],"default_left":[0,0,0,0,0,0,0,0,0,0,0,0,0,0,0,0,0,0,0,0,0,0,0,0,0,0,0,0,0,0,0,0,0,0,0,0,0,0,0,0,0,0,0,0,0,0,0,0,0,0,0,0,0,0,0],"id":12,"left_children":[1,3,-1,5,7,9,11,13,15,17,19,21,23,-1,25,27,29,31,33,35,-1,37,39,41,43,45,-1,47,49,51,53,-1,-1,-1,-1,-1,-1,-1,-1,-1,-1,-1,-1,-1,-1,-1,-1,-1,-1,-1,-1,-1,-1,-1,-1],"loss_changes":[3.4754814E3,3.016306E2,0E0,1.0088963E2,1.1364258E1,4.895933E1,5.8142517E1,3.7734375E0,1.8762878E1,3.962799E0,2.2855627E1,3.9873444E1,2.7744078E1,0E0,2.8468018E0,1.8222572E1,8.374481E0,2.8302956E0,6.4157476E0,9.37038E0,0E0,3.356809E1,1.7622864E1,1.0854417E1,6.1047945E0,1.3369141E0,0E0,6.7283487E0,1.0970512E1,1.6193806E1,4.191559E0,0E0,0E0,0E0,0E0,0E0,0E0,0E0,0E0,0E0,0E0,0E0,0E0,0E0,0E0,0E0,0E0,0E0,0E0,0E0,0E0,0E0,0E0,0E0,0E0],"parents":[2147483647,0,0,1,1,3,3,4,4,5,5,6,6,7,7,8,8,9,9,10,10,11,11,12,12,14,14,15,15,16,16,17,17,18,18,19,19,21,21,22,22,23,23,24,24,25,25,27,27,28,28,29,29,30,30],"right_children":[2,4,-1,6,8,10,12,14,16,18,20,22,24,-1,26,28,30,32,34,36,-1,38,40,42,44,46,-1,48,50,52,54,-1,-1,-1,-1,-1,-1,-1,-1,-1,-1,-1,-1,-1,-1,-1,-1,-1,-1,-1,-1,-1,-1,-1,-1],"split_conditions":[1.1E1,1.24E1,-3.7663333E-2,6.8E1,2.21E2,1.65E1,1E1,7.5E1,7E0,8.5E1,6E0,3E0,3.1E0,3.4622836E-3,5.1E0,0E0,7.1E1,4.1E0,8.393E2,-2.2495106E-1,-3.3040132E-2,3.1E0,2.231E2,8.3E1,1E0,8.3E2,1.314789E-2,1.96E1,1.76E1,1.88E1,1E1,-3.7487447E-2,-1.5724884E-2,2.0118007E-2,-3.184625E-2,3.196449E-2,-2.9825363E-2,2.7520366E-2,-1.5820252E-2,4.9311254E-2,2.1979922E-2,-5.9677283E-3,2.2483954E-2,-3.0339174E-2,1.6297156E-2,1.0510137E-2,5.714445E-2,-1.4560077E-2,3.5876766E-2,4.4246007E-2,3.0316664E-3,-3.341445E-2,4.787654E-2,5.6887377E-2,3.8722605E-2],"split_indices":[14,12,0,1,15,0,13,9,13,9,13,13,4,0,5,16,1,5,2,6,0,4,15,9,11,2,0,8,12,8,13,0,0,0,0,0,0,0,0,0,0,0,0,0,0,0,0,0,0,0,0,0,0,0,0],"split_type":[0,0,0,0,0,0,0,0,0,0,0,0,0,0,0,0,0,0,0,0,0,0,0,0,0,0,0,0,0,0,0,0,0,0,0,0,0,0,0,0,0,0,0,0,0,0,0,0,0,0,0,0,0,0,0],"sum_hessian":[2.1245574E3,9.993245E2,1.1252328E3,4.1257156E2,5.86753E2,8.2283844E1,3.3028772E2,3.597432E2,2.2700978E2,4.7423782E1,3.486006E1,2.497946E2,8.049313E1,1.3310719E0,3.584121E2,6.8567726E1,1.5844206E2,4.0805843E1,6.6179414E0,2.8868088E1,5.9919734E0,1.0404321E2,1.4575139E2,5.9899662E1,2.059347E1,3.5638474E2,2.0273945E0,1.0909351E1,5.7658375E1,7.5253363E0,1.5091672E2,3.1831394E1,8.974447E0,3.2610424E0,3.3568993E0,2.7242868E1,1.6252189E0,8.4953384E1,1.9089832E1,1.1690574E2,2.8845646E1,1.601499E1,4.3884674E1,1.8327225E1,2.2662444E0,1.0567313E0,3.55328E2,8.757001E0,2.1523502E0,5.094063E1,6.717741E0,2.6551223E0,4.870214E0,1.2776841E2,2.314831E1],"tree_param":{"num_deleted":"0","num_feature":"17","num_nodes":"55","size_leaf_vector":"1"}},{"base_weights":[-4.9845014E-2,1.2663623E0,-3.7378334E-2,6.28244E-1,1.7136045E0,-3.3299193E-1,8.652748E-1,1.850036E0,1.5416223E0,-9.786621E-1,5.33058E-1,1.0574006E0,7.296728E-3,1.8613229E0,7.00853E-1,1.1127896E0,1.7181695E0,1.4486546E-2,-1.0608697E0,8.871475E-1,-3.2715227E-2,6.282E-1,1.3217353E0,-7.2503394E-1,5.6054044E-1,9.979122E-1,1.8714589E0,-2.7757664E-3,3.385546E-2,-2.7329106E-2,1.3129454E0,1.8050077E0,1.2351156E0,-2.7615229E-2,4.0166035E-2,-3.3265077E-2,5.679329E-3,5.073776E-3,3.9443135E-2,2.654848E-2,-1.5480745E-2,4.521239E-2,1.815773E-2,2.6870426E-2,-3.1178627E-2,-3.013963E-2,2.1425348E-2,3.969268E-2,-9.3259907E-4,5.629546E-2,1.8916866E-2,-1.1211877E-2,3.506828E-2,4.159348E-2,-2.861867E-2,5.4490097E-2,4.2572324E-3,4.77443E-3,4.5639668E-2],"categories":[],"categories_nodes":[],"categories_segments":[],"categories_sizes":[],"default_left":[0,0,0,0,0,0,0,0,0,0,0,0,0,0,0,0,0,0,0,0,0,0,0,0,0,0,0,0,0,0,0,0,0,0,0,0,0,0,0,0,0,0,0,0,0,0,0,0,0,0,0,0,0,0,0,0,0,0,0],"id":13,"left_children":[1,3,-1,5,7,9,11,13,15,17,19,21,23,25,27,29,31,33,35,37,-1,39,41,43,45,47,49,-1,-1,51,53,55,57,-1,-1,-1,-1,-1,-1,-1,-1,-1,-1,-1,-1,-1,-1,-1,-1,-1,-1,-1,-1,-1,-1,-1,-1,-1,-1],"loss_changes":[3.309088E3,2.8452686E2,0E0,9.460347E1,1.0939453E1,4.6713573E1,5.4775772E1,2.88208E0,1.8227844E1,3.9079208E0,2.1622717E1,2.9975616E1,2.5450068E1,9.244385E-1,1.7137907E0,1.8386963E1,5.5979614E0,6.9672966E0,2.8511696E0,9.003576E0,0E0,3.1420265E1,2.128238E1,1.4701098E1,9.320537E0,1.9966087E0,7.8808594E-1,0E0,0E0,5.8193274E0,1.2724396E1,2.681427E0,9.489243E0,0E0,0E0,0E0,0E0,0E0,0E0,0E0,0E0,0E0,0E0,0E0,0E0,0E0,0E0,0E0,0E0,0E0,0E0,0E0,0E0,0E0,0E0,0E0,0E0,0E0,0E0],"parents":[2147483647,0,0,1,1,3,3,4,4,5,5,6,6,7,7,8,8,9,9,10,10,11,11,12,12,13,13,14,14,15,15,16,16,17,17,18,18,19,19,21,21,22,22,23,23,24,24,25,25,26,26,29,29,30,30,31,31,32,32],"right_children":[2,4,-1,6,8,10,12,14,16,18,20,22,24,26,28,30,32,34,36,38,-1,40,42,44,46,48,50,-1,-1,52,54,56,58,-1,-1,-1,-1,-1,-1,-1,-1,-1,-1,-1,-1,-1,-1,-1,-1,-1,-1,-1,-1,-1,-1,-1,-1,-1,-1],"split_conditions":[1.1E1,1.24E1,-3.7378334E-2,6.8E1,2.207E2,1.65E1,1.1E1,2.2E1,7E0,6.16E2,6E0,3E0,8.8E1,8.1E1,2.7E0,0E0,3.5E0,6.159E2,1.1E1,3.4E0,-3.2715227E-2,3.1E0,2.232E2,6.6E0,8.377E2,6.168E2,5.1E0,-2.7757664E-3,3.385546E-2,1.96E1,2.18E1,2.04E1,1.56E1,-2.7615229E-2,4.0166035E-2,-3.3265077E-2,5.679329E-3,5.073776E-3,3.9443135E-2,2.654848E-2,-1.5480745E-2,4.521239E-2,1.815773E-2,2.6870426E-2,-3.1178627E-2,-3.013963E-2,2.1425348E-2,3.969268E-2,-9.3259907E-4,5.629546E-2,1.8916866E-2,-1.1211877E-2,3.506828E-2,4.159348E-2,-2.861867E-2,5.4490097E-2,4.2572324E-3,4.77443E-3,4.5639668E-2],"split_indices":[14,12,0,1,15,0,13,0,13,10,13,13,1,9,3,16,4,10,4,16,0,4,15,8,2,10,5,0,0,8,0,8,12,0,0,0,0,0,0,0,0,0,0,0,0,0,0,0,0,0,0,0,0,0,0,0,0,0,0],"split_type":[0,0,0,0,0,0,0,0,0,0,0,0,0,0,0,0,0,0,0,0,0,0,0,0,0,0,0,0,0,0,0,0,0,0,0,0,0,0,0,0,0,0,0,0,0,0,0,0,0,0,0,0,0,0,0,0,0,0,0],"sum_hessian":[2.0999204E3,9.9973584E2,1.1001844E3,4.1294983E2,5.86786E2,8.1606094E1,3.3134375E2,3.2177112E2,2.6501492E2,4.6676857E1,3.492924E1,2.7053156E2,6.0812176E1,3.1802786E2,3.7432446E0,7.941621E1,1.8559871E2,3.6312764E0,4.3045578E1,2.9047699E1,5.8815417E0,1.0439761E2,1.6613394E2,2.6036737E1,3.477544E1,4.8441086E0,3.1318375E2,1.5855175E0,2.1577272E0,1.19889145E1,6.742729E1,1.5499817E2,3.0600548E1,2.3073049E0,1.3239715E0,4.156394E1,1.4816402E0,1.1363232E1,1.7684467E1,8.5450264E1,1.8947348E1,1.3111307E2,3.502088E1,3.9280803E0,2.2108658E1,2.6132898E0,3.216215E1,3.463724E0,1.3803846E0,3.1140262E2,1.781127E0,9.83005E0,2.1588638E0,6.568584E1,1.7414593E0,1.5385796E2,1.1402152E0,6.7564263E0,2.3844122E1],"tree_param":{"num_deleted":"0","num_feature":"17","num_nodes":"59","size_leaf_vector":"1"}},{"base_weights":[-4.90295E-2,1.2294875E0,-3.710586E-2,6.0923386E-1,1.6649215E0,8.7991476E-1,-1.843657E-1,1.7824177E0,1.472408E0,3.6840436E-1,1.2102495E0,-1.1299627E0,4.1237673E-1,3.1453182E-3,1.7883538E0,1.0292436E0,1.6574568E0,8.5416245E-1,-7.8999454E-1,5.7953894E-1,1.3735299E0,-1.1835775E0,7.1963123E-3,-2.6839688E-1,6.989933E-1,1.7950222E0,1.2430947E-2,-7.522066E-2,1.2342118E0,1.762965E0,1.0808092E0,4.2743765E-2,1.5472199E-2,4.1605745E-2,-2.728894E-2,-1.8129904E-3,3.375234E-2,2.2153512E-2,4.6698853E-2,-3.6871113E-2,1.7412293E-3,-1.4986205E-2,2.4985837E-2,8.572167E-3,3.593792E-2,1.6465792E-2,5.4006036E-2,-1.3927718E-2,3.4293454E-2,4.1484598E-2,2.0871023E-3,2.7480207E-2,5.3892653E-2,3.836221E-2,-1.6382692E-2],"categories":[],"categories_nodes":[],"categories_segments":[],"categories_sizes":[],"default_left":[0,0,0,0,0,0,0,0,0,0,0,0,0,0,0,0,0,0,0,0,0,0,0,0,0,0,0,0,0,0,0,0,0,0,0,0,0,0,0,0,0,0,0,0,0,0,0,0,0,0,0,0,0,0,0],"id":14,"left_children":[1,3,-1,5,7,9,11,13,15,17,19,21,23,-1,25,27,29,31,33,35,37,39,-1,41,43,45,-1,47,49,51,53,-1,-1,-1,-1,-1,-1,-1,-1,-1,-1,-1,-1,-1,-1,-1,-1,-1,-1,-1,-1,-1,-1,-1,-1],"loss_changes":[3.153485E3,2.6908887E2,0E0,8.911127E1,1.0653564E1,5.1755234E1,6.035852E1,3.3953857E0,1.701062E1,6.969739E1,1.8490082E1,3.3196297E0,1.302782E1,0E0,2.5404053E0,1.5909294E1,7.790436E0,1.6047394E1,1.0834908E1,1.4117698E1,1.6064056E1,2.3259964E0,0E0,5.5629044E0,9.263355E0,1.3122559E0,0E0,6.1610537E0,1.0113144E1,2.126892E0,9.467724E0,0E0,0E0,0E0,0E0,0E0,0E0,0E0,0E0,0E0,0E0,0E0,0E0,0E0,0E0,0E0,0E0,0E0,0E0,0E0,0E0,0E0,0E0,0E0,0E0],"parents":[2147483647,0,0,1,1,3,3,4,4,5,5,6,6,7,7,8,8,9,9,10,10,11,11,12,12,14,14,15,15,16,16,17,17,18,18,19,19,20,20,21,21,23,23,24,24,25,25,27,27,28,28,29,29,30,30],"right_children":[2,4,-1,6,8,10,12,14,16,18,20,22,24,-1,26,28,30,32,34,36,38,40,-1,42,44,46,-1,48,50,52,54,-1,-1,-1,-1,-1,-1,-1,-1,-1,-1,-1,-1,-1,-1,-1,-1,-1,-1,-1,-1,-1,-1,-1,-1],"split_conditions":[1.1E1,1.24E1,-3.710586E-2,1E1,2.21E2,3E0,8E1,7.5E1,7E0,3.1E0,6.8E1,6.1E0,8.3E1,3.1453182E-3,5.1E0,0E0,1E1,6.5E0,2.178E2,3.4E0,6E-1,1.16E1,7.1963123E-3,8.434E2,6.188E2,6.116E2,1.2430947E-2,1.96E1,1.76E1,7.2E1,1.92E1,4.2743765E-2,1.5472199E-2,4.1605745E-2,-2.728894E-2,-1.8129904E-3,3.375234E-2,2.2153512E-2,4.6698853E-2,-3.6871113E-2,1.7412293E-3,-1.4986205E-2,2.4985837E-2,8.572167E-3,3.593792E-2,1.6465792E-2,5.4006036E-2,-1.3927718E-2,3.4293454E-2,4.1484598E-2,2.0871023E-3,2.7480207E-2,5.3892653E-2,3.836221E-2,-1.6382692E-2],"split_indices":[14,12,0,13,15,13,1,9,13,4,1,5,9,0,5,16,13,0,15,16,16,12,0,2,10,10,0,8,12,1,0,0,0,0,0,0,0,0,0,0,0,0,0,0,0,0,0,0,0,0,0,0,0,0,0],"split_type":[0,0,0,0,0,0,0,0,0,0,0,0,0,0,0,0,0,0,0,0,0,0,0,0,0,0,0,0,0,0,0,0,0,0,0,0,0,0,0,0,0,0,0,0,0,0,0,0,0,0,0,0,0,0,0],"sum_hessian":[2.0744849E3,9.9908746E2,1.0753975E3,4.1307797E2,5.860095E2,3.0793777E2,1.0514018E2,3.5877875E2,2.2723076E2,1.21662865E2,1.8627492E2,4.033379E1,6.48064E1,1.3308914E0,3.5744785E2,6.886683E1,1.5836394E2,8.590321E1,3.5759655E1,3.924208E1,1.4703284E2,3.8945454E1,1.388335E0,1.9219553E1,4.558684E1,3.5541647E2,2.0313687E0,1.0878956E1,5.798787E1,1.3213089E2,2.6233044E1,3.0785044E1,5.5118168E1,1.3111098E0,3.4448547E1,1.8467304E1,2.0774775E1,3.403055E1,1.1300229E2,3.7579674E1,1.3657782E0,1.6336973E1,2.8825798E0,2.5794636E1,1.9792206E1,1.9137645E0,3.5350272E2,8.715031E0,2.163925E0,5.125979E1,6.7280836E0,6.099553E0,1.2603134E2,2.3578455E1,2.6545894E0],"tree_param":{"num_deleted":"0","num_feature":"17","num_nodes":"55","size_leaf_vector":"1"}},{"base_weights":[-4.8188064E-2,1.1949784E0,-3.6845207E-2,5.914956E-1,1.6196052E0,8.5254306E-1,-1.7985524E-1,1.7521899E0,1.4533495E0,3.5810116E-1,1.1705569E0,-1.1189768E0,3.9975885E-1,1.7632852E0,6.437313E-1,1.0444819E0,1.6227021E0,8.254407E-1,-7.762457E-1,5.611066E-1,1.3283311E0,-1.1731699E0,7.059156E-3,-2.6079112E-1,6.7549276E-1,9.3901855E-1,1.77304E0,-3.6187991E-3,3.200519E-2,-2.5105027E-2,1.2311382E0,1.7119775E0,1.1746916E0,3.7385706E-2,1.1583013E-2,4.0554136E-2,-2.6877986E-2,-1.7621947E-3,3.257884E-2,4.4753116E-2,1.9247724E-2,-3.6575306E-2,1.7108535E-3,-1.4639617E-2,2.42989E-2,1.4255691E-2,5.0960533E-2,3.7811134E-2,-1.7033296E-3,2.1456504E-2,5.3368915E-2,-1.0754496E-2,3.355006E-2,3.9054684E-2,-2.8505089E-2,5.1750466E-2,1.4492743E-2,3.843643E-2,-2.5758676E-2],"categories":[],"categories_nodes":[],"categories_segments":[],"categories_sizes":[],"default_left":[0,0,0,0,0,0,0,0,0,0,0,0,0,0,0,0,0,0,0,0,0,0,0,0,0,0,0,0,0,0,0,0,0,0,0,0,0,0,0,0,0,0,0,0,0,0,0,0,0,0,0,0,0,0,0,0,0,0,0],"id":15,"left_children":[1,3,-1,5,7,9,11,13,15,17,19,21,23,25,27,29,31,33,35,37,39,41,-1,43,45,47,49,-1,-1,51,53,55,57,-1,-1,-1,-1,-1,-1,-1,-1,-1,-1,-1,-1,-1,-1,-1,-1,-1,-1,-1,-1,-1,-1,-1,-1,-1,-1],"loss_changes":[3.0077173E3,2.5490527E2,0E0,8.3508194E1,1.0359741E1,4.8240555E1,5.7872887E1,2.8112183E0,1.6698303E1,6.561906E1,1.7321503E1,3.2503433E0,1.2192098E1,8.8494873E-1,1.6664917E0,1.6123627E1,5.4293213E0,1.5655037E1,1.0451477E1,1.319729E1,1.5712982E1,2.284401E0,0E0,5.2972145E0,8.788919E0,1.9387808E0,6.845093E-1,0E0,0E0,5.340006E0,1.1821724E1,1.6169739E0,8.485188E0,0E0,0E0,0E0,0E0,0E0,0E0,0E0,0E0,0E0,0E0,0E0,0E0,0E0,0E0,0E0,0E0,0E0,0E0,0E0,0E0,0E0,0E0,0E0,0E0,0E0,0E0],"parents":[2147483647,0,0,1,1,3,3,4,4,5,5,6,6,7,7,8,8,9,9,10,10,11,11,12,12,13,13,14,14,15,15,16,16,17,17,18,18,19,19,20,20,21,21,23,23,24,24,25,25,26,26,29,29,30,30,31,31,32,32],"right_children":[2,4,-1,6,8,10,12,14,16,18,20,22,24,26,28,30,32,34,36,38,40,42,-1,44,46,48,50,-1,-1,52,54,56,58,-1,-1,-1,-1,-1,-1,-1,-1,-1,-1,-1,-1,-1,-1,-1,-1,-1,-1,-1,-1,-1,-1,-1,-1,-1,-1],"split_conditions":[1.1E1,1.24E1,-3.6845207E-2,1E1,2.207E2,3E0,8E1,2.2E1,7E0,3.1E0,6.8E1,6.1E0,8.3E1,8.1E1,2.7E0,0E0,1E1,2.194E2,2.178E2,3.4E0,2.231E2,1.16E1,7.059156E-3,8.434E2,1.54E1,6.168E2,-2.1E0,-3.6187991E-3,3.200519E-2,1.96E1,2.18E1,3.6E0,1.99E1,3.7385706E-2,1.1583013E-2,4.0554136E-2,-2.6877986E-2,-1.7621947E-3,3.257884E-2,4.4753116E-2,1.9247724E-2,-3.6575306E-2,1.7108535E-3,-1.4639617E-2,2.42989E-2,1.4255691E-2,5.0960533E-2,3.7811134E-2,-1.7033296E-3,2.1456504E-2,5.3368915E-2,-1.0754496E-2,3.355006E-2,3.9054684E-2,-2.8505089E-2,5.1750466E-2,1.4492743E-2,3.843643E-2,-2.5758676E-2],"split_indices":[14,12,0,13,15,13,1,0,13,4,1,5,9,9,3,16,13,15,15,16,15,12,0,2,0,10,16,0,0,8,0,16,0,0,0,0,0,0,0,0,0,0,0,0,0,0,0,0,0,0,0,0,0,0,0,0,0,0,0],"split_type":[0,0,0,0,0,0,0,0,0,0,0,0,0,0,0,0,0,0,0,0,0,0,0,0,0,0,0,0,0,0,0,0,0,0,0,0,0,0,0,0,0,0,0,0,0,0,0,0,0,0,0,0,0,0,0,0,0,0,0],"sum_hessian":[2.0483638E3,9.974714E2,1.0508925E3,4.1296106E2,5.845103E2,3.0846298E2,1.0449808E2,3.198772E2,2.6463315E2,1.2157166E2,1.8689131E2,3.952577E1,6.497231E1,3.161222E2,3.755018E0,7.960664E1,1.8502649E2,8.629238E1,3.5279278E1,3.9369865E1,1.4752144E2,3.813355E1,1.3922199E0,1.9150188E1,4.582212E1,4.8350277E0,3.1128717E2,1.5926862E0,2.1623316E0,1.1956784E1,6.764986E1,1.5193002E2,3.3096466E1,4.314069E1,4.315169E1,1.3303876E0,3.394889E1,1.8458593E1,2.091127E1,1.1821488E2,2.930656E1,3.6767475E1,1.3660737E0,1.6247087E1,2.9031005E0,3.954508E1,6.2770433E0,3.4545274E0,1.3805002E0,2.4114287E0,3.0887573E2,9.789169E0,2.1676147E0,6.591703E1,1.7328295E0,1.4993553E2,1.994499E0,3.1800371E1,1.2960937E0],"tree_param":{"num_deleted":"0","num_feature":"17","num_nodes":"59","size_leaf_vector":"1"}},{"base_weights":[-4.736754E-2,1.1626314E0,-3.6595732E-2,5.7474005E-1,1.5774112E0,-3.153204E-1,7.877521E-1,9.7484535E-1,1.610794E0,-9.4742143E-1,4.970794E-1,9.602652E-1,5.5993386E-3,-2.435595E-2,1.0708604E0,1.0009016E0,1.6384294E0,-1.0677029E0,-1.7832315E-1,8.145233E-1,-3.1710174E-2,2.932887E-1,1.104089E0,-6.978604E-1,5.175713E-1,5.230933E-1,1.4114202E0,-1.7570747E-1,1.3865765E0,1.794363E-1,1.6453395E0,-3.649863E-2,-1.4685701E-2,2.0873291E-2,-3.061071E-2,2.8540304E-2,-2.9921412E-2,2.080877E-2,-3.8019117E-2,4.2098027E-2,2.3385877E-2,2.6569102E-2,-3.0478137E-2,-2.9924098E-2,1.993535E-2,2.4663355E-2,-2.9209059E-2,4.4717226E-2,5.5354736E-3,-3.665148E-2,3.929574E-2,4.616971E-2,-6.508288E-3,-2.5358936E-2,3.4149244E-2,5.1775392E-2,4.5933027E-2],"categories":[],"categories_nodes":[],"categories_segments":[],"categories_sizes":[],"default_left":[0,0,0,0,0,0,0,0,0,0,0,0,0,0,0,0,0,0,0,0,0,0,0,0,0,0,0,0,0,0,0,0,0,0,0,0,0,0,0,0,0,0,0,0,0,0,0,0,0,0,0,0,0,0,0,0,0],"id":16,"left_children":[1,3,-1,5,7,9,11,13,15,17,19,21,23,-1,25,27,29,31,33,35,-1,37,39,41,43,45,47,49,51,53,55,-1,-1,-1,-1,-1,-1,-1,-1,-1,-1,-1,-1,-1,-1,-1,-1,-1,-1,-1,-1,-1,-1,-1,-1,-1,-1],"loss_changes":[2.8708438E3,2.4193152E2,0E0,7.86528E1,1.0163696E1,4.1846092E1,4.505739E1,6.556925E0,7.6500244E0,4.0333824E0,1.8578297E1,2.5922943E1,2.2458487E1,0E0,5.2114525E0,1.2251907E1,5.0047607E0,2.7867546E0,6.1384172E0,8.481861E0,0E0,3.2052437E1,2.0726288E1,1.4131492E1,8.696129E0,6.9838486E0,1.5777016E0,1.3130579E1,5.2321396E0,4.5000496E0,2.168579E0,0E0,0E0,0E0,0E0,0E0,0E0,0E0,0E0,0E0,0E0,0E0,0E0,0E0,0E0,0E0,0E0,0E0,0E0,0E0,0E0,0E0,0E0,0E0,0E0,0E0,0E0],"parents":[2147483647,0,0,1,1,3,3,4,4,5,5,6,6,7,7,8,8,9,9,10,10,11,11,12,12,14,14,15,15,16,16,17,17,18,18,19,19,21,21,22,22,23,23,24,24,25,25,26,26,27,27,28,28,29,29,30,30],"right_children":[2,4,-1,6,8,10,12,14,16,18,20,22,24,-1,26,28,30,32,34,36,-1,38,40,42,44,46,48,50,52,54,56,-1,-1,-1,-1,-1,-1,-1,-1,-1,-1,-1,-1,-1,-1,-1,-1,-1,-1,-1,-1,-1,-1,-1,-1,-1,-1],"split_conditions":[1.1E1,1.24E1,-3.6595732E-2,6.8E1,7.1E1,1.65E1,1.1E1,8.339E2,1.62E1,8.5E1,6E0,2E0,8.8E1,-2.435595E-2,-8.480481E-1,6.16E2,6.09E2,4.1E0,8.393E2,-2.2495106E-1,-3.1710174E-2,8E0,2.211E2,6.6E0,8.377E2,8.4E2,2.245E2,1.72E1,4.3E0,1.92E1,2.207E2,-3.649863E-2,-1.4685701E-2,2.0873291E-2,-3.061071E-2,2.8540304E-2,-2.9921412E-2,2.080877E-2,-3.8019117E-2,4.2098027E-2,2.3385877E-2,2.6569102E-2,-3.0478137E-2,-2.9924098E-2,1.993535E-2,2.4663355E-2,-2.9209059E-2,4.4717226E-2,5.5354736E-3,-3.665148E-2,3.929574E-2,4.616971E-2,-6.508288E-3,-2.5358936E-2,3.4149244E-2,5.1775392E-2,4.5933027E-2],"split_indices":[14,12,0,1,1,0,13,2,0,9,13,13,1,0,6,10,10,5,2,6,0,0,15,8,2,2,15,8,5,8,15,0,0,0,0,0,0,0,0,0,0,0,0,0,0,0,0,0,0,0,0,0,0,0,0,0,0],"split_type":[0,0,0,0,0,0,0,0,0,0,0,0,0,0,0,0,0,0,0,0,0,0,0,0,0,0,0,0,0,0,0,0,0,0,0,0,0,0,0,0,0,0,0,0,0,0,0,0,0,0,0,0,0,0,0,0,0],"sum_hessian":[2.0215569E3,9.948694E2,1.0266875E3,4.1253925E2,5.8233014E2,7.957184E1,3.329674E2,3.2153595E1,5.501765E2,4.465842E1,3.4913418E1,2.7261188E2,6.035553E1,1.2595452E0,3.089405E1,2.5462269E1,5.2471423E2,3.8282986E1,6.3754334E0,2.9386662E1,5.526758E0,4.8896366E1,2.2371552E2,2.5270403E1,3.5085125E1,1.2816146E1,1.8077904E1,6.420168E0,1.90421E1,2.6005294E0,5.221137E2,2.9564116E1,8.718869E0,3.2133796E0,3.1620538E0,2.776502E1,1.62164E0,3.9355965E1,9.540401E0,1.1468005E2,1.0903546E2,3.9285266E0,2.1341875E1,2.590217E0,3.249491E1,1.1057741E1,1.758404E0,1.6780407E1,1.2974976E0,3.871674E0,2.5484939E0,1.7426006E1,1.6160932E0,1.314348E0,1.2861814E0,2.9799875E2,2.2411499E2],"tree_param":{"num_deleted":"0","num_feature":"17","num_nodes":"57","size_leaf_vector":"1"}},{"base_weights":[-4.673716E-2,1.1313812E0,-3.635683E-2,5.576705E-1,1.5377927E0,8.02296E-1,-1.7487921E-1,1.6518872E0,1.3525262E0,3.3219343E-1,1.1034694E0,-1.101729E0,3.756225E-1,1.971297E-3,1.6577086E0,9.2934287E-1,1.5314521E0,7.699548E-1,-7.592252E-1,4.1349414E-1,1.2292473E0,-1.1571729E0,6.973041E-3,-2.610979E-1,6.392814E-1,1.6643168E0,1.0378306E-2,-9.727244E-2,1.1194935E0,1.6343322E0,9.7751534E-1,1.2884273E-2,3.8538296E-2,3.9057642E-2,-2.6367594E-2,-1.5989913E-2,2.7506372E-2,1.8916406E-2,4.1700494E-2,-3.6103714E-2,1.2148493E-3,-1.44935E-2,2.3227446E-2,7.319057E-3,3.346589E-2,1.4917997E-2,5.007773E-2,9.626033E-3,-3.566628E-2,3.7855674E-2,2.998192E-4,2.472818E-2,5.0017327E-2,3.4968548E-2,-1.6822169E-2],"categories":[],"categories_nodes":[],"categories_segments":[],"categories_sizes":[],"default_left":[0,0,0,0,0,0,0,0,0,0,0,0,0,0,0,0,0,0,0,0,0,0,0,0,0,0,0,0,0,0,0,0,0,0,0,0,0,0,0,0,0,0,0,0,0,0,0,0,0,0,0,0,0,0,0],"id":17,"left_children":[1,3,-1,5,7,9,11,13,15,17,19,21,23,-1,25,27,29,31,33,35,37,39,-1,41,43,45,-1,47,49,51,53,-1,-1,-1,-1,-1,-1,-1,-1,-1,-1,-1,-1,-1,-1,-1,-1,-1,-1,-1,-1,-1,-1,-1,-1],"loss_changes":[2.7407083E3,2.3062512E2,0E0,7.41922E1,1.0037598E1,4.351906E1,5.361584E1,3.1669312E0,1.5748566E1,5.90975E1,1.5850174E1,3.16185E0,1.1273989E1,0E0,2.487976E0,1.3761215E1,7.398041E0,1.4851891E1,9.917889E0,1.50540085E1,1.4420593E1,2.1393929E0,0E0,4.990752E0,8.591024E0,1.196167E0,0E0,5.7900243E0,9.320183E0,2.1352844E0,8.527649E0,0E0,0E0,0E0,0E0,0E0,0E0,0E0,0E0,0E0,0E0,0E0,0E0,0E0,0E0,0E0,0E0,0E0,0E0,0E0,0E0,0E0,0E0,0E0,0E0],"parents":[2147483647,0,0,1,1,3,3,4,4,5,5,6,6,7,7,8,8,9,9,10,10,11,11,12,12,14,14,15,15,16,16,17,17,18,18,19,19,20,20,21,21,23,23,24,24,25,25,27,27,28,28,29,29,30,30],"right_children":[2,4,-1,6,8,10,12,14,16,18,20,22,24,-1,26,28,30,32,34,36,38,40,-1,42,44,46,-1,48,50,52,54,-1,-1,-1,-1,-1,-1,-1,-1,-1,-1,-1,-1,-1,-1,-1,-1,-1,-1,-1,-1,-1,-1,-1,-1],"split_conditions":[1.1E1,1.24E1,-3.635683E-2,1E1,2.21E2,3E0,8E1,7.5E1,7E0,3.1E0,6.2E1,6.1E0,8.3E1,1.971297E-3,5.1E0,0E0,1E1,4.5E0,2.178E2,4.1E0,6E-1,1.16E1,6.973041E-3,8.434E2,6.188E2,6.116E2,1.0378306E-2,1.9E0,1.76E1,7.2E1,1.92E1,1.2884273E-2,3.8538296E-2,3.9057642E-2,-2.6367594E-2,-1.5989913E-2,2.7506372E-2,1.8916406E-2,4.1700494E-2,-3.6103714E-2,1.2148493E-3,-1.44935E-2,2.3227446E-2,7.319057E-3,3.346589E-2,1.4917997E-2,5.007773E-2,9.626033E-3,-3.566628E-2,3.7855674E-2,2.998192E-4,2.472818E-2,5.0017327E-2,3.4968548E-2,-1.6822169E-2],"split_indices":[14,12,0,13,15,13,1,9,13,4,1,5,9,0,5,16,13,3,15,5,16,12,0,2,10,10,0,3,12,1,0,0,0,0,0,0,0,0,0,0,0,0,0,0,0,0,0,0,0,0,0,0,0,0,0],"split_type":[0,0,0,0,0,0,0,0,0,0,0,0,0,0,0,0,0,0,0,0,0,0,0,0,0,0,0,0,0,0,0,0,0,0,0,0,0,0,0,0,0,0,0,0,0,0,0,0,0,0,0,0,0,0,0],"sum_hessian":[1.9945935E3,9.9179486E2,1.00279865E3,4.1223523E2,5.7955963E2,3.0896512E2,1.03270134E2,3.5377472E2,2.257849E2,1.2146811E2,1.87497E2,3.8108166E1,6.516197E1,1.3385668E0,3.5243616E2,6.893602E1,1.5684886E2,8.690541E1,3.4562695E1,2.957054E1,1.5792645E2,3.6715057E1,1.3931078E0,1.9084284E1,4.6077686E1,3.5040222E2,2.0339386E0,1.084934E1,5.808668E1,1.3063603E2,2.621284E1,5.340735E1,3.3498066E1,1.3548622E0,3.3207832E1,1.0246222E1,1.9324318E1,3.447275E1,1.23453705E2,3.5344334E1,1.3707259E0,1.6153679E1,2.9306054E0,2.600464E1,2.0073044E1,1.9057277E0,3.484965E2,8.355003E0,2.4943368E0,5.1359333E1,6.727349E0,6.1172733E0,1.2451875E2,2.3572552E1,2.6402867E0],"tree_param":{"num_deleted":"0","num_feature":"17","num_nodes":"55","size_leaf_vector":"1"}},{"base_weights":[-4.6008278E-2,1.1021547E0,-3.6127932E-2,5.42008E-1,1.5006694E0,-3.069248E-1,7.4150985E-1,9.099798E-1,1.5338639E0,-9.2898506E-1,4.7015366E-1,9.030567E-1,2.9991427E-3,-2.4286982E-2,1.0028791E0,9.399428E-1,1.5609785E0,-1.0509279E0,-1.6488007E-1,7.6518077E-1,-3.1096067E-2,2.696365E-1,1.0393648E0,-6.794563E-1,4.87176E-1,4.766261E-1,1.3314303E0,-1.9703047E-1,1.3119044E0,1.4818159E-1,1.5677942E0,-3.6022395E-2,-1.4555072E-2,2.0676488E-2,-3.0208912E-2,-1.7575644E-2,2.8399512E-2,1.9490696E-2,-3.759527E-2,3.994139E-2,2.1738736E-2,2.5983747E-2,-2.996816E-2,-3.241362E-2,1.8697314E-2,-1.906973E-2,2.6001684E-2,4.487137E-2,1.67773E-2,-3.643495E-2,3.766543E-2,4.381172E-2,-6.9434266E-3,-2.541215E-2,3.274359E-2,4.8108328E-2,3.9737727E-2],"categories":[],"categories_nodes":[],"categories_segments":[],"categories_sizes":[],"default_left":[0,0,0,0,0,0,0,0,0,0,0,0,0,0,0,0,0,0,0,0,0,0,0,0,0,0,0,0,0,0,0,0,0,0,0,0,0,0,0,0,0,0,0,0,0,0,0,0,0,0,0,0,0,0,0,0,0],"id":18,"left_children":[1,3,-1,5,7,9,11,13,15,17,19,21,23,-1,25,27,29,31,33,35,-1,37,39,41,43,45,47,49,51,53,55,-1,-1,-1,-1,-1,-1,-1,-1,-1,-1,-1,-1,-1,-1,-1,-1,-1,-1,-1,-1,-1,-1,-1,-1,-1,-1],"loss_changes":[2.6186875E3,2.199347E2,0E0,7.0115326E1,9.922852E0,3.8734924E1,3.989502E1,6.1109123E0,7.310547E0,3.95813E0,1.6746338E1,2.341101E1,2.0496052E1,0E0,4.8840904E0,1.1385984E1,4.772827E0,2.6426811E0,5.935911E0,8.053825E0,0E0,2.9717882E1,1.9756287E1,1.3577724E1,8.412441E0,6.5498447E0,1.585556E0,1.2395529E1,4.9113197E0,4.3040485E0,2.3807373E0,0E0,0E0,0E0,0E0,0E0,0E0,0E0,0E0,0E0,0E0,0E0,0E0,0E0,0E0,0E0,0E0,0E0,0E0,0E0,0E0,0E0,0E0,0E0,0E0,0E0,0E0],"parents":[2147483647,0,0,1,1,3,3,4,4,5,5,6,6,7,7,8,8,9,9,10,10,11,11,12,12,14,14,15,15,16,16,17,17,18,18,19,19,21,21,22,22,23,23,24,24,25,25,26,26,27,27,28,28,29,29,30,30],"right_children":[2,4,-1,6,8,10,12,14,16,18,20,22,24,-1,26,28,30,32,34,36,-1,38,40,42,44,46,48,50,52,54,56,-1,-1,-1,-1,-1,-1,-1,-1,-1,-1,-1,-1,-1,-1,-1,-1,-1,-1,-1,-1,-1,-1,-1,-1,-1,-1],"split_conditions":[1.1E1,1.24E1,-3.6127932E-2,6.8E1,7.1E1,1.65E1,1.1E1,8.339E2,1.62E1,8.5E1,6E0,2E0,8.8E1,-2.4286982E-2,-8.480481E-1,6.16E2,6.09E2,4.1E0,8.393E2,2.8E0,-3.1096067E-2,8E0,2.211E2,6.6E0,-1.1E0,1.46E1,1.94E1,1.72E1,4.3E0,1.92E1,3.5E0,-3.6022395E-2,-1.4555072E-2,2.0676488E-2,-3.0208912E-2,-1.7575644E-2,2.8399512E-2,1.9490696E-2,-3.759527E-2,3.994139E-2,2.1738736E-2,2.5983747E-2,-2.996816E-2,-3.241362E-2,1.8697314E-2,-1.906973E-2,2.6001684E-2,4.487137E-2,1.67773E-2,-3.643495E-2,3.766543E-2,4.381172E-2,-6.9434266E-3,-2.541215E-2,3.274359E-2,4.8108328E-2,3.9737727E-2],"split_indices":[14,12,0,1,1,0,13,2,0,9,13,13,1,0,6,10,10,5,2,5,0,0,15,8,16,12,8,8,5,8,4,0,0,0,0,0,0,0,0,0,0,0,0,0,0,0,0,0,0,0,0,0,0,0,0,0,0],"split_type":[0,0,0,0,0,0,0,0,0,0,0,0,0,0,0,0,0,0,0,0,0,0,0,0,0,0,0,0,0,0,0,0,0,0,0,0,0,0,0,0,0,0,0,0,0,0,0,0,0,0,0,0,0,0,0,0,0],"sum_hessian":[1.967137E3,9.8789703E2,9.792399E2,4.1164896E2,5.762481E2,7.822834E1,3.334206E2,3.2171776E1,5.440763E2,4.333927E1,3.4889072E1,2.733938E2,6.0026814E1,1.2535938E0,3.091818E1,2.5311716E1,5.187646E2,3.705097E1,6.288301E0,2.958762E1,5.301452E0,4.8941624E1,2.2445216E2,2.4744997E1,3.5281815E1,1.28256035E1,1.8092577E1,6.3554225E0,1.8956293E1,2.599841E0,5.1616473E2,2.8406322E1,8.644646E0,3.2120075E0,3.0762935E0,3.239709E0,2.6347912E1,3.962551E1,9.3161125E0,1.14753876E2,1.0969829E2,3.945682E0,2.0799314E1,2.2635076E0,3.3018307E1,3.166751E0,9.658853E0,1.4146037E1,3.9465396E0,3.8338194E0,2.521603E0,1.7341608E1,1.614686E0,1.3146883E0,1.2851529E0,4.4503098E2,7.113377E1],"tree_param":{"num_deleted":"0","num_feature":"17","num_nodes":"57","size_leaf_vector":"1"}},{"base_weights":[-4.540727E-2,1.0740217E0,-3.590852E-2,5.262927E-1,1.4657168E0,7.5617576E-1,-1.7029482E-1,1.5970399E0,1.3033049E0,3.081938E-1,1.0423774E0,-1.0855056E0,3.527015E-1,1.6080467E0,5.4328066E-1,9.102932E-1,1.469055E0,7.190012E-1,-7.428195E-1,1.1476061E0,2.7103025E-1,-1.1422743E0,6.886483E-3,-2.6112714E-1,6.049052E-1,8.1335497E-1,1.6178536E0,3.4423303E-2,-1.341671E-2,-8.329077E-2,1.0848887E0,1.5578532E0,1.0331135E0,3.7525237E-2,1.2126137E-2,3.7677187E-2,-2.587465E-2,3.833643E-2,1.3928075E-2,-6.699641E-3,3.7563264E-2,-3.566728E-2,7.581457E-4,-1.4343477E-2,2.223778E-2,1.2838509E-2,4.966198E-2,3.4228034E-2,-4.047264E-3,1.8136201E-2,4.8713136E-2,-3.0360162E-2,2.898519E-2,-1.2105264E-2,3.094736E-2,3.4555685E-2,-2.8595349E-2,3.6387347E-2,4.8859313E-2,3.4009017E-2,-2.5612844E-2],"categories":[],"categories_nodes":[],"categories_segments":[],"categories_sizes":[],"default_left":[0,0,0,0,0,0,0,0,0,0,0,0,0,0,0,0,0,0,0,0,0,0,0,0,0,0,0,0,0,0,0,0,0,0,0,0,0,0,0,0,0,0,0,0,0,0,0,0,0,0,0,0,0,0,0,0,0,0,0,0,0],"id":19,"left_children":[1,3,-1,5,7,9,11,13,15,17,19,21,23,25,27,29,31,33,35,37,39,41,-1,43,45,47,49,-1,51,53,55,57,59,-1,-1,-1,-1,-1,-1,-1,-1,-1,-1,-1,-1,-1,-1,-1,-1,-1,-1,-1,-1,-1,-1,-1,-1,-1,-1,-1,-1],"loss_changes":[2.5027837E3,2.1045007E2,0E0,6.611313E1,1.0149658E1,3.9424683E1,4.9712353E1,2.7525024E0,1.571814E1,5.3323456E1,1.5008118E1,3.078308E0,1.04275875E1,1.0915527E0,1.6103172E0,1.4019577E1,5.456238E0,1.429668E1,9.419085E0,1.4163712E1,1.1903007E1,2.008091E0,0E0,4.708234E0,8.087902E0,1.9482992E0,8.42041E-1,0E0,4.3588624E0,5.032119E0,1.0428726E1,1.6793213E0,7.389366E0,0E0,0E0,0E0,0E0,0E0,0E0,0E0,0E0,0E0,0E0,0E0,0E0,0E0,0E0,0E0,0E0,0E0,0E0,0E0,0E0,0E0,0E0,0E0,0E0,0E0,0E0,0E0,0E0],"parents":[2147483647,0,0,1,1,3,3,4,4,5,5,6,6,7,7,8,8,9,9,10,10,11,11,12,12,13,13,14,14,15,15,16,16,17,17,18,18,19,19,20,20,21,21,23,23,24,24,25,25,26,26,28,28,29,29,30,30,31,31,32,32],"right_children":[2,4,-1,6,8,10,12,14,16,18,20,22,24,26,28,30,32,34,36,38,40,42,-1,44,46,48,50,-1,52,54,56,58,60,-1,-1,-1,-1,-1,-1,-1,-1,-1,-1,-1,-1,-1,-1,-1,-1,-1,-1,-1,-1,-1,-1,-1,-1,-1,-1,-1,-1],"split_conditions":[1.1E1,1.24E1,-3.590852E-2,1E1,2.207E2,3E0,8E1,2.2E1,7E0,3.1E0,2.235E2,6.1E0,8.3E1,8.1E1,1.68E1,0E0,1E1,6.5E0,2.178E2,7.4E0,1E0,1.16E1,6.886483E-3,8.434E2,1.57E1,6.168E2,-2.1E0,3.4423303E-2,7.5E1,1.96E1,2.18E1,8.2E1,1.99E1,3.7525237E-2,1.2126137E-2,3.7677187E-2,-2.587465E-2,3.833643E-2,1.3928075E-2,-6.699641E-3,3.7563264E-2,-3.566728E-2,7.581457E-4,-1.4343477E-2,2.223778E-2,1.2838509E-2,4.966198E-2,3.4228034E-2,-4.047264E-3,1.8136201E-2,4.8713136E-2,-3.0360162E-2,2.898519E-2,-1.2105264E-2,3.094736E-2,3.4555685E-2,-2.8595349E-2,3.6387347E-2,4.8859313E-2,3.4009017E-2,-2.5612844E-2],"split_indices":[14,12,0,13,15,13,1,0,13,4,15,5,9,9,12,16,13,0,15,4,11,12,0,2,0,10,16,0,1,8,0,1,0,0,0,0,0,0,0,0,0,0,0,0,0,0,0,0,0,0,0,0,0,0,0,0,0,0,0,0,0],"split_type":[0,0,0,0,0,0,0,0,0,0,0,0,0,0,0,0,0,0,0,0,0,0,0,0,0,0,0,0,0,0,0,0,0,0,0,0,0,0,0,0,0,0,0,0,0,0,0,0,0,0,0,0,0,0,0,0,0,0,0,0,0],"sum_hessian":[1.9395432E3,9.8351953E2,9.5602374E2,4.1105798E2,5.7246155E2,3.0899878E2,1.0205922E2,3.116413E2,2.6082025E2,1.21264404E2,1.8773436E2,3.6722168E1,6.533705E1,3.0789926E2,3.7420523E0,7.9295044E1,1.815252E2,8.741326E1,3.3851143E1,1.6476851E2,2.2965853E1,3.5328487E1,1.3936822E0,1.9016983E1,4.632007E1,4.776542E0,3.031227E2,1.2856369E0,2.4564154E0,1.1929553E1,6.7365486E1,1.4866887E2,3.285633E1,3.1396408E1,5.6016853E1,1.3758963E0,3.2475246E1,1.3765515E2,2.7113369E1,1.5784592E1,7.1812606E0,3.3953968E1,1.374518E0,1.6062847E1,2.9541368E0,4.0846832E1,5.473235E0,3.3991258E0,1.3774166E0,2.3588786E0,3.0076382E2,1.2000251E0,1.2563905E0,9.763346E0,2.1662078E0,6.564339E1,1.7221036E0,2.840301E1,1.2026586E2,3.1573502E1,1.2828302E0],"tree_param":{"num_deleted":"0","num_feature":"17","num_nodes":"61","size_leaf_vector":"1"}},{"base_weights":[-4.4659346E-2,1.04784E0,-3.5698093E-2,5.12039E-1,1.4330187E0,-2.980001E-1,6.992178E-1,1.5474449E0,1.2492225E0,-9.1085213E-1,4.4674927E-1,8.817785E-1,1.1436014E-1,1.2740303E-3,1.5531465E0,8.411794E-1,1.4245112E0,-1.0342586E0,-1.5287074E-1,7.2178596E-1,-3.051007E-2,4.9749622E-1,1.1509571E0,3.927271E-1,-7.618548E-1,1.5597829E0,8.625405E-3,-1.2299036E-1,1.0206217E0,1.5268674E0,8.8393044E-1,-3.560226E-2,-1.42205255E-2,2.0347795E-2,-2.9770197E-2,2.5619525E-2,-3.0446565E-2,3.53469E-2,4.5169382E-3,1.6802873E-2,3.969484E-2,7.70818E-3,4.0848345E-2,-2.8796235E-2,1.7122857E-2,7.3772524E-3,4.6893258E-2,8.477641E-3,-3.5480402E-2,3.4762327E-2,-1.3726507E-3,2.2515114E-2,4.6781275E-2,3.1947736E-2,-1.731527E-2],"categories":[],"categories_nodes":[],"categories_segments":[],"categories_sizes":[],"default_left":[0,0,0,0,0,0,0,0,0,0,0,0,0,0,0,0,0,0,0,0,0,0,0,0,0,0,0,0,0,0,0,0,0,0,0,0,0,0,0,0,0,0,0,0,0,0,0,0,0,0,0,0,0,0,0],"id":20,"left_children":[1,3,-1,5,7,9,11,13,15,17,19,21,23,-1,25,27,29,31,33,35,-1,37,39,41,43,45,-1,47,49,51,53,-1,-1,-1,-1,-1,-1,-1,-1,-1,-1,-1,-1,-1,-1,-1,-1,-1,-1,-1,-1,-1,-1,-1,-1],"loss_changes":[2.394183E3,2.0137952E2,0E0,6.2546036E1,1.0037598E1,3.594946E1,3.558943E1,2.9082031E0,1.4793701E1,3.8685951E0,1.5156366E1,2.5763245E1,1.9974726E1,0E0,2.4515991E0,1.2172096E1,7.224365E0,2.5852318E0,5.697095E0,7.924715E0,0E0,2.5006987E1,1.4415527E1,7.79105E0,5.7698298E0,1.1154175E0,0E0,5.4133086E0,8.715252E0,2.0832214E0,7.766489E0,0E0,0E0,0E0,0E0,0E0,0E0,0E0,0E0,0E0,0E0,0E0,0E0,0E0,0E0,0E0,0E0,0E0,0E0,0E0,0E0,0E0,0E0,0E0,0E0],"parents":[2147483647,0,0,1,1,3,3,4,4,5,5,6,6,7,7,8,8,9,9,10,10,11,11,12,12,14,14,15,15,16,16,17,17,18,18,19,19,21,21,22,22,23,23,24,24,25,25,27,27,28,28,29,29,30,30],"right_children":[2,4,-1,6,8,10,12,14,16,18,20,22,24,-1,26,28,30,32,34,36,-1,38,40,42,44,46,-1,48,50,52,54,-1,-1,-1,-1,-1,-1,-1,-1,-1,-1,-1,-1,-1,-1,-1,-1,-1,-1,-1,-1,-1,-1,-1,-1],"split_conditions":[1.1E1,1.24E1,-3.5698093E-2,6.8E1,2.21E2,1.65E1,1E1,7.5E1,7E0,8.5E1,6E0,3E0,3.1E0,1.2740303E-3,5.1E0,0E0,1E1,4.1E0,8.393E2,-2.2495106E-1,-3.051007E-2,6.5E0,6E-1,1.2246469E-16,1E0,8.3E2,8.625405E-3,1.9E0,1.76E1,7.2E1,1.92E1,-3.560226E-2,-1.42205255E-2,2.0347795E-2,-2.9770197E-2,2.5619525E-2,-3.0446565E-2,3.53469E-2,4.5169382E-3,1.6802873E-2,3.969484E-2,7.70818E-3,4.0848345E-2,-2.8796235E-2,1.7122857E-2,7.3772524E-3,4.6893258E-2,8.477641E-3,-3.5480402E-2,3.4762327E-2,-1.3726507E-3,2.2515114E-2,4.6781275E-2,3.1947736E-2,-1.731527E-2],"split_indices":[14,12,0,1,15,0,13,9,13,9,13,13,4,0,5,16,13,5,2,6,0,0,16,6,11,2,0,3,12,1,0,0,0,0,0,0,0,0,0,0,0,0,0,0,0,0,0,0,0,0,0,0,0,0,0],"split_type":[0,0,0,0,0,0,0,0,0,0,0,0,0,0,0,0,0,0,0,0,0,0,0,0,0,0,0,0,0,0,0,0,0,0,0,0,0,0,0,0,0,0,0,0,0,0,0,0,0,0,0,0,0,0,0],"sum_hessian":[1.9114907E3,9.783301E2,9.3316064E2,4.101383E2,5.681918E2,7.687224E1,3.3326605E2,3.456072E2,2.2258453E2,4.204802E1,3.482422E1,2.5359868E2,7.966738E1,1.3362607E0,3.4427097E2,6.8628204E1,1.5395633E2,3.584726E1,6.200758E0,2.9742535E1,5.0816836E0,1.0563757E2,1.479611E2,6.087852E1,1.878886E1,3.4224396E2,2.026985E0,1.0817699E1,5.7810505E1,1.2791229E2,2.6044039E1,2.7298912E1,8.548347E0,3.212352E0,2.988406E0,2.8110949E1,1.6315862E0,3.485348E1,7.0784096E1,3.435069E1,1.1361042E2,5.4504925E1,6.373596E0,1.6601652E1,2.187209E0,1.0533171E0,3.4119064E2,8.353766E0,2.4639337E0,5.1104565E1,6.7059407E0,6.1088166E0,1.21803474E2,2.3414701E1,2.6293375E0],"tree_param":{"num_deleted":"0","num_feature":"17","num_nodes":"55","size_leaf_vector":"1"}},{"base_weights":[-4.404534E-2,1.0222931E0,-3.5496205E-2,4.9759278E-1,1.4019367E0,-2.931191E-1,6.786549E-1,1.5329062E0,1.2412562E0,-8.995324E-1,4.324911E-1,8.554748E-1,1.11435555E-1,1.5439839E0,4.9857786E-1,8.5976213E-1,1.4038833E0,-1.0232781E0,-1.5023123E-1,6.9806856E-1,-3.0247847E-2,4.8200306E-1,1.1178381E0,3.8073352E-1,-7.489089E-1,7.685317E-1,1.5537097E0,3.3052173E-2,-4.6764575E-2,-8.165498E-2,1.0255574E0,1.4870731E0,9.5702195E-1,-3.5347242E-2,-1.3913648E-2,1.9773616E-2,-2.9454583E-2,2.4796268E-2,-3.0016068E-2,2.9558213E-2,8.4810524E-4,3.8217925E-2,1.442626E-2,-2.9323369E-3,1.9169046E-2,-2.8398173E-2,1.6700018E-2,3.7097782E-2,7.339154E-4,1.6917171E-2,4.678794E-2,-3.0604541E-2,2.7926119E-2,-1.1864206E-2,3.0283574E-2,3.2722455E-2,-2.8439023E-2,2.1749556E-2,4.5734283E-2,-2.3962653E-4,3.6842115E-2],"categories":[],"categories_nodes":[],"categories_segments":[],"categories_sizes":[],"default_left":[0,0,0,0,0,0,0,0,0,0,0,0,0,0,0,0,0,0,0,0,0,0,0,0,0,0,0,0,0,0,0,0,0,0,0,0,0,0,0,0,0,0,0,0,0,0,0,0,0,0,0,0,0,0,0,0,0,0,0,0,0],"id":21,"left_children":[1,3,-1,5,7,9,11,13,15,17,19,21,23,25,27,29,31,33,35,37,-1,39,41,43,45,47,49,-1,51,53,55,57,59,-1,-1,-1,-1,-1,-1,-1,-1,-1,-1,-1,-1,-1,-1,-1,-1,-1,-1,-1,-1,-1,-1,-1,-1,-1,-1,-1,-1],"loss_changes":[2.290518E3,1.9331445E2,0E0,5.8957756E1,9.977783E0,3.4344524E1,3.3428574E1,2.7451782E0,1.4847504E1,3.7741432E0,1.4404587E1,2.441481E1,1.8955564E1,1.0914307E0,1.6065859E0,1.255814E1,5.2625732E0,2.5908089E0,5.4771895E0,7.5536947E0,0E0,2.4369272E1,1.41844635E1,7.7276487E0,5.572356E0,1.966198E0,8.5913086E-1,0E0,4.2251987E0,4.8141875E0,9.786232E0,3.1652832E0,8.126764E0,0E0,0E0,0E0,0E0,0E0,0E0,0E0,0E0,0E0,0E0,0E0,0E0,0E0,0E0,0E0,0E0,0E0,0E0,0E0,0E0,0E0,0E0,0E0,0E0,0E0,0E0,0E0,0E0],"parents":[2147483647,0,0,1,1,3,3,4,4,5,5,6,6,7,7,8,8,9,9,10,10,11,11,12,12,13,13,14,14,15,15,16,16,17,17,18,18,19,19,21,21,22,22,23,23,24,24,25,25,26,26,28,28,29,29,30,30,31,31,32,32],"right_children":[2,4,-1,6,8,10,12,14,16,18,20,22,24,26,28,30,32,34,36,38,-1,40,42,44,46,48,50,-1,52,54,56,58,60,-1,-1,-1,-1,-1,-1,-1,-1,-1,-1,-1,-1,-1,-1,-1,-1,-1,-1,-1,-1,-1,-1,-1,-1,-1,-1,-1,-1],"split_conditions":[1.1E1,1.24E1,-3.5496205E-2,6.8E1,2.207E2,1.65E1,1E1,2.2E1,7E0,8.5E1,6E0,3E0,3.1E0,8.1E1,1.68E1,0E0,3.5E0,4.1E0,8.393E2,-2.2495106E-1,-3.0247847E-2,2.194E2,2.231E2,8.6E1,1E0,8.365E2,-2.1E0,3.3052173E-2,7.5E1,1.96E1,2.18E1,1.36E1,1.56E1,-3.5347242E-2,-1.3913648E-2,1.9773616E-2,-2.9454583E-2,2.4796268E-2,-3.0016068E-2,2.9558213E-2,8.4810524E-4,3.8217925E-2,1.442626E-2,-2.9323369E-3,1.9169046E-2,-2.8398173E-2,1.6700018E-2,3.7097782E-2,7.339154E-4,1.6917171E-2,4.678794E-2,-3.0604541E-2,2.7926119E-2,-1.1864206E-2,3.0283574E-2,3.2722455E-2,-2.8439023E-2,2.1749556E-2,4.5734283E-2,-2.3962653E-4,3.6842115E-2],"split_indices":[14,12,0,1,15,0,13,0,13,9,13,13,4,9,12,16,4,5,2,6,0,15,15,9,11,2,16,0,1,8,0,12,12,0,0,0,0,0,0,0,0,0,0,0,0,0,0,0,0,0,0,0,0,0,0,0,0,0,0,0,0],"split_type":[0,0,0,0,0,0,0,0,0,0,0,0,0,0,0,0,0,0,0,0,0,0,0,0,0,0,0,0,0,0,0,0,0,0,0,0,0,0,0,0,0,0,0,0,0,0,0,0,0,0,0,0,0,0,0,0,0,0,0,0,0],"sum_hessian":[1.8836206E3,9.729608E2,9.1065985E2,4.0941888E2,5.6354193E2,7.616811E1,3.332508E2,3.0577032E2,2.5777158E2,4.136146E1,3.4806652E1,2.5366676E2,7.958402E1,3.0204266E2,3.7276502E0,7.892184E1,1.7884975E2,3.518507E1,6.176392E0,2.982451E1,4.9821415E0,1.058407E2,1.4782607E2,6.1036377E1,1.8547644E1,4.732491E0,2.9731018E2,1.2855413E0,2.4421086E0,1.1893837E1,6.7028E1,1.4881743E2,3.0032322E1,2.6687454E1,8.497615E0,3.2351472E0,2.9412448E0,2.8204655E1,1.6198565E0,4.9625587E1,5.6215115E1,1.1792712E2,2.9898943E1,2.1612495E1,3.942388E1,1.6347216E1,2.2004263E0,2.4987187E0,2.233772E0,2.3304849E0,2.949797E2,1.2019216E0,1.2401872E0,9.732248E0,2.1615891E0,6.531768E1,1.7103212E0,7.9158263E0,1.409016E2,6.7984495E0,2.3233871E1],"tree_param":{"num_deleted":"0","num_feature":"17","num_nodes":"61","size_leaf_vector":"1"}},{"base_weights":[-4.3415193E-2,9.981266E-1,-3.5302423E-2,4.8372623E-1,1.3728116E0,-2.883744E-1,6.5903103E-1,1.5037107E0,1.2129023E0,-8.884316E-1,4.187743E-1,8.0266005E-1,-3.3456606E-3,1.5146224E0,4.9126852E-1,8.3678097E-1,1.3741672E0,9.0025336E-2,-9.769732E-1,6.753765E-1,-2.9991072E-2,2.1389899E-1,9.30259E-1,-6.5298814E-1,4.3844563E-1,7.541804E-1,1.5242232E0,3.2512512E-2,-4.6268124E-2,-7.791502E-2,9.9806565E-1,1.4621476E0,9.500108E-1,-2.5716225E-2,3.888332E-2,-3.0897757E-2,7.273477E-3,-1.8473709E-2,2.5520641E-2,1.7060459E-2,-3.733456E-2,3.6345743E-2,1.8939817E-2,2.5460213E-2,-2.9289879E-2,-3.0049019E-2,1.7336875E-2,3.6466397E-2,7.187464E-4,4.587411E-2,1.3609543E-2,-3.0153768E-2,2.754688E-2,7.2915717E-3,-3.3818398E-2,3.1852614E-2,-2.8079066E-2,3.372302E-2,4.598027E-2,3.139297E-2,-2.5237225E-2],"categories":[],"categories_nodes":[],"categories_segments":[],"categories_sizes":[],"default_left":[0,0,0,0,0,0,0,0,0,0,0,0,0,0,0,0,0,0,0,0,0,0,0,0,0,0,0,0,0,0,0,0,0,0,0,0,0,0,0,0,0,0,0,0,0,0,0,0,0,0,0,0,0,0,0,0,0,0,0,0,0],"id":22,"left_children":[1,3,-1,5,7,9,11,13,15,17,19,21,23,25,27,29,31,33,35,37,-1,39,41,43,45,47,49,-1,51,53,55,57,59,-1,-1,-1,-1,-1,-1,-1,-1,-1,-1,-1,-1,-1,-1,-1,-1,-1,-1,-1,-1,-1,-1,-1,-1,-1,-1,-1,-1],"loss_changes":[2.1926028E3,1.8589954E2,0E0,5.5613113E1,9.887573E0,3.2817463E1,3.1779022E1,2.6085815E0,1.4439117E1,3.6991882E0,1.3698149E1,2.0422333E1,1.7654648E1,1.0390015E0,1.552097E0,1.18332405E1,5.2656555E0,6.1088023E0,2.7233658E0,7.5170946E0,0E0,2.6677315E1,1.8178284E1,1.2917419E1,7.932511E0,1.8968878E0,8.585205E-1,0E0,4.096633E0,4.609377E0,9.346512E0,1.7541504E0,6.6645317E0,0E0,0E0,0E0,0E0,0E0,0E0,0E0,0E0,0E0,0E0,0E0,0E0,0E0,0E0,0E0,0E0,0E0,0E0,0E0,0E0,0E0,0E0,0E0,0E0,0E0,0E0,0E0,0E0],"parents":[2147483647,0,0,1,1,3,3,4,4,5,5,6,6,7,7,8,8,9,9,10,10,11,11,12,12,13,13,14,14,15,15,16,16,17,17,18,18,19,19,21,21,22,22,23,23,24,24,25,25,26,26,28,28,29,29,30,30,31,31,32,32],"right_children":[2,4,-1,6,8,10,12,14,16,18,20,22,24,26,28,30,32,34,36,38,-1,40,42,44,46,48,50,-1,52,54,56,58,60,-1,-1,-1,-1,-1,-1,-1,-1,-1,-1,-1,-1,-1,-1,-1,-1,-1,-1,-1,-1,-1,-1,-1,-1,-1,-1,-1,-1],"split_conditions":[1.1E1,1.24E1,-3.5302423E-2,6.8E1,2.207E2,1.65E1,1.1E1,2.2E1,7E0,6.16E2,6E0,2E0,8.8E1,8.1E1,1.68E1,0E0,1E1,6.159E2,1.1E1,2.8E0,-2.9991072E-2,8E0,2.211E2,6.6E0,8.377E2,8.365E2,5.1E0,3.2512512E-2,7.5E1,1.9E0,2.18E1,8.2E1,1.99E1,-2.5716225E-2,3.888332E-2,-3.0897757E-2,7.273477E-3,-1.8473709E-2,2.5520641E-2,1.7060459E-2,-3.733456E-2,3.6345743E-2,1.8939817E-2,2.5460213E-2,-2.9289879E-2,-3.0049019E-2,1.7336875E-2,3.6466397E-2,7.187464E-4,4.587411E-2,1.3609543E-2,-3.0153768E-2,2.754688E-2,7.2915717E-3,-3.3818398E-2,3.1852614E-2,-2.8079066E-2,3.372302E-2,4.598027E-2,3.139297E-2,-2.5237225E-2],"split_indices":[14,12,0,1,15,0,13,0,13,10,13,13,1,9,12,16,13,10,4,5,0,0,15,8,2,2,5,0,1,4,0,1,0,0,0,0,0,0,0,0,0,0,0,0,0,0,0,0,0,0,0,0,0,0,0,0,0,0,0,0,0],"split_type":[0,0,0,0,0,0,0,0,0,0,0,0,0,0,0,0,0,0,0,0,0,0,0,0,0,0,0,0,0,0,0,0,0,0,0,0,0,0,0,0,0,0,0,0,0,0,0,0,0,0,0,0,0,0,0,0,0,0,0,0,0],"sum_hessian":[1.8554928E3,9.669641E2,8.8852875E2,4.0847067E2,5.584934E2,7.5462746E1,3.3300793E2,3.0248257E2,2.560108E2,4.0683792E1,3.477895E1,2.734924E2,5.951555E1,2.987666E2,3.715997E0,7.868383E1,1.7732698E2,3.374628E0,3.7309166E1,2.9894848E1,4.8841004E0,4.9191532E1,2.2430086E2,2.389724E1,3.561831E1,4.716864E0,2.9404974E2,1.2842894E0,2.4317076E0,1.1871836E1,6.6812E1,1.4483702E2,3.2489952E1,2.0521665E0,1.3224615E0,3.590541E1,1.4037541E0,3.2734437E0,2.6621405E1,4.00569E1,9.134632E0,1.139923E2,1.10308556E2,3.9460914E0,1.9951147E1,2.5987475E0,3.301956E1,2.4832687E0,2.2335954E0,2.9227985E2,1.7698888E0,1.1982956E0,1.233412E0,9.67955E0,2.1922855E0,6.5118645E1,1.6933554E0,2.792561E1,1.16911415E2,3.1224949E1,1.2650043E0],"tree_param":{"num_deleted":"0","num_feature":"17","num_nodes":"61","size_leaf_vector":"1"}},{"base_weights":[-4.2843655E-2,9.749016E-1,-3.5116337E-2,4.7032973E-1,1.3450269E0,6.743174E-1,-1.595801E-1,1.4598376E0,1.1628993E0,2.688399E-1,9.3319076E-1,-1.1065154E0,2.9196668E-1,6.992285E-4,1.465478E0,7.71623E-1,1.3341855E0,6.422958E-1,-7.221776E-1,1.0324535E0,2.137619E-1,6.4313696E-3,-3.5330433E-2,-2.8269994E-1,5.2313584E-1,1.4721738E0,7.253673E-3,-5.625304E-1,8.8641804E-1,1.4361997E0,8.068839E-1,9.6779475E-3,3.3811964E-2,3.5451073E-2,-2.5236795E-2,3.459277E-2,1.2219965E-2,-7.7448348E-3,3.4500428E-2,-1.4637625E-2,1.9561326E-2,9.931809E-3,4.848994E-2,1.1911997E-2,4.4311255E-2,2.6382277E-2,-3.6723122E-2,3.3560432E-2,6.4494414E-3,2.0308988E-2,4.407748E-2,2.9427148E-2,-1.746043E-2],"categories":[],"categories_nodes":[],"categories_segments":[],"categories_sizes":[],"default_left":[0,0,0,0,0,0,0,0,0,0,0,0,0,0,0,0,0,0,0,0,0,0,0,0,0,0,0,0,0,0,0,0,0,0,0,0,0,0,0,0,0,0,0,0,0,0,0,0,0,0,0,0,0],"id":23,"left_children":[1,3,-1,5,7,9,11,13,15,17,19,21,23,-1,25,27,29,31,33,35,37,-1,-1,39,41,43,-1,45,47,49,51,-1,-1,-1,-1,-1,-1,-1,-1,-1,-1,-1,-1,-1,-1,-1,-1,-1,-1,-1,-1,-1,-1],"loss_changes":[2.0995532E3,1.7894495E2,0E0,5.2587387E1,9.8897705E0,3.2153152E1,4.3388123E1,2.6880493E0,1.36597595E1,4.550374E1,1.3205521E1,3.329029E0,9.312647E0,0E0,2.3859863E0,1.1082413E1,6.9675903E0,1.3416767E1,8.6502285E0,1.19700775E1,1.092597E1,0E0,0E0,4.2390842E0,9.868893E0,1.1543579E0,0E0,6.8829274E0,9.743195E0,2.1494446E0,7.0414486E0,0E0,0E0,0E0,0E0,0E0,0E0,0E0,0E0,0E0,0E0,0E0,0E0,0E0,0E0,0E0,0E0,0E0,0E0,0E0,0E0,0E0,0E0],"parents":[2147483647,0,0,1,1,3,3,4,4,5,5,6,6,7,7,8,8,9,9,10,10,11,11,12,12,14,14,15,15,16,16,17,17,18,18,19,19,20,20,23,23,24,24,25,25,27,27,28,28,29,29,30,30],"right_children":[2,4,-1,6,8,10,12,14,16,18,20,22,24,-1,26,28,30,32,34,36,38,-1,-1,40,42,44,-1,46,48,50,52,-1,-1,-1,-1,-1,-1,-1,-1,-1,-1,-1,-1,-1,-1,-1,-1,-1,-1,-1,-1,-1,-1],"split_conditions":[1.1E1,1.24E1,-3.5116337E-2,1E1,2.21E2,3E0,7.8E1,7.5E1,7E0,3.1E0,2.235E2,6.4E0,8.3E1,6.992285E-4,5.1E0,1.61E1,1E1,4.5E0,2.178E2,7.4E0,1E0,6.4313696E-3,-3.5330433E-2,8.434E2,1.57E1,6.116E2,7.253673E-3,2.219E2,1.72E1,7.2E1,1.92E1,9.6779475E-3,3.3811964E-2,3.5451073E-2,-2.5236795E-2,3.459277E-2,1.2219965E-2,-7.7448348E-3,3.4500428E-2,-1.4637625E-2,1.9561326E-2,9.931809E-3,4.848994E-2,1.1911997E-2,4.4311255E-2,2.6382277E-2,-3.6723122E-2,3.3560432E-2,6.4494414E-3,2.0308988E-2,4.407748E-2,2.9427148E-2,-1.746043E-2],"split_indices":[14,12,0,13,15,13,1,9,13,4,15,8,9,0,5,0,13,3,15,4,11,0,0,2,0,10,0,15,12,1,0,0,0,0,0,0,0,0,0,0,0,0,0,0,0,0,0,0,0,0,0,0,0],"split_type":[0,0,0,0,0,0,0,0,0,0,0,0,0,0,0,0,0,0,0,0,0,0,0,0,0,0,0,0,0,0,0,0,0,0,0,0,0,0,0,0,0,0,0,0,0,0,0,0,0,0,0,0,0],"sum_hessian":[1.8273433E3,9.605692E2,8.6677405E2,4.0742258E2,5.5314667E2,3.0770578E2,9.9716805E1,3.349704E2,2.1817624E2,1.2069608E2,1.8700969E2,3.1728565E1,6.7988235E1,1.3301418E0,3.3364026E2,6.810534E1,1.500709E2,8.791718E1,3.2778904E1,1.6395325E2,2.3056452E1,1.519167E0,3.0209398E1,1.9439756E1,4.8548477E1,3.316226E2,2.0176733E0,5.0867376E0,6.30186E1,1.2429966E2,2.5771246E1,5.3982254E1,3.393493E1,1.4037261E0,3.137518E1,1.3672318E2,2.723007E1,1.5811062E1,7.24539E0,1.63321E1,3.1076574E0,4.240136E1,6.147121E0,1.8669688E0,3.297556E2,1.4962661E0,3.5904713E0,4.6327065E1,1.6691536E1,6.0812664E0,1.182184E2,2.3162828E1,2.6084185E0],"tree_param":{"num_deleted":"0","num_feature":"17","num_nodes":"53","size_leaf_vector":"1"}},{"base_weights":[-4.2197824E-2,9.529465E-1,-3.4937583E-2,4.5801142E-1,1.3185745E0,-2.7949354E-1,6.230159E-1,1.4502487E0,1.1591963E0,-8.6997455E-1,3.985192E-1,7.8553003E-1,1.00292414E-1,1.4612886E0,4.5204833E-1,7.9178077E-1,1.3187191E0,-9.966307E-1,-1.2506369E-1,6.384333E-1,-2.9446548E-2,4.3602055E-1,1.033242E0,3.5059217E-1,-7.2722137E-1,7.147152E-1,1.470905E0,3.1295963E-2,-7.5343676E-2,-8.726381E-2,9.4772345E-1,1.4017844E0,8.8024825E-1,-3.502221E-2,-1.3498894E-2,1.9674733E-2,-2.8719146E-2,-3.0513875E-2,2.294283E-2,3.225627E-2,3.288538E-3,1.3708124E-2,3.6093045E-2,-1.3432666E-2,1.48045495E-2,-2.7768321E-2,1.6234951E-2,3.5355605E-2,-1.1385404E-4,1.4946603E-2,4.4307098E-2,-3.030871E-2,2.6595855E-2,-1.1851116E-2,2.9463496E-2,3.0305553E-2,-2.7965797E-2,1.9604536E-2,4.3195903E-2,-1.4263546E-3,3.439926E-2],"categories":[],"categories_nodes":[],"categories_segments":[],"categories_sizes":[],"default_left":[0,0,0,0,0,0,0,0,0,0,0,0,0,0,0,0,0,0,0,0,0,0,0,0,0,0,0,0,0,0,0,0,0,0,0,0,0,0,0,0,0,0,0,0,0,0,0,0,0,0,0,0,0,0,0,0,0,0,0,0,0],"id":24,"left_children":[1,3,-1,5,7,9,11,13,15,17,19,21,23,25,27,29,31,33,35,37,-1,39,41,43,45,47,49,-1,51,53,55,57,59,-1,-1,-1,-1,-1,-1,-1,-1,-1,-1,-1,-1,-1,-1,-1,-1,-1,-1,-1,-1,-1,-1,-1,-1,-1,-1,-1,-1],"loss_changes":[2.0116753E3,1.7215485E2,0E0,4.9719955E1,9.830139E0,3.0424313E1,2.8210861E1,2.6055908E0,1.3792694E1,3.6936073E0,1.2432819E1,2.1530624E1,1.6851133E1,1.0501099E0,1.5407901E0,1.0930824E1,5.1399536E0,2.6904602E0,5.193023E0,7.2576942E0,0E0,2.2213516E1,1.392366E1,7.3158216E0,5.2650585E0,1.8930998E0,9.446411E-1,0E0,3.963439E0,4.6137395E0,8.843945E0,3.2033997E0,7.607811E0,0E0,0E0,0E0,0E0,0E0,0E0,0E0,0E0,0E0,0E0,0E0,0E0,0E0,0E0,0E0,0E0,0E0,0E0,0E0,0E0,0E0,0E0,0E0,0E0,0E0,0E0,0E0,0E0],"parents":[2147483647,0,0,1,1,3,3,4,4,5,5,6,6,7,7,8,8,9,9,10,10,11,11,12,12,13,13,14,14,15,15,16,16,17,17,18,18,19,19,21,21,22,22,23,23,24,24,25,25,26,26,28,28,29,29,30,30,31,31,32,32],"right_children":[2,4,-1,6,8,10,12,14,16,18,20,22,24,26,28,30,32,34,36,38,-1,40,42,44,46,48,50,-1,52,54,56,58,60,-1,-1,-1,-1,-1,-1,-1,-1,-1,-1,-1,-1,-1,-1,-1,-1,-1,-1,-1,-1,-1,-1,-1,-1,-1,-1,-1,-1],"split_conditions":[1.1E1,1.24E1,-3.4937583E-2,6.8E1,2.207E2,1.65E1,1E1,2.2E1,7E0,8.5E1,6E0,3E0,3.1E0,8.1E1,1.68E1,0E0,3.5E0,1.48E1,8.393E2,2.3E0,-2.9446548E-2,6.5E0,6E-1,-4E-1,1E0,8.365E2,-2.1E0,3.1295963E-2,7.5E1,1.96E1,2.18E1,1.36E1,1.56E1,-3.502221E-2,-1.3498894E-2,1.9674733E-2,-2.8719146E-2,-3.0513875E-2,2.294283E-2,3.225627E-2,3.288538E-3,1.3708124E-2,3.6093045E-2,-1.3432666E-2,1.48045495E-2,-2.7768321E-2,1.6234951E-2,3.5355605E-2,-1.1385404E-4,1.4946603E-2,4.4307098E-2,-3.030871E-2,2.6595855E-2,-1.1851116E-2,2.9463496E-2,3.0305553E-2,-2.7965797E-2,1.9604536E-2,4.3195903E-2,-1.4263546E-3,3.439926E-2],"split_indices":[14,12,0,1,15,0,13,0,13,9,13,13,4,9,12,16,4,0,2,16,0,0,16,16,11,2,16,0,1,8,0,12,12,0,0,0,0,0,0,0,0,0,0,0,0,0,0,0,0,0,0,0,0,0,0,0,0,0,0,0,0],"split_type":[0,0,0,0,0,0,0,0,0,0,0,0,0,0,0,0,0,0,0,0,0,0,0,0,0,0,0,0,0,0,0,0,0,0,0,0,0,0,0,0,0,0,0,0,0,0,0,0,0,0,0,0,0,0,0,0,0,0,0,0,0],"sum_hessian":[1.7990686E3,9.536679E2,8.4540063E2,4.061427E2,5.475252E2,7.412761E1,3.320151E2,2.9538583E2,2.521394E2,3.9470043E1,3.4657566E1,2.528893E2,7.912579E1,2.9169583E2,3.6899989E0,7.813684E1,1.7400255E2,3.344544E1,6.024602E0,2.9982708E1,4.6748586E0,1.0603675E2,1.4685254E2,6.119297E1,1.7932827E1,4.6673203E0,2.870285E2,1.2786899E0,2.411309E0,1.1839325E1,6.6297516E1,1.4444202E2,2.9560537E1,2.4619066E1,8.826374E0,3.2175589E0,2.807043E0,1.6257166E0,2.8356993E1,3.506854E1,7.096821E1,3.427009E1,1.1258246E2,8.966013E0,5.2226955E1,1.5741009E1,2.1918185E0,2.4473233E0,2.219997E0,2.2744184E0,2.847541E2,1.1972429E0,1.214066E0,9.683076E0,2.1562486E0,6.4613335E1,1.6841846E0,7.8737803E0,1.3656824E2,6.777489E0,2.2783047E1],"tree_param":{"num_deleted":"0","num_feature":"17","num_nodes":"61","size_leaf_vector":"1"}},{"base_weights":[-4.1618485E-2,9.315025E-1,-3.476579E-2,4.4536176E-1,1.2935891E0,-2.750714E-1,6.05242E-1,1.4090328E0,1.112107E0,-8.592258E-1,3.8597047E-1,7.3706186E-1,-5.231434E-3,4.7929716E-4,1.4146377E0,7.305903E-1,1.281461E0,-9.861612E-1,-1.2314277E-1,6.1808634E-1,-2.9205186E-2,5.083843E-2,8.408825E-1,-6.341465E-1,4.1027412E-1,1.4214493E0,6.277337E-3,-5.5800444E-1,8.4145904E-1,1.3838993E0,7.6019347E-1,-3.457798E-2,-1.2479073E-2,1.9127294E-2,-2.842604E-2,2.2277044E-2,-3.0335387E-2,3.5395883E-2,-4.7734967E-3,-3.9558347E-2,2.612606E-2,2.4741268E-2,-2.8773524E-2,-3.2404013E-2,1.6169503E-2,1.1149769E-2,4.278989E-2,2.582873E-2,-3.6407795E-2,3.2029655E-2,5.7459315E-3,1.9087683E-2,4.2518575E-2,2.7899796E-2,-1.7430225E-2],"categories":[],"categories_nodes":[],"categories_segments":[],"categories_sizes":[],"default_left":[0,0,0,0,0,0,0,0,0,0,0,0,0,0,0,0,0,0,0,0,0,0,0,0,0,0,0,0,0,0,0,0,0,0,0,0,0,0,0,0,0,0,0,0,0,0,0,0,0,0,0,0,0,0,0],"id":25,"left_children":[1,3,-1,5,7,9,11,13,15,17,19,21,23,-1,25,27,29,31,33,35,-1,37,39,41,43,45,-1,47,49,51,53,-1,-1,-1,-1,-1,-1,-1,-1,-1,-1,-1,-1,-1,-1,-1,-1,-1,-1,-1,-1,-1,-1,-1,-1],"loss_changes":[1.9277399E3,1.662428E2,0E0,4.693931E1,9.801453E0,2.9075762E1,2.6771965E1,2.5377808E0,1.3001556E1,3.5997944E0,1.1838881E1,1.9447678E1,1.5955971E1,0E0,2.3839722E0,1.02763405E1,6.854706E0,2.7307358E0,4.9943905E0,7.043968E0,0E0,8.9618845E0,1.6531372E1,1.2305736E1,7.6368423E0,1.1328735E0,0E0,6.6630397E0,9.146088E0,2.1568298E0,6.584093E0,0E0,0E0,0E0,0E0,0E0,0E0,0E0,0E0,0E0,0E0,0E0,0E0,0E0,0E0,0E0,0E0,0E0,0E0,0E0,0E0,0E0,0E0,0E0,0E0],"parents":[2147483647,0,0,1,1,3,3,4,4,5,5,6,6,7,7,8,8,9,9,10,10,11,11,12,12,14,14,15,15,16,16,17,17,18,18,19,19,21,21,22,22,23,23,24,24,25,25,27,27,28,28,29,29,30,30],"right_children":[2,4,-1,6,8,10,12,14,16,18,20,22,24,-1,26,28,30,32,34,36,-1,38,40,42,44,46,-1,48,50,52,54,-1,-1,-1,-1,-1,-1,-1,-1,-1,-1,-1,-1,-1,-1,-1,-1,-1,-1,-1,-1,-1,-1,-1,-1],"split_conditions":[1.1E1,1.24E1,-3.476579E-2,6.8E1,2.21E2,1.65E1,1.1E1,7.5E1,7E0,8.5E1,6E0,6.153E2,8.8E1,4.7929716E-4,5.1E0,1.61E1,1E1,4.1E0,8.393E2,-2.2495106E-1,-2.9205186E-2,2.185E2,-1.4E0,6.6E0,-1.1E0,6.116E2,6.277337E-3,2.219E2,1.72E1,7.2E1,1.92E1,-3.457798E-2,-1.2479073E-2,1.9127294E-2,-2.842604E-2,2.2277044E-2,-3.0335387E-2,3.5395883E-2,-4.7734967E-3,-3.9558347E-2,2.612606E-2,2.4741268E-2,-2.8773524E-2,-3.2404013E-2,1.6169503E-2,1.1149769E-2,4.278989E-2,2.582873E-2,-3.6407795E-2,3.2029655E-2,5.7459315E-3,1.9087683E-2,4.2518575E-2,2.7899796E-2,-1.7430225E-2],"split_indices":[14,12,0,1,15,0,13,9,13,9,13,10,1,0,5,0,13,5,2,6,0,15,16,8,16,10,0,15,12,1,0,0,0,0,0,0,0,0,0,0,0,0,0,0,0,0,0,0,0,0,0,0,0,0,0],"split_type":[0,0,0,0,0,0,0,0,0,0,0,0,0,0,0,0,0,0,0,0,0,0,0,0,0,0,0,0,0,0,0,0,0,0,0,0,0,0,0,0,0,0,0,0,0,0,0,0,0,0,0,0,0,0,0],"sum_hessian":[1.7711128E3,9.467E2,8.2441284E2,4.0507397E2,5.4162604E2,7.343763E1,3.3163635E2,3.269095E2,2.1471657E2,3.8826942E1,3.4610687E1,2.725723E2,5.9064045E1,1.3254771E0,3.25584E2,6.76439E1,1.4707266E2,3.2826385E1,6.0005555E0,3.0028923E1,4.5817623E0,3.601481E1,2.365575E2,2.3288317E1,3.577573E1,3.235763E2,2.0077374E0,5.0394015E0,6.2604496E1,1.21534164E2,2.5538502E1,2.461878E1,8.207607E0,3.238653E0,2.7619028E0,2.8403059E1,1.6258644E0,4.92284E0,3.1091967E1,2.6512415E0,2.3390627E2,3.962431E0,1.9325886E1,2.2563202E0,3.351941E1,1.8543389E0,3.2172195E2,1.493531E0,3.5458703E0,4.596459E1,1.6639908E1,6.052568E0,1.154816E2,2.2940739E1,2.597764E0],"tree_param":{"num_deleted":"0","num_feature":"17","num_nodes":"55","size_leaf_vector":"1"}},{"base_weights":[-4.1137677E-2,9.1046196E-1,-3.4600634E-2,4.326896E-1,1.2695463E0,6.2034625E-1,-1.5366326E-1,1.4023751E0,1.1103243E0,2.3931368E-1,8.642591E-1,-1.0867625E0,2.67123E-1,1.4135909E0,4.150753E-1,7.506411E-1,1.2686181E0,5.8852047E-1,-7.095678E-1,1.1960442E0,6.473492E-1,6.7150285E-3,-3.4822542E-2,-2.8479275E-1,4.878464E-1,6.776384E-1,1.4232802E0,3.017077E-2,-1.0298853E-1,-9.2421636E-2,9.01096E-1,1.356956E0,8.546514E-1,8.491884E-3,3.156934E-2,3.3858422E-2,-2.4831682E-2,1.4008196E-2,4.0375046E-2,8.075875E-3,2.8281162E-2,-2.009336E-2,6.352018E-3,9.0793E-3,4.6380658E-2,3.4334693E-2,-9.020568E-4,2.6029142E-2,4.3137833E-2,-3.0442324E-2,2.5709849E-2,6.742897E-3,-3.3890564E-2,2.8874256E-2,-2.7843773E-2,3.0578405E-2,4.287797E-2,2.8391067E-2,-2.4652923E-2],"categories":[],"categories_nodes":[],"categories_segments":[],"categories_sizes":[],"default_left":[0,0,0,0,0,0,0,0,0,0,0,0,0,0,0,0,0,0,0,0,0,0,0,0,0,0,0,0,0,0,0,0,0,0,0,0,0,0,0,0,0,0,0,0,0,0,0,0,0,0,0,0,0,0,0,0,0,0,0],"id":26,"left_children":[1,3,-1,5,7,9,11,13,15,17,19,21,23,25,27,29,31,33,35,37,39,-1,-1,41,43,45,47,-1,49,51,53,55,57,-1,-1,-1,-1,-1,-1,-1,-1,-1,-1,-1,-1,-1,-1,-1,-1,-1,-1,-1,-1,-1,-1,-1,-1,-1,-1],"loss_changes":[1.8474152E3,1.6083746E2,0E0,4.4676125E1,9.790344E0,2.8337196E1,3.9173412E1,2.6102295E0,1.3214844E1,4.059552E1,1.2674606E1,3.2635574E0,8.55127E0,1.0682373E0,1.5290148E0,1.0039299E1,5.105896E0,1.2336222E1,8.117195E0,7.3108444E0,1.2610558E1,0E0,0E0,4.033493E0,9.271465E0,1.8888991E0,1.0349121E0,0E0,3.8358018E0,4.4629874E0,8.381859E0,1.9494629E0,5.8260784E0,0E0,0E0,0E0,0E0,0E0,0E0,0E0,0E0,0E0,0E0,0E0,0E0,0E0,0E0,0E0,0E0,0E0,0E0,0E0,0E0,0E0,0E0,0E0,0E0,0E0,0E0],"parents":[2147483647,0,0,1,1,3,3,4,4,5,5,6,6,7,7,8,8,9,9,10,10,11,11,12,12,13,13,14,14,15,15,16,16,17,17,18,18,19,19,20,20,23,23,24,24,25,25,26,26,28,28,29,29,30,30,31,31,32,32],"right_children":[2,4,-1,6,8,10,12,14,16,18,20,22,24,26,28,30,32,34,36,38,40,-1,-1,42,44,46,48,-1,50,52,54,56,58,-1,-1,-1,-1,-1,-1,-1,-1,-1,-1,-1,-1,-1,-1,-1,-1,-1,-1,-1,-1,-1,-1,-1,-1,-1,-1],"split_conditions":[1.1E1,1.24E1,-3.4600634E-2,1E1,2.207E2,3E0,7.8E1,2.2E1,7E0,3.1E0,2.208E2,6.4E0,8.3E1,8.1E1,1.68E1,0E0,1E1,4.5E0,2.178E2,7.6E1,3.6E0,6.7150285E-3,-3.4822542E-2,1.6E0,1.57E1,8.365E2,5E0,3.017077E-2,7.5E1,1.9E0,2.18E1,8.2E1,1.99E1,8.491884E-3,3.156934E-2,3.3858422E-2,-2.4831682E-2,1.4008196E-2,4.0375046E-2,8.075875E-3,2.8281162E-2,-2.009336E-2,6.352018E-3,9.0793E-3,4.6380658E-2,3.4334693E-2,-9.020568E-4,2.6029142E-2,4.3137833E-2,-3.0442324E-2,2.5709849E-2,6.742897E-3,-3.3890564E-2,2.8874256E-2,-2.7843773E-2,3.0578405E-2,4.287797E-2,2.8391067E-2,-2.4652923E-2],"split_indices":[14,12,0,13,15,13,1,0,13,4,15,8,9,9,12,16,13,3,15,9,5,0,0,16,0,2,13,0,1,4,0,1,0,0,0,0,0,0,0,0,0,0,0,0,0,0,0,0,0,0,0,0,0,0,0,0,0,0,0],"split_type":[0,0,0,0,0,0,0,0,0,0,0,0,0,0,0,0,0,0,0,0,0,0,0,0,0,0,0,0,0,0,0,0,0,0,0,0,0,0,0,0,0,0,0,0,0,0,0,0,0,0,0,0,0,0,0,0,0,0,0],"sum_hessian":[1.7435116E3,9.3969824E2,8.038134E2,4.0415845E2,5.355398E2,3.0612732E2,9.8031105E1,2.8771228E2,2.4782753E2,1.202531E2,1.8587424E2,2.997607E1,6.805503E1,2.8405365E2,3.6586454E0,7.749092E1,1.7033661E2,8.818067E1,3.2072422E1,7.169526E1,1.1417898E2,1.4936259E0,2.8482445E1,1.9358673E1,4.869636E1,4.612953E0,2.7944067E2,1.2697822E0,2.388863E0,1.179337E1,6.569755E1,1.38503E2,3.1833593E1,5.413627E1,3.4044403E1,1.4205419E0,3.0651882E1,1.2920788E1,5.877447E1,5.0909485E1,6.3269493E1,1.0707556E1,8.651117E0,4.253742E1,6.1589417E0,2.4075744E0,2.2053788E0,8.724396E0,2.7071628E2,1.1959512E0,1.192912E0,9.631474E0,2.1618965E0,6.4023094E1,1.6744525E0,2.7090477E1,1.1141254E2,3.0595194E1,1.2383981E0],"tree_param":{"num_deleted":"0","num_feature":"17","num_nodes":"59","size_leaf_vector":"1"}},{"base_weights":[-4.0515065E-2,8.909073E-1,-3.4441803E-2,4.2154047E-1,1.2465912E0,-2.7211097E-1,5.733755E-1,1.3803144E0,1.087157E0,-7.9222256E-1,4.249835E-1,7.2385937E-1,8.878418E-2,1.3914362E0,4.0958378E-1,7.309468E-1,1.2450541E0,-1.062521E0,-3.6464798E-1,6.2399405E-1,-2.7495617E-2,5.4252356E-1,1.1788149E0,3.219572E-1,-7.0812166E-1,9.741983E-1,1.41243E0,2.9725472E-2,-1.01645574E-1,-9.189023E-2,8.7836605E-1,1.3288138E0,8.115322E-1,-3.4526214E-2,2.7354895E-3,1.737797E-2,-1.817904E-2,3.322186E-2,1.4930421E-4,-1.9527775E-3,2.0772217E-2,4.1920405E-2,1.8392824E-2,5.773666E-3,3.746186E-2,-2.7201911E-2,1.572753E-2,-1.20307375E-2,